<?xml version="1.0"?>
<MethodSetup Method="BDT::BDT">
  <Variables NVar="8">
    <Variable VarIndex="0" Type="F" Expression="f0" Label="f0" Title="f0" Unit="" Internal="f0" Min="0.0e+00" Max="0.0e+00"/>
    <Variable VarIndex="1" Type="F" Expression="f1" Label="f1" Title="f1" Unit="" Internal="f1" Min="0.0e+00" Max="0.0e+00"/>
    <Variable VarIndex="2" Type="F" Expression="f2" Label="f2" Title="f2" Unit="" Internal="f2" Min="0.0e+00" Max="0.0e+00"/>
    <Variable VarIndex="3" Type="F" Expression="f3" Label="f3" Title="f3" Unit="" Internal="f3" Min="0.0e+00" Max="0.0e+00"/>
    <Variable VarIndex="4" Type="F" Expression="f4" Label="f4" Title="f4" Unit="" Internal="f4" Min="0.0e+00" Max="0.0e+00"/>
    <Variable VarIndex="5" Type="F" Expression="f5" Label="f5" Title="f5" Unit="" Internal="f5" Min="0.0e+00" Max="0.0e+00"/>
    <Variable VarIndex="6" Type="F" Expression="f6" Label="f6" Title="f6" Unit="" Internal="f6" Min="0.0e+00" Max="0.0e+00"/>
    <Variable VarIndex="7" Type="F" Expression="f7" Label="f7" Title="f7" Unit="" Internal="f7" Min="0.0e+00" Max="0.0e+00"/>
  </Variables>
  <GeneralInfo>
    <Info name="Creator" value="xgboost2TMVA"/>
    <Info name="AnalysisType" value="Classification"/>
  </GeneralInfo>
  <Options>
    <Option name="NodePurityLimit" modified="No">5.00e-01</Option>
    <Option name="BoostType" modified="Yes">Grad</Option>
  </Options>
  <Weights NTrees="200" AnalysisType="1">
    <BinaryTree type="DecisionTree" boostWeight="1.0e+00" itree="0">
      <Node pos="s" depth="0" NCoef="0" IVar="6" Cut="-0.391360492" cType="1" res="0.0e+00" rms="0.0e+00" purity="0.0e+00" nType="0">
        <Node pos="l" depth="1" NCoef="0" IVar="0" Cut="-0.527379751" cType="1" res="0.0e+00" rms="0.0e+00" purity="0.0e+00" nType="0">
          <Node pos="l" depth="2" NCoef="0" IVar="1" Cut="-0.728647888" cType="1" res="0.0e+00" rms="0.0e+00" purity="0.0e+00" nType="0">
            <Node pos="l" depth="3" NCoef="0" IVar="6" Cut="-0.479122132" cType="1" res="0.0e+00" rms="0.0e+00" purity="0.0e+00" nType="0">
              <Node pos="l" depth="4" NCoef="0" IVar="0" Cut="-0.630006254" cType="1" res="0.0e+00" rms="0.0e+00" purity="0.0e+00" nType="0">
                <Node pos="l" depth="5" NCoef="0" IVar="4" Cut="-0.277087867" cType="1" res="0.0e+00" rms="0.0e+00" purity="0.0e+00" nType="0">
                  <Node pos="l" depth="6" NCoef="0" IVar="-1" Cut="0.0e+00" cType="1" res="0.497022867" rms="0.0e+00" purity="0.0e+00" nType="-99"/>
                  <Node pos="r" depth="6" NCoef="0" IVar="-1" Cut="0.0e+00" cType="1" res="0.360080212" rms="0.0e+00" purity="0.0e+00" nType="-99"/>
                </Node>
                <Node pos="r" depth="5" NCoef="0" IVar="2" Cut="-0.117238499" cType="1" res="0.0e+00" rms="0.0e+00" purity="0.0e+00" nType="0">
                  <Node pos="l" depth="6" NCoef="0" IVar="-1" Cut="0.0e+00" cType="1" res="0.553033412" rms="0.0e+00" purity="0.0e+00" nType="-99"/>
                  <Node pos="r" depth="6" NCoef="0" IVar="-1" Cut="0.0e+00" cType="1" res="0.174107313" rms="0.0e+00" purity="0.0e+00" nType="-99"/>
                </Node>
              </Node>
              <Node pos="r" depth="4" NCoef="0" IVar="1" Cut="-0.881445527" cType="1" res="0.0e+00" rms="0.0e+00" purity="0.0e+00" nType="0">
                <Node pos="l" depth="5" NCoef="0" IVar="2" Cut="-0.118807137" cType="1" res="0.0e+00" rms="0.0e+00" purity="0.0e+00" nType="0">
                  <Node pos="l" depth="6" NCoef="0" IVar="-1" Cut="0.0e+00" cType="1" res="0.0184815023" rms="0.0e+00" purity="0.0e+00" nType="-99"/>
                  <Node pos="r" depth="6" NCoef="0" IVar="-1" Cut="0.0e+00" cType="1" res="0.323117673" rms="0.0e+00" purity="0.0e+00" nType="-99"/>
                </Node>
                <Node pos="r" depth="5" NCoef="0" IVar="4" Cut="0.239247561" cType="1" res="0.0e+00" rms="0.0e+00" purity="0.0e+00" nType="0">
                  <Node pos="l" depth="6" NCoef="0" IVar="-1" Cut="0.0e+00" cType="1" res="-0.0803102553" rms="0.0e+00" purity="0.0e+00" nType="-99"/>
                  <Node pos="r" depth="6" NCoef="0" IVar="-1" Cut="0.0e+00" cType="1" res="0.206361264" rms="0.0e+00" purity="0.0e+00" nType="-99"/>
                </Node>
              </Node>
            </Node>
            <Node pos="r" depth="3" NCoef="0" IVar="6" Cut="-0.501731813" cType="1" res="0.0e+00" rms="0.0e+00" purity="0.0e+00" nType="0">
              <Node pos="l" depth="4" NCoef="0" IVar="4" Cut="-0.29244405" cType="1" res="0.0e+00" rms="0.0e+00" purity="0.0e+00" nType="0">
                <Node pos="l" depth="5" NCoef="0" IVar="2" Cut="-0.0379543155" cType="1" res="0.0e+00" rms="0.0e+00" purity="0.0e+00" nType="0">
                  <Node pos="l" depth="6" NCoef="0" IVar="-1" Cut="0.0e+00" cType="1" res="0.386503547" rms="0.0e+00" purity="0.0e+00" nType="-99"/>
                  <Node pos="r" depth="6" NCoef="0" IVar="-1" Cut="0.0e+00" cType="1" res="-0.168241739" rms="0.0e+00" purity="0.0e+00" nType="-99"/>
                </Node>
                <Node pos="r" depth="5" NCoef="0" IVar="4" Cut="0.272622228" cType="1" res="0.0e+00" rms="0.0e+00" purity="0.0e+00" nType="0">
                  <Node pos="l" depth="6" NCoef="0" IVar="-1" Cut="0.0e+00" cType="1" res="-0.0566226356" rms="0.0e+00" purity="0.0e+00" nType="-99"/>
                  <Node pos="r" depth="6" NCoef="0" IVar="-1" Cut="0.0e+00" cType="1" res="0.33092019" rms="0.0e+00" purity="0.0e+00" nType="-99"/>
                </Node>
              </Node>
              <Node pos="r" depth="4" NCoef="0" IVar="4" Cut="0.302664936" cType="1" res="0.0e+00" rms="0.0e+00" purity="0.0e+00" nType="0">
                <Node pos="l" depth="5" NCoef="0" IVar="4" Cut="-1.00350451" cType="1" res="0.0e+00" rms="0.0e+00" purity="0.0e+00" nType="0">
                  <Node pos="l" depth="6" NCoef="0" IVar="-1" Cut="0.0e+00" cType="1" res="0.0451296978" rms="0.0e+00" purity="0.0e+00" nType="-99"/>
                  <Node pos="r" depth="6" NCoef="0" IVar="-1" Cut="0.0e+00" cType="1" res="-0.465309888" rms="0.0e+00" purity="0.0e+00" nType="-99"/>
                </Node>
                <Node pos="r" depth="5" NCoef="0" IVar="2" Cut="-0.040333651" cType="1" res="0.0e+00" rms="0.0e+00" purity="0.0e+00" nType="0">
                  <Node pos="l" depth="6" NCoef="0" IVar="-1" Cut="0.0e+00" cType="1" res="0.110858262" rms="0.0e+00" purity="0.0e+00" nType="-99"/>
                  <Node pos="r" depth="6" NCoef="0" IVar="-1" Cut="0.0e+00" cType="1" res="-0.346666634" rms="0.0e+00" purity="0.0e+00" nType="-99"/>
                </Node>
              </Node>
            </Node>
          </Node>
          <Node pos="r" depth="2" NCoef="0" IVar="6" Cut="-0.464554429" cType="1" res="0.0e+00" rms="0.0e+00" purity="0.0e+00" nType="0">
            <Node pos="l" depth="3" NCoef="0" IVar="2" Cut="0.00895570498" cType="1" res="0.0e+00" rms="0.0e+00" purity="0.0e+00" nType="0">
              <Node pos="l" depth="4" NCoef="0" IVar="0" Cut="-0.17198509" cType="1" res="0.0e+00" rms="0.0e+00" purity="0.0e+00" nType="0">
                <Node pos="l" depth="5" NCoef="0" IVar="2" Cut="-0.116919741" cType="1" res="0.0e+00" rms="0.0e+00" purity="0.0e+00" nType="0">
                  <Node pos="l" depth="6" NCoef="0" IVar="-1" Cut="0.0e+00" cType="1" res="0.577829778" rms="0.0e+00" purity="0.0e+00" nType="-99"/>
                  <Node pos="r" depth="6" NCoef="0" IVar="-1" Cut="0.0e+00" cType="1" res="0.412520826" rms="0.0e+00" purity="0.0e+00" nType="-99"/>
                </Node>
                <Node pos="r" depth="5" NCoef="0" IVar="3" Cut="-1.54304528" cType="1" res="0.0e+00" rms="0.0e+00" purity="0.0e+00" nType="0">
                  <Node pos="l" depth="6" NCoef="0" IVar="-1" Cut="0.0e+00" cType="1" res="-0.0143182175" rms="0.0e+00" purity="0.0e+00" nType="-99"/>
                  <Node pos="r" depth="6" NCoef="0" IVar="-1" Cut="0.0e+00" cType="1" res="0.589282513" rms="0.0e+00" purity="0.0e+00" nType="-99"/>
                </Node>
              </Node>
              <Node pos="r" depth="4" NCoef="0" IVar="1" Cut="1.46945" cType="1" res="0.0e+00" rms="0.0e+00" purity="0.0e+00" nType="0">
                <Node pos="l" depth="5" NCoef="0" IVar="1" Cut="0.897749186" cType="1" res="0.0e+00" rms="0.0e+00" purity="0.0e+00" nType="0">
                  <Node pos="l" depth="6" NCoef="0" IVar="-1" Cut="0.0e+00" cType="1" res="0.56486547" rms="0.0e+00" purity="0.0e+00" nType="-99"/>
                  <Node pos="r" depth="6" NCoef="0" IVar="-1" Cut="0.0e+00" cType="1" res="0.346774191" rms="0.0e+00" purity="0.0e+00" nType="-99"/>
                </Node>
                <Node pos="r" depth="5" NCoef="0" IVar="6" Cut="-0.515326738" cType="1" res="0.0e+00" rms="0.0e+00" purity="0.0e+00" nType="0">
                  <Node pos="l" depth="6" NCoef="0" IVar="-1" Cut="0.0e+00" cType="1" res="0.260362208" rms="0.0e+00" purity="0.0e+00" nType="-99"/>
                  <Node pos="r" depth="6" NCoef="0" IVar="-1" Cut="0.0e+00" cType="1" res="-0.177876577" rms="0.0e+00" purity="0.0e+00" nType="-99"/>
                </Node>
              </Node>
            </Node>
            <Node pos="r" depth="3" NCoef="0" IVar="0" Cut="0.00297213951" cType="1" res="0.0e+00" rms="0.0e+00" purity="0.0e+00" nType="0">
              <Node pos="l" depth="4" NCoef="0" IVar="2" Cut="-0.116888553" cType="1" res="0.0e+00" rms="0.0e+00" purity="0.0e+00" nType="0">
                <Node pos="l" depth="5" NCoef="0" IVar="1" Cut="-0.690465569" cType="1" res="0.0e+00" rms="0.0e+00" purity="0.0e+00" nType="0">
                  <Node pos="l" depth="6" NCoef="0" IVar="-1" Cut="0.0e+00" cType="1" res="0.522160232" rms="0.0e+00" purity="0.0e+00" nType="-99"/>
                  <Node pos="r" depth="6" NCoef="0" IVar="-1" Cut="0.0e+00" cType="1" res="0.186855525" rms="0.0e+00" purity="0.0e+00" nType="-99"/>
                </Node>
                <Node pos="r" depth="5" NCoef="0" IVar="4" Cut="-1.26181257" cType="1" res="0.0e+00" rms="0.0e+00" purity="0.0e+00" nType="0">
                  <Node pos="l" depth="6" NCoef="0" IVar="-1" Cut="0.0e+00" cType="1" res="0.378869057" rms="0.0e+00" purity="0.0e+00" nType="-99"/>
                  <Node pos="r" depth="6" NCoef="0" IVar="-1" Cut="0.0e+00" cType="1" res="-0.240428135" rms="0.0e+00" purity="0.0e+00" nType="-99"/>
                </Node>
              </Node>
              <Node pos="r" depth="4" NCoef="0" IVar="2" Cut="-0.0193614177" cType="1" res="0.0e+00" rms="0.0e+00" purity="0.0e+00" nType="0">
                <Node pos="l" depth="5" NCoef="0" IVar="3" Cut="0.499974072" cType="1" res="0.0e+00" rms="0.0e+00" purity="0.0e+00" nType="0">
                  <Node pos="l" depth="6" NCoef="0" IVar="-1" Cut="0.0e+00" cType="1" res="0.542139173" rms="0.0e+00" purity="0.0e+00" nType="-99"/>
                  <Node pos="r" depth="6" NCoef="0" IVar="-1" Cut="0.0e+00" cType="1" res="0.0853470713" rms="0.0e+00" purity="0.0e+00" nType="-99"/>
                </Node>
                <Node pos="r" depth="5" NCoef="0" IVar="1" Cut="1.02466416" cType="1" res="0.0e+00" rms="0.0e+00" purity="0.0e+00" nType="0">
                  <Node pos="l" depth="6" NCoef="0" IVar="-1" Cut="0.0e+00" cType="1" res="0.351054937" rms="0.0e+00" purity="0.0e+00" nType="-99"/>
                  <Node pos="r" depth="6" NCoef="0" IVar="-1" Cut="0.0e+00" cType="1" res="-0.284348547" rms="0.0e+00" purity="0.0e+00" nType="-99"/>
                </Node>
              </Node>
            </Node>
          </Node>
        </Node>
        <Node pos="r" depth="1" NCoef="0" IVar="6" Cut="-0.264454126" cType="1" res="0.0e+00" rms="0.0e+00" purity="0.0e+00" nType="0">
          <Node pos="l" depth="2" NCoef="0" IVar="0" Cut="-0.102080628" cType="1" res="0.0e+00" rms="0.0e+00" purity="0.0e+00" nType="0">
            <Node pos="l" depth="3" NCoef="0" IVar="2" Cut="-0.11763081" cType="1" res="0.0e+00" rms="0.0e+00" purity="0.0e+00" nType="0">
              <Node pos="l" depth="4" NCoef="0" IVar="0" Cut="-0.550632656" cType="1" res="0.0e+00" rms="0.0e+00" purity="0.0e+00" nType="0">
                <Node pos="l" depth="5" NCoef="0" IVar="1" Cut="-0.825820923" cType="1" res="0.0e+00" rms="0.0e+00" purity="0.0e+00" nType="0">
                  <Node pos="l" depth="6" NCoef="0" IVar="-1" Cut="0.0e+00" cType="1" res="0.0447659045" rms="0.0e+00" purity="0.0e+00" nType="-99"/>
                  <Node pos="r" depth="6" NCoef="0" IVar="-1" Cut="0.0e+00" cType="1" res="-0.431587487" rms="0.0e+00" purity="0.0e+00" nType="-99"/>
                </Node>
                <Node pos="r" depth="5" NCoef="0" IVar="1" Cut="-0.70964241" cType="1" res="0.0e+00" rms="0.0e+00" purity="0.0e+00" nType="0">
                  <Node pos="l" depth="6" NCoef="0" IVar="-1" Cut="0.0e+00" cType="1" res="0.454209358" rms="0.0e+00" purity="0.0e+00" nType="-99"/>
                  <Node pos="r" depth="6" NCoef="0" IVar="-1" Cut="0.0e+00" cType="1" res="-0.0850881413" rms="0.0e+00" purity="0.0e+00" nType="-99"/>
                </Node>
              </Node>
              <Node pos="r" depth="4" NCoef="0" IVar="4" Cut="1.75333619" cType="1" res="0.0e+00" rms="0.0e+00" purity="0.0e+00" nType="0">
                <Node pos="l" depth="5" NCoef="0" IVar="4" Cut="-1.70019317" cType="1" res="0.0e+00" rms="0.0e+00" purity="0.0e+00" nType="0">
                  <Node pos="l" depth="6" NCoef="0" IVar="-1" Cut="0.0e+00" cType="1" res="0.297744006" rms="0.0e+00" purity="0.0e+00" nType="-99"/>
                  <Node pos="r" depth="6" NCoef="0" IVar="-1" Cut="0.0e+00" cType="1" res="-0.488823086" rms="0.0e+00" purity="0.0e+00" nType="-99"/>
                </Node>
                <Node pos="r" depth="5" NCoef="0" IVar="2" Cut="0.0990345031" cType="1" res="0.0e+00" rms="0.0e+00" purity="0.0e+00" nType="0">
                  <Node pos="l" depth="6" NCoef="0" IVar="-1" Cut="0.0e+00" cType="1" res="0.390949875" rms="0.0e+00" purity="0.0e+00" nType="-99"/>
                  <Node pos="r" depth="6" NCoef="0" IVar="-1" Cut="0.0e+00" cType="1" res="-0.0306824278" rms="0.0e+00" purity="0.0e+00" nType="-99"/>
                </Node>
              </Node>
            </Node>
            <Node pos="r" depth="3" NCoef="0" IVar="2" Cut="-0.0311392583" cType="1" res="0.0e+00" rms="0.0e+00" purity="0.0e+00" nType="0">
              <Node pos="l" depth="4" NCoef="0" IVar="0" Cut="0.605583727" cType="1" res="0.0e+00" rms="0.0e+00" purity="0.0e+00" nType="0">
                <Node pos="l" depth="5" NCoef="0" IVar="4" Cut="1.34870696" cType="1" res="0.0e+00" rms="0.0e+00" purity="0.0e+00" nType="0">
                  <Node pos="l" depth="6" NCoef="0" IVar="-1" Cut="0.0e+00" cType="1" res="0.0172107089" rms="0.0e+00" purity="0.0e+00" nType="-99"/>
                  <Node pos="r" depth="6" NCoef="0" IVar="-1" Cut="0.0e+00" cType="1" res="0.499632448" rms="0.0e+00" purity="0.0e+00" nType="-99"/>
                </Node>
                <Node pos="r" depth="5" NCoef="0" IVar="2" Cut="-0.0756414384" cType="1" res="0.0e+00" rms="0.0e+00" purity="0.0e+00" nType="0">
                  <Node pos="l" depth="6" NCoef="0" IVar="-1" Cut="0.0e+00" cType="1" res="0.49500376" rms="0.0e+00" purity="0.0e+00" nType="-99"/>
                  <Node pos="r" depth="6" NCoef="0" IVar="-1" Cut="0.0e+00" cType="1" res="0.242054939" rms="0.0e+00" purity="0.0e+00" nType="-99"/>
                </Node>
              </Node>
              <Node pos="r" depth="4" NCoef="0" IVar="1" Cut="0.921509147" cType="1" res="0.0e+00" rms="0.0e+00" purity="0.0e+00" nType="0">
                <Node pos="l" depth="5" NCoef="0" IVar="6" Cut="-0.333451658" cType="1" res="0.0e+00" rms="0.0e+00" purity="0.0e+00" nType="0">
                  <Node pos="l" depth="6" NCoef="0" IVar="-1" Cut="0.0e+00" cType="1" res="0.152864009" rms="0.0e+00" purity="0.0e+00" nType="-99"/>
                  <Node pos="r" depth="6" NCoef="0" IVar="-1" Cut="0.0e+00" cType="1" res="-0.0376898609" rms="0.0e+00" purity="0.0e+00" nType="-99"/>
                </Node>
                <Node pos="r" depth="5" NCoef="0" IVar="4" Cut="-1.61291635" cType="1" res="0.0e+00" rms="0.0e+00" purity="0.0e+00" nType="0">
                  <Node pos="l" depth="6" NCoef="0" IVar="-1" Cut="0.0e+00" cType="1" res="-0.241688162" rms="0.0e+00" purity="0.0e+00" nType="-99"/>
                  <Node pos="r" depth="6" NCoef="0" IVar="-1" Cut="0.0e+00" cType="1" res="-0.498426288" rms="0.0e+00" purity="0.0e+00" nType="-99"/>
                </Node>
              </Node>
            </Node>
          </Node>
          <Node pos="r" depth="2" NCoef="0" IVar="0" Cut="0.184164688" cType="1" res="0.0e+00" rms="0.0e+00" purity="0.0e+00" nType="0">
            <Node pos="l" depth="3" NCoef="0" IVar="2" Cut="-0.118062347" cType="1" res="0.0e+00" rms="0.0e+00" purity="0.0e+00" nType="0">
              <Node pos="l" depth="4" NCoef="0" IVar="0" Cut="-0.475204289" cType="1" res="0.0e+00" rms="0.0e+00" purity="0.0e+00" nType="0">
                <Node pos="l" depth="5" NCoef="0" IVar="6" Cut="-0.0919856951" cType="1" res="0.0e+00" rms="0.0e+00" purity="0.0e+00" nType="0">
                  <Node pos="l" depth="6" NCoef="0" IVar="-1" Cut="0.0e+00" cType="1" res="-0.390934348" rms="0.0e+00" purity="0.0e+00" nType="-99"/>
                  <Node pos="r" depth="6" NCoef="0" IVar="-1" Cut="0.0e+00" cType="1" res="-0.55519706" rms="0.0e+00" purity="0.0e+00" nType="-99"/>
                </Node>
                <Node pos="r" depth="5" NCoef="0" IVar="1" Cut="-0.741229773" cType="1" res="0.0e+00" rms="0.0e+00" purity="0.0e+00" nType="0">
                  <Node pos="l" depth="6" NCoef="0" IVar="-1" Cut="0.0e+00" cType="1" res="0.129025519" rms="0.0e+00" purity="0.0e+00" nType="-99"/>
                  <Node pos="r" depth="6" NCoef="0" IVar="-1" Cut="0.0e+00" cType="1" res="-0.447754949" rms="0.0e+00" purity="0.0e+00" nType="-99"/>
                </Node>
              </Node>
              <Node pos="r" depth="4" NCoef="0" IVar="1" Cut="-0.898648322" cType="1" res="0.0e+00" rms="0.0e+00" purity="0.0e+00" nType="0">
                <Node pos="l" depth="5" NCoef="0" IVar="6" Cut="-0.0768514723" cType="1" res="0.0e+00" rms="0.0e+00" purity="0.0e+00" nType="0">
                  <Node pos="l" depth="6" NCoef="0" IVar="-1" Cut="0.0e+00" cType="1" res="-0.0342880785" rms="0.0e+00" purity="0.0e+00" nType="-99"/>
                  <Node pos="r" depth="6" NCoef="0" IVar="-1" Cut="0.0e+00" cType="1" res="-0.398914367" rms="0.0e+00" purity="0.0e+00" nType="-99"/>
                </Node>
                <Node pos="r" depth="5" NCoef="0" IVar="4" Cut="1.65819907" cType="1" res="0.0e+00" rms="0.0e+00" purity="0.0e+00" nType="0">
                  <Node pos="l" depth="6" NCoef="0" IVar="-1" Cut="0.0e+00" cType="1" res="-0.577892303" rms="0.0e+00" purity="0.0e+00" nType="-99"/>
                  <Node pos="r" depth="6" NCoef="0" IVar="-1" Cut="0.0e+00" cType="1" res="-0.466305852" rms="0.0e+00" purity="0.0e+00" nType="-99"/>
                </Node>
              </Node>
            </Node>
            <Node pos="r" depth="3" NCoef="0" IVar="1" Cut="0.809736252" cType="1" res="0.0e+00" rms="0.0e+00" purity="0.0e+00" nType="0">
              <Node pos="l" depth="4" NCoef="0" IVar="6" Cut="-0.0479827523" cType="1" res="0.0e+00" rms="0.0e+00" purity="0.0e+00" nType="0">
                <Node pos="l" depth="5" NCoef="0" IVar="2" Cut="-0.0268604495" cType="1" res="0.0e+00" rms="0.0e+00" purity="0.0e+00" nType="0">
                  <Node pos="l" depth="6" NCoef="0" IVar="-1" Cut="0.0e+00" cType="1" res="0.173243836" rms="0.0e+00" purity="0.0e+00" nType="-99"/>
                  <Node pos="r" depth="6" NCoef="0" IVar="-1" Cut="0.0e+00" cType="1" res="-0.231849357" rms="0.0e+00" purity="0.0e+00" nType="-99"/>
                </Node>
                <Node pos="r" depth="5" NCoef="0" IVar="6" Cut="0.416166484" cType="1" res="0.0e+00" rms="0.0e+00" purity="0.0e+00" nType="0">
                  <Node pos="l" depth="6" NCoef="0" IVar="-1" Cut="0.0e+00" cType="1" res="-0.246212974" rms="0.0e+00" purity="0.0e+00" nType="-99"/>
                  <Node pos="r" depth="6" NCoef="0" IVar="-1" Cut="0.0e+00" cType="1" res="-0.427114844" rms="0.0e+00" purity="0.0e+00" nType="-99"/>
                </Node>
              </Node>
              <Node pos="r" depth="4" NCoef="0" IVar="2" Cut="-0.0278921239" cType="1" res="0.0e+00" rms="0.0e+00" purity="0.0e+00" nType="0">
                <Node pos="l" depth="5" NCoef="0" IVar="0" Cut="1.08748627" cType="1" res="0.0e+00" rms="0.0e+00" purity="0.0e+00" nType="0">
                  <Node pos="l" depth="6" NCoef="0" IVar="-1" Cut="0.0e+00" cType="1" res="-0.518659234" rms="0.0e+00" purity="0.0e+00" nType="-99"/>
                  <Node pos="r" depth="6" NCoef="0" IVar="-1" Cut="0.0e+00" cType="1" res="-0.196732149" rms="0.0e+00" purity="0.0e+00" nType="-99"/>
                </Node>
                <Node pos="r" depth="5" NCoef="0" IVar="1" Cut="1.06846118" cType="1" res="0.0e+00" rms="0.0e+00" purity="0.0e+00" nType="0">
                  <Node pos="l" depth="6" NCoef="0" IVar="-1" Cut="0.0e+00" cType="1" res="-0.420077801" rms="0.0e+00" purity="0.0e+00" nType="-99"/>
                  <Node pos="r" depth="6" NCoef="0" IVar="-1" Cut="0.0e+00" cType="1" res="-0.556703329" rms="0.0e+00" purity="0.0e+00" nType="-99"/>
                </Node>
              </Node>
            </Node>
          </Node>
        </Node>
      </Node>
    </BinaryTree>
    <BinaryTree type="DecisionTree" boostWeight="1.0e+00" itree="1">
      <Node pos="s" depth="0" NCoef="0" IVar="6" Cut="-0.381695449" cType="1" res="0.0e+00" rms="0.0e+00" purity="0.0e+00" nType="0">
        <Node pos="l" depth="1" NCoef="0" IVar="5" Cut="0.726240993" cType="1" res="0.0e+00" rms="0.0e+00" purity="0.0e+00" nType="0">
          <Node pos="l" depth="2" NCoef="0" IVar="5" Cut="-0.764415741" cType="1" res="0.0e+00" rms="0.0e+00" purity="0.0e+00" nType="0">
            <Node pos="l" depth="3" NCoef="0" IVar="0" Cut="0.850294232" cType="1" res="0.0e+00" rms="0.0e+00" purity="0.0e+00" nType="0">
              <Node pos="l" depth="4" NCoef="0" IVar="5" Cut="-0.933004022" cType="1" res="0.0e+00" rms="0.0e+00" purity="0.0e+00" nType="0">
                <Node pos="l" depth="5" NCoef="0" IVar="-1" Cut="0.0e+00" cType="1" res="-0.551048636" rms="0.0e+00" purity="0.0e+00" nType="-99"/>
                <Node pos="r" depth="5" NCoef="0" IVar="0" Cut="-0.187418208" cType="1" res="0.0e+00" rms="0.0e+00" purity="0.0e+00" nType="0">
                  <Node pos="l" depth="6" NCoef="0" IVar="-1" Cut="0.0e+00" cType="1" res="-0.37594223" rms="0.0e+00" purity="0.0e+00" nType="-99"/>
                  <Node pos="r" depth="6" NCoef="0" IVar="-1" Cut="0.0e+00" cType="1" res="0.0454616323" rms="0.0e+00" purity="0.0e+00" nType="-99"/>
                </Node>
              </Node>
              <Node pos="r" depth="4" NCoef="0" IVar="5" Cut="-1.36562872" cType="1" res="0.0e+00" rms="0.0e+00" purity="0.0e+00" nType="0">
                <Node pos="l" depth="5" NCoef="0" IVar="5" Cut="-1.54824662" cType="1" res="0.0e+00" rms="0.0e+00" purity="0.0e+00" nType="0">
                  <Node pos="l" depth="6" NCoef="0" IVar="-1" Cut="0.0e+00" cType="1" res="-0.443156093" rms="0.0e+00" purity="0.0e+00" nType="-99"/>
                  <Node pos="r" depth="6" NCoef="0" IVar="-1" Cut="0.0e+00" cType="1" res="-0.0721466243" rms="0.0e+00" purity="0.0e+00" nType="-99"/>
                </Node>
                <Node pos="r" depth="5" NCoef="0" IVar="5" Cut="-1.12717116" cType="1" res="0.0e+00" rms="0.0e+00" purity="0.0e+00" nType="0">
                  <Node pos="l" depth="6" NCoef="0" IVar="-1" Cut="0.0e+00" cType="1" res="0.0373233743" rms="0.0e+00" purity="0.0e+00" nType="-99"/>
                  <Node pos="r" depth="6" NCoef="0" IVar="-1" Cut="0.0e+00" cType="1" res="0.32517761" rms="0.0e+00" purity="0.0e+00" nType="-99"/>
                </Node>
              </Node>
            </Node>
            <Node pos="r" depth="3" NCoef="0" IVar="0" Cut="-0.577114105" cType="1" res="0.0e+00" rms="0.0e+00" purity="0.0e+00" nType="0">
              <Node pos="l" depth="4" NCoef="0" IVar="6" Cut="-0.449616492" cType="1" res="0.0e+00" rms="0.0e+00" purity="0.0e+00" nType="0">
                <Node pos="l" depth="5" NCoef="0" IVar="2" Cut="-0.114528038" cType="1" res="0.0e+00" rms="0.0e+00" purity="0.0e+00" nType="0">
                  <Node pos="l" depth="6" NCoef="0" IVar="-1" Cut="0.0e+00" cType="1" res="0.251904637" rms="0.0e+00" purity="0.0e+00" nType="-99"/>
                  <Node pos="r" depth="6" NCoef="0" IVar="-1" Cut="0.0e+00" cType="1" res="0.406993896" rms="0.0e+00" purity="0.0e+00" nType="-99"/>
                </Node>
                <Node pos="r" depth="5" NCoef="0" IVar="0" Cut="-0.775544167" cType="1" res="0.0e+00" rms="0.0e+00" purity="0.0e+00" nType="0">
                  <Node pos="l" depth="6" NCoef="0" IVar="-1" Cut="0.0e+00" cType="1" res="0.14471224" rms="0.0e+00" purity="0.0e+00" nType="-99"/>
                  <Node pos="r" depth="6" NCoef="0" IVar="-1" Cut="0.0e+00" cType="1" res="-0.163320139" rms="0.0e+00" purity="0.0e+00" nType="-99"/>
                </Node>
              </Node>
              <Node pos="r" depth="4" NCoef="0" IVar="5" Cut="-0.467357516" cType="1" res="0.0e+00" rms="0.0e+00" purity="0.0e+00" nType="0">
                <Node pos="l" depth="5" NCoef="0" IVar="0" Cut="-0.208299428" cType="1" res="0.0e+00" rms="0.0e+00" purity="0.0e+00" nType="0">
                  <Node pos="l" depth="6" NCoef="0" IVar="-1" Cut="0.0e+00" cType="1" res="-0.0892318785" rms="0.0e+00" purity="0.0e+00" nType="-99"/>
                  <Node pos="r" depth="6" NCoef="0" IVar="-1" Cut="0.0e+00" cType="1" res="0.385126621" rms="0.0e+00" purity="0.0e+00" nType="-99"/>
                </Node>
                <Node pos="r" depth="5" NCoef="0" IVar="5" Cut="0.433081269" cType="1" res="0.0e+00" rms="0.0e+00" purity="0.0e+00" nType="0">
                  <Node pos="l" depth="6" NCoef="0" IVar="-1" Cut="0.0e+00" cType="1" res="0.455230653" rms="0.0e+00" purity="0.0e+00" nType="-99"/>
                  <Node pos="r" depth="6" NCoef="0" IVar="-1" Cut="0.0e+00" cType="1" res="0.289862007" rms="0.0e+00" purity="0.0e+00" nType="-99"/>
                </Node>
              </Node>
            </Node>
          </Node>
          <Node pos="r" depth="2" NCoef="0" IVar="0" Cut="0.823315024" cType="1" res="0.0e+00" rms="0.0e+00" purity="0.0e+00" nType="0">
            <Node pos="l" depth="3" NCoef="0" IVar="5" Cut="0.907812476" cType="1" res="0.0e+00" rms="0.0e+00" purity="0.0e+00" nType="0">
              <Node pos="l" depth="4" NCoef="0" IVar="2" Cut="-0.0422728881" cType="1" res="0.0e+00" rms="0.0e+00" purity="0.0e+00" nType="0">
                <Node pos="l" depth="5" NCoef="0" IVar="0" Cut="-0.208819807" cType="1" res="0.0e+00" rms="0.0e+00" purity="0.0e+00" nType="0">
                  <Node pos="l" depth="6" NCoef="0" IVar="-1" Cut="0.0e+00" cType="1" res="-0.374313831" rms="0.0e+00" purity="0.0e+00" nType="-99"/>
                  <Node pos="r" depth="6" NCoef="0" IVar="-1" Cut="0.0e+00" cType="1" res="-0.090537101" rms="0.0e+00" purity="0.0e+00" nType="-99"/>
                </Node>
                <Node pos="r" depth="5" NCoef="0" IVar="0" Cut="0.0253072977" cType="1" res="0.0e+00" rms="0.0e+00" purity="0.0e+00" nType="0">
                  <Node pos="l" depth="6" NCoef="0" IVar="-1" Cut="0.0e+00" cType="1" res="-0.019984033" rms="0.0e+00" purity="0.0e+00" nType="-99"/>
                  <Node pos="r" depth="6" NCoef="0" IVar="-1" Cut="0.0e+00" cType="1" res="0.187637269" rms="0.0e+00" purity="0.0e+00" nType="-99"/>
                </Node>
              </Node>
              <Node pos="r" depth="4" NCoef="0" IVar="-1" Cut="0.0e+00" cType="1" res="-0.551675141" rms="0.0e+00" purity="0.0e+00" nType="-99"/>
            </Node>
            <Node pos="r" depth="3" NCoef="0" IVar="5" Cut="1.2203486" cType="1" res="0.0e+00" rms="0.0e+00" purity="0.0e+00" nType="0">
              <Node pos="l" depth="4" NCoef="0" IVar="5" Cut="1.07782698" cType="1" res="0.0e+00" rms="0.0e+00" purity="0.0e+00" nType="0">
                <Node pos="l" depth="5" NCoef="0" IVar="-1" Cut="0.0e+00" cType="1" res="0.335947901" rms="0.0e+00" purity="0.0e+00" nType="-99"/>
                <Node pos="r" depth="5" NCoef="0" IVar="6" Cut="-0.469364166" cType="1" res="0.0e+00" rms="0.0e+00" purity="0.0e+00" nType="0">
                  <Node pos="l" depth="6" NCoef="0" IVar="-1" Cut="0.0e+00" cType="1" res="0.0782339796" rms="0.0e+00" purity="0.0e+00" nType="-99"/>
                  <Node pos="r" depth="6" NCoef="0" IVar="-1" Cut="0.0e+00" cType="1" res="-0.0193104278" rms="0.0e+00" purity="0.0e+00" nType="-99"/>
                </Node>
              </Node>
              <Node pos="r" depth="4" NCoef="0" IVar="5" Cut="1.50408244" cType="1" res="0.0e+00" rms="0.0e+00" purity="0.0e+00" nType="0">
                <Node pos="l" depth="5" NCoef="0" IVar="6" Cut="-0.516573071" cType="1" res="0.0e+00" rms="0.0e+00" purity="0.0e+00" nType="0">
                  <Node pos="l" depth="6" NCoef="0" IVar="-1" Cut="0.0e+00" cType="1" res="0.0344938152" rms="0.0e+00" purity="0.0e+00" nType="-99"/>
                  <Node pos="r" depth="6" NCoef="0" IVar="-1" Cut="0.0e+00" cType="1" res="-0.112796336" rms="0.0e+00" purity="0.0e+00" nType="-99"/>
                </Node>
                <Node pos="r" depth="5" NCoef="0" IVar="-1" Cut="0.0e+00" cType="1" res="-0.44119063" rms="0.0e+00" purity="0.0e+00" nType="-99"/>
              </Node>
            </Node>
          </Node>
        </Node>
        <Node pos="r" depth="1" NCoef="0" IVar="6" Cut="-0.218225643" cType="1" res="0.0e+00" rms="0.0e+00" purity="0.0e+00" nType="0">
          <Node pos="l" depth="2" NCoef="0" IVar="5" Cut="-0.462425053" cType="1" res="0.0e+00" rms="0.0e+00" purity="0.0e+00" nType="0">
            <Node pos="l" depth="3" NCoef="0" IVar="0" Cut="1.03993392" cType="1" res="0.0e+00" rms="0.0e+00" purity="0.0e+00" nType="0">
              <Node pos="l" depth="4" NCoef="0" IVar="5" Cut="-0.942054093" cType="1" res="0.0e+00" rms="0.0e+00" purity="0.0e+00" nType="0">
                <Node pos="l" depth="5" NCoef="0" IVar="-1" Cut="0.0e+00" cType="1" res="-0.469700068" rms="0.0e+00" purity="0.0e+00" nType="-99"/>
                <Node pos="r" depth="5" NCoef="0" IVar="2" Cut="-0.022973096" cType="1" res="0.0e+00" rms="0.0e+00" purity="0.0e+00" nType="0">
                  <Node pos="l" depth="6" NCoef="0" IVar="-1" Cut="0.0e+00" cType="1" res="-0.385746241" rms="0.0e+00" purity="0.0e+00" nType="-99"/>
                  <Node pos="r" depth="6" NCoef="0" IVar="-1" Cut="0.0e+00" cType="1" res="-0.0416402668" rms="0.0e+00" purity="0.0e+00" nType="-99"/>
                </Node>
              </Node>
              <Node pos="r" depth="4" NCoef="0" IVar="5" Cut="-1.207901" cType="1" res="0.0e+00" rms="0.0e+00" purity="0.0e+00" nType="0">
                <Node pos="l" depth="5" NCoef="0" IVar="5" Cut="-1.26400375" cType="1" res="0.0e+00" rms="0.0e+00" purity="0.0e+00" nType="0">
                  <Node pos="l" depth="6" NCoef="0" IVar="-1" Cut="0.0e+00" cType="1" res="-0.39321208" rms="0.0e+00" purity="0.0e+00" nType="-99"/>
                  <Node pos="r" depth="6" NCoef="0" IVar="-1" Cut="0.0e+00" cType="1" res="-0.0219487231" rms="0.0e+00" purity="0.0e+00" nType="-99"/>
                </Node>
                <Node pos="r" depth="5" NCoef="0" IVar="7" Cut="0.204708368" cType="1" res="0.0e+00" rms="0.0e+00" purity="0.0e+00" nType="0">
                  <Node pos="l" depth="6" NCoef="0" IVar="-1" Cut="0.0e+00" cType="1" res="-0.0255283471" rms="0.0e+00" purity="0.0e+00" nType="-99"/>
                  <Node pos="r" depth="6" NCoef="0" IVar="-1" Cut="0.0e+00" cType="1" res="0.252755433" rms="0.0e+00" purity="0.0e+00" nType="-99"/>
                </Node>
              </Node>
            </Node>
            <Node pos="r" depth="3" NCoef="0" IVar="5" Cut="0.301446736" cType="1" res="0.0e+00" rms="0.0e+00" purity="0.0e+00" nType="0">
              <Node pos="l" depth="4" NCoef="0" IVar="0" Cut="-0.454423875" cType="1" res="0.0e+00" rms="0.0e+00" purity="0.0e+00" nType="0">
                <Node pos="l" depth="5" NCoef="0" IVar="5" Cut="-0.177291453" cType="1" res="0.0e+00" rms="0.0e+00" purity="0.0e+00" nType="0">
                  <Node pos="l" depth="6" NCoef="0" IVar="-1" Cut="0.0e+00" cType="1" res="-0.313628078" rms="0.0e+00" purity="0.0e+00" nType="-99"/>
                  <Node pos="r" depth="6" NCoef="0" IVar="-1" Cut="0.0e+00" cType="1" res="-0.00236802641" rms="0.0e+00" purity="0.0e+00" nType="-99"/>
                </Node>
                <Node pos="r" depth="5" NCoef="0" IVar="5" Cut="-0.247777194" cType="1" res="0.0e+00" rms="0.0e+00" purity="0.0e+00" nType="0">
                  <Node pos="l" depth="6" NCoef="0" IVar="-1" Cut="0.0e+00" cType="1" res="0.0603674799" rms="0.0e+00" purity="0.0e+00" nType="-99"/>
                  <Node pos="r" depth="6" NCoef="0" IVar="-1" Cut="0.0e+00" cType="1" res="0.382213026" rms="0.0e+00" purity="0.0e+00" nType="-99"/>
                </Node>
              </Node>
              <Node pos="r" depth="4" NCoef="0" IVar="0" Cut="0.966397047" cType="1" res="0.0e+00" rms="0.0e+00" purity="0.0e+00" nType="0">
                <Node pos="l" depth="5" NCoef="0" IVar="5" Cut="0.813096046" cType="1" res="0.0e+00" rms="0.0e+00" purity="0.0e+00" nType="0">
                  <Node pos="l" depth="6" NCoef="0" IVar="-1" Cut="0.0e+00" cType="1" res="-0.323366493" rms="0.0e+00" purity="0.0e+00" nType="-99"/>
                  <Node pos="r" depth="6" NCoef="0" IVar="-1" Cut="0.0e+00" cType="1" res="-0.464349717" rms="0.0e+00" purity="0.0e+00" nType="-99"/>
                </Node>
                <Node pos="r" depth="5" NCoef="0" IVar="5" Cut="1.13666272" cType="1" res="0.0e+00" rms="0.0e+00" purity="0.0e+00" nType="0">
                  <Node pos="l" depth="6" NCoef="0" IVar="-1" Cut="0.0e+00" cType="1" res="0.204785302" rms="0.0e+00" purity="0.0e+00" nType="-99"/>
                  <Node pos="r" depth="6" NCoef="0" IVar="-1" Cut="0.0e+00" cType="1" res="-0.389180183" rms="0.0e+00" purity="0.0e+00" nType="-99"/>
                </Node>
              </Node>
            </Node>
          </Node>
          <Node pos="r" depth="2" NCoef="0" IVar="0" Cut="-0.0761674196" cType="1" res="0.0e+00" rms="0.0e+00" purity="0.0e+00" nType="0">
            <Node pos="l" depth="3" NCoef="0" IVar="2" Cut="-0.117667161" cType="1" res="0.0e+00" rms="0.0e+00" purity="0.0e+00" nType="0">
              <Node pos="l" depth="4" NCoef="0" IVar="0" Cut="-0.441907883" cType="1" res="0.0e+00" rms="0.0e+00" purity="0.0e+00" nType="0">
                <Node pos="l" depth="5" NCoef="0" IVar="4" Cut="-0.239526659" cType="1" res="0.0e+00" rms="0.0e+00" purity="0.0e+00" nType="0">
                  <Node pos="l" depth="6" NCoef="0" IVar="-1" Cut="0.0e+00" cType="1" res="-0.304984152" rms="0.0e+00" purity="0.0e+00" nType="-99"/>
                  <Node pos="r" depth="6" NCoef="0" IVar="-1" Cut="0.0e+00" cType="1" res="-0.426922411" rms="0.0e+00" purity="0.0e+00" nType="-99"/>
                </Node>
                <Node pos="r" depth="5" NCoef="0" IVar="6" Cut="0.0390329733" cType="1" res="0.0e+00" rms="0.0e+00" purity="0.0e+00" nType="0">
                  <Node pos="l" depth="6" NCoef="0" IVar="-1" Cut="0.0e+00" cType="1" res="0.0687355176" rms="0.0e+00" purity="0.0e+00" nType="-99"/>
                  <Node pos="r" depth="6" NCoef="0" IVar="-1" Cut="0.0e+00" cType="1" res="-0.295169502" rms="0.0e+00" purity="0.0e+00" nType="-99"/>
                </Node>
              </Node>
              <Node pos="r" depth="4" NCoef="0" IVar="6" Cut="0.0144529343" cType="1" res="0.0e+00" rms="0.0e+00" purity="0.0e+00" nType="0">
                <Node pos="l" depth="5" NCoef="0" IVar="4" Cut="-1.75456882" cType="1" res="0.0e+00" rms="0.0e+00" purity="0.0e+00" nType="0">
                  <Node pos="l" depth="6" NCoef="0" IVar="-1" Cut="0.0e+00" cType="1" res="0.0637803972" rms="0.0e+00" purity="0.0e+00" nType="-99"/>
                  <Node pos="r" depth="6" NCoef="0" IVar="-1" Cut="0.0e+00" cType="1" res="-0.434732556" rms="0.0e+00" purity="0.0e+00" nType="-99"/>
                </Node>
                <Node pos="r" depth="5" NCoef="0" IVar="-1" Cut="0.0e+00" cType="1" res="-0.455482662" rms="0.0e+00" purity="0.0e+00" nType="-99"/>
              </Node>
            </Node>
            <Node pos="r" depth="3" NCoef="0" IVar="2" Cut="-0.00590896606" cType="1" res="0.0e+00" rms="0.0e+00" purity="0.0e+00" nType="0">
              <Node pos="l" depth="4" NCoef="0" IVar="0" Cut="0.895268381" cType="1" res="0.0e+00" rms="0.0e+00" purity="0.0e+00" nType="0">
                <Node pos="l" depth="5" NCoef="0" IVar="4" Cut="-1.34430599" cType="1" res="0.0e+00" rms="0.0e+00" purity="0.0e+00" nType="0">
                  <Node pos="l" depth="6" NCoef="0" IVar="-1" Cut="0.0e+00" cType="1" res="0.108096227" rms="0.0e+00" purity="0.0e+00" nType="-99"/>
                  <Node pos="r" depth="6" NCoef="0" IVar="-1" Cut="0.0e+00" cType="1" res="-0.382438987" rms="0.0e+00" purity="0.0e+00" nType="-99"/>
                </Node>
                <Node pos="r" depth="5" NCoef="0" IVar="2" Cut="-0.0962239057" cType="1" res="0.0e+00" rms="0.0e+00" purity="0.0e+00" nType="0">
                  <Node pos="l" depth="6" NCoef="0" IVar="-1" Cut="0.0e+00" cType="1" res="0.13190642" rms="0.0e+00" purity="0.0e+00" nType="-99"/>
                  <Node pos="r" depth="6" NCoef="0" IVar="-1" Cut="0.0e+00" cType="1" res="-0.171506837" rms="0.0e+00" purity="0.0e+00" nType="-99"/>
                </Node>
              </Node>
              <Node pos="r" depth="4" NCoef="0" IVar="4" Cut="-1.443735" cType="1" res="0.0e+00" rms="0.0e+00" purity="0.0e+00" nType="0">
                <Node pos="l" depth="5" NCoef="0" IVar="2" Cut="0.344370306" cType="1" res="0.0e+00" rms="0.0e+00" purity="0.0e+00" nType="0">
                  <Node pos="l" depth="6" NCoef="0" IVar="-1" Cut="0.0e+00" cType="1" res="-0.181499496" rms="0.0e+00" purity="0.0e+00" nType="-99"/>
                  <Node pos="r" depth="6" NCoef="0" IVar="-1" Cut="0.0e+00" cType="1" res="-0.398030758" rms="0.0e+00" purity="0.0e+00" nType="-99"/>
                </Node>
                <Node pos="r" depth="5" NCoef="0" IVar="4" Cut="1.44672465" cType="1" res="0.0e+00" rms="0.0e+00" purity="0.0e+00" nType="0">
                  <Node pos="l" depth="6" NCoef="0" IVar="-1" Cut="0.0e+00" cType="1" res="-0.438749343" rms="0.0e+00" purity="0.0e+00" nType="-99"/>
                  <Node pos="r" depth="6" NCoef="0" IVar="-1" Cut="0.0e+00" cType="1" res="-0.351264358" rms="0.0e+00" purity="0.0e+00" nType="-99"/>
                </Node>
              </Node>
            </Node>
          </Node>
        </Node>
      </Node>
    </BinaryTree>
    <BinaryTree type="DecisionTree" boostWeight="1.0e+00" itree="2">
      <Node pos="s" depth="0" NCoef="0" IVar="6" Cut="-0.405135185" cType="1" res="0.0e+00" rms="0.0e+00" purity="0.0e+00" nType="0">
        <Node pos="l" depth="1" NCoef="0" IVar="5" Cut="0.67878294" cType="1" res="0.0e+00" rms="0.0e+00" purity="0.0e+00" nType="0">
          <Node pos="l" depth="2" NCoef="0" IVar="5" Cut="-0.703576684" cType="1" res="0.0e+00" rms="0.0e+00" purity="0.0e+00" nType="0">
            <Node pos="l" depth="3" NCoef="0" IVar="0" Cut="0.589559495" cType="1" res="0.0e+00" rms="0.0e+00" purity="0.0e+00" nType="0">
              <Node pos="l" depth="4" NCoef="0" IVar="5" Cut="-0.992916226" cType="1" res="0.0e+00" rms="0.0e+00" purity="0.0e+00" nType="0">
                <Node pos="l" depth="5" NCoef="0" IVar="4" Cut="-1.70488322" cType="1" res="0.0e+00" rms="0.0e+00" purity="0.0e+00" nType="0">
                  <Node pos="l" depth="6" NCoef="0" IVar="-1" Cut="0.0e+00" cType="1" res="-0.0875355676" rms="0.0e+00" purity="0.0e+00" nType="-99"/>
                  <Node pos="r" depth="6" NCoef="0" IVar="-1" Cut="0.0e+00" cType="1" res="-0.451425493" rms="0.0e+00" purity="0.0e+00" nType="-99"/>
                </Node>
                <Node pos="r" depth="5" NCoef="0" IVar="0" Cut="-0.290290266" cType="1" res="0.0e+00" rms="0.0e+00" purity="0.0e+00" nType="0">
                  <Node pos="l" depth="6" NCoef="0" IVar="-1" Cut="0.0e+00" cType="1" res="-0.316163123" rms="0.0e+00" purity="0.0e+00" nType="-99"/>
                  <Node pos="r" depth="6" NCoef="0" IVar="-1" Cut="0.0e+00" cType="1" res="0.00179524708" rms="0.0e+00" purity="0.0e+00" nType="-99"/>
                </Node>
              </Node>
              <Node pos="r" depth="4" NCoef="0" IVar="5" Cut="-1.28104901" cType="1" res="0.0e+00" rms="0.0e+00" purity="0.0e+00" nType="0">
                <Node pos="l" depth="5" NCoef="0" IVar="5" Cut="-1.48501921" cType="1" res="0.0e+00" rms="0.0e+00" purity="0.0e+00" nType="0">
                  <Node pos="l" depth="6" NCoef="0" IVar="-1" Cut="0.0e+00" cType="1" res="-0.355188429" rms="0.0e+00" purity="0.0e+00" nType="-99"/>
                  <Node pos="r" depth="6" NCoef="0" IVar="-1" Cut="0.0e+00" cType="1" res="-0.0589044914" rms="0.0e+00" purity="0.0e+00" nType="-99"/>
                </Node>
                <Node pos="r" depth="5" NCoef="0" IVar="5" Cut="-1.02541924" cType="1" res="0.0e+00" rms="0.0e+00" purity="0.0e+00" nType="0">
                  <Node pos="l" depth="6" NCoef="0" IVar="-1" Cut="0.0e+00" cType="1" res="0.0695454553" rms="0.0e+00" purity="0.0e+00" nType="-99"/>
                  <Node pos="r" depth="6" NCoef="0" IVar="-1" Cut="0.0e+00" cType="1" res="0.305202007" rms="0.0e+00" purity="0.0e+00" nType="-99"/>
                </Node>
              </Node>
            </Node>
            <Node pos="r" depth="3" NCoef="0" IVar="0" Cut="-0.596343398" cType="1" res="0.0e+00" rms="0.0e+00" purity="0.0e+00" nType="0">
              <Node pos="l" depth="4" NCoef="0" IVar="5" Cut="-0.348893046" cType="1" res="0.0e+00" rms="0.0e+00" purity="0.0e+00" nType="0">
                <Node pos="l" depth="5" NCoef="0" IVar="0" Cut="-0.753708482" cType="1" res="0.0e+00" rms="0.0e+00" purity="0.0e+00" nType="0">
                  <Node pos="l" depth="6" NCoef="0" IVar="-1" Cut="0.0e+00" cType="1" res="0.0303884204" rms="0.0e+00" purity="0.0e+00" nType="-99"/>
                  <Node pos="r" depth="6" NCoef="0" IVar="-1" Cut="0.0e+00" cType="1" res="-0.284743786" rms="0.0e+00" purity="0.0e+00" nType="-99"/>
                </Node>
                <Node pos="r" depth="5" NCoef="0" IVar="5" Cut="0.348232865" cType="1" res="0.0e+00" rms="0.0e+00" purity="0.0e+00" nType="0">
                  <Node pos="l" depth="6" NCoef="0" IVar="-1" Cut="0.0e+00" cType="1" res="0.241669327" rms="0.0e+00" purity="0.0e+00" nType="-99"/>
                  <Node pos="r" depth="6" NCoef="0" IVar="-1" Cut="0.0e+00" cType="1" res="-0.103350379" rms="0.0e+00" purity="0.0e+00" nType="-99"/>
                </Node>
              </Node>
              <Node pos="r" depth="4" NCoef="0" IVar="0" Cut="-0.416861594" cType="1" res="0.0e+00" rms="0.0e+00" purity="0.0e+00" nType="0">
                <Node pos="l" depth="5" NCoef="0" IVar="5" Cut="0.276509583" cType="1" res="0.0e+00" rms="0.0e+00" purity="0.0e+00" nType="0">
                  <Node pos="l" depth="6" NCoef="0" IVar="-1" Cut="0.0e+00" cType="1" res="0.345761776" rms="0.0e+00" purity="0.0e+00" nType="-99"/>
                  <Node pos="r" depth="6" NCoef="0" IVar="-1" Cut="0.0e+00" cType="1" res="-0.116617694" rms="0.0e+00" purity="0.0e+00" nType="-99"/>
                </Node>
                <Node pos="r" depth="5" NCoef="0" IVar="5" Cut="-0.385010779" cType="1" res="0.0e+00" rms="0.0e+00" purity="0.0e+00" nType="0">
                  <Node pos="l" depth="6" NCoef="0" IVar="-1" Cut="0.0e+00" cType="1" res="0.319509089" rms="0.0e+00" purity="0.0e+00" nType="-99"/>
                  <Node pos="r" depth="6" NCoef="0" IVar="-1" Cut="0.0e+00" cType="1" res="0.395120174" rms="0.0e+00" purity="0.0e+00" nType="-99"/>
                </Node>
              </Node>
            </Node>
          </Node>
          <Node pos="r" depth="2" NCoef="0" IVar="0" Cut="0.603700757" cType="1" res="0.0e+00" rms="0.0e+00" purity="0.0e+00" nType="0">
            <Node pos="l" depth="3" NCoef="0" IVar="5" Cut="0.930438697" cType="1" res="0.0e+00" rms="0.0e+00" purity="0.0e+00" nType="0">
              <Node pos="l" depth="4" NCoef="0" IVar="0" Cut="-0.188504636" cType="1" res="0.0e+00" rms="0.0e+00" purity="0.0e+00" nType="0">
                <Node pos="l" depth="5" NCoef="0" IVar="4" Cut="-0.298405409" cType="1" res="0.0e+00" rms="0.0e+00" purity="0.0e+00" nType="0">
                  <Node pos="l" depth="6" NCoef="0" IVar="-1" Cut="0.0e+00" cType="1" res="-0.0548816323" rms="0.0e+00" purity="0.0e+00" nType="-99"/>
                  <Node pos="r" depth="6" NCoef="0" IVar="-1" Cut="0.0e+00" cType="1" res="-0.314868718" rms="0.0e+00" purity="0.0e+00" nType="-99"/>
                </Node>
                <Node pos="r" depth="5" NCoef="0" IVar="4" Cut="1.43749666" cType="1" res="0.0e+00" rms="0.0e+00" purity="0.0e+00" nType="0">
                  <Node pos="l" depth="6" NCoef="0" IVar="-1" Cut="0.0e+00" cType="1" res="-0.00436547026" rms="0.0e+00" purity="0.0e+00" nType="-99"/>
                  <Node pos="r" depth="6" NCoef="0" IVar="-1" Cut="0.0e+00" cType="1" res="0.16560699" rms="0.0e+00" purity="0.0e+00" nType="-99"/>
                </Node>
              </Node>
              <Node pos="r" depth="4" NCoef="0" IVar="4" Cut="1.63437676" cType="1" res="0.0e+00" rms="0.0e+00" purity="0.0e+00" nType="0">
                <Node pos="l" depth="5" NCoef="0" IVar="4" Cut="-1.64798188" cType="1" res="0.0e+00" rms="0.0e+00" purity="0.0e+00" nType="0">
                  <Node pos="l" depth="6" NCoef="0" IVar="-1" Cut="0.0e+00" cType="1" res="-0.112043105" rms="0.0e+00" purity="0.0e+00" nType="-99"/>
                  <Node pos="r" depth="6" NCoef="0" IVar="-1" Cut="0.0e+00" cType="1" res="-0.450542778" rms="0.0e+00" purity="0.0e+00" nType="-99"/>
                </Node>
                <Node pos="r" depth="5" NCoef="0" IVar="5" Cut="1.04466414" cType="1" res="0.0e+00" rms="0.0e+00" purity="0.0e+00" nType="0">
                  <Node pos="l" depth="6" NCoef="0" IVar="-1" Cut="0.0e+00" cType="1" res="0.00809687749" rms="0.0e+00" purity="0.0e+00" nType="-99"/>
                  <Node pos="r" depth="6" NCoef="0" IVar="-1" Cut="0.0e+00" cType="1" res="-0.119601898" rms="0.0e+00" purity="0.0e+00" nType="-99"/>
                </Node>
              </Node>
            </Node>
            <Node pos="r" depth="3" NCoef="0" IVar="5" Cut="1.25370789" cType="1" res="0.0e+00" rms="0.0e+00" purity="0.0e+00" nType="0">
              <Node pos="l" depth="4" NCoef="0" IVar="5" Cut="1.04017758" cType="1" res="0.0e+00" rms="0.0e+00" purity="0.0e+00" nType="0">
                <Node pos="l" depth="5" NCoef="0" IVar="3" Cut="-1.15927911" cType="1" res="0.0e+00" rms="0.0e+00" purity="0.0e+00" nType="0">
                  <Node pos="l" depth="6" NCoef="0" IVar="-1" Cut="0.0e+00" cType="1" res="-0" rms="0.0e+00" purity="0.0e+00" nType="-99"/>
                  <Node pos="r" depth="6" NCoef="0" IVar="-1" Cut="0.0e+00" cType="1" res="0.306143403" rms="0.0e+00" purity="0.0e+00" nType="-99"/>
                </Node>
                <Node pos="r" depth="5" NCoef="0" IVar="6" Cut="-0.480496943" cType="1" res="0.0e+00" rms="0.0e+00" purity="0.0e+00" nType="0">
                  <Node pos="l" depth="6" NCoef="0" IVar="-1" Cut="0.0e+00" cType="1" res="0.0894374549" rms="0.0e+00" purity="0.0e+00" nType="-99"/>
                  <Node pos="r" depth="6" NCoef="0" IVar="-1" Cut="0.0e+00" cType="1" res="-0.0275341868" rms="0.0e+00" purity="0.0e+00" nType="-99"/>
                </Node>
              </Node>
              <Node pos="r" depth="4" NCoef="0" IVar="5" Cut="1.61674857" cType="1" res="0.0e+00" rms="0.0e+00" purity="0.0e+00" nType="0">
                <Node pos="l" depth="5" NCoef="0" IVar="0" Cut="1.53615665" cType="1" res="0.0e+00" rms="0.0e+00" purity="0.0e+00" nType="0">
                  <Node pos="l" depth="6" NCoef="0" IVar="-1" Cut="0.0e+00" cType="1" res="-0.131280944" rms="0.0e+00" purity="0.0e+00" nType="-99"/>
                  <Node pos="r" depth="6" NCoef="0" IVar="-1" Cut="0.0e+00" cType="1" res="0.00540902792" rms="0.0e+00" purity="0.0e+00" nType="-99"/>
                </Node>
                <Node pos="r" depth="5" NCoef="0" IVar="-1" Cut="0.0e+00" cType="1" res="-0.370479375" rms="0.0e+00" purity="0.0e+00" nType="-99"/>
              </Node>
            </Node>
          </Node>
        </Node>
        <Node pos="r" depth="1" NCoef="0" IVar="6" Cut="-0.290459394" cType="1" res="0.0e+00" rms="0.0e+00" purity="0.0e+00" nType="0">
          <Node pos="l" depth="2" NCoef="0" IVar="5" Cut="0.461168617" cType="1" res="0.0e+00" rms="0.0e+00" purity="0.0e+00" nType="0">
            <Node pos="l" depth="3" NCoef="0" IVar="5" Cut="-0.318358719" cType="1" res="0.0e+00" rms="0.0e+00" purity="0.0e+00" nType="0">
              <Node pos="l" depth="4" NCoef="0" IVar="5" Cut="-0.885087609" cType="1" res="0.0e+00" rms="0.0e+00" purity="0.0e+00" nType="0">
                <Node pos="l" depth="5" NCoef="0" IVar="0" Cut="1.32390797" cType="1" res="0.0e+00" rms="0.0e+00" purity="0.0e+00" nType="0">
                  <Node pos="l" depth="6" NCoef="0" IVar="-1" Cut="0.0e+00" cType="1" res="-0.395187795" rms="0.0e+00" purity="0.0e+00" nType="-99"/>
                  <Node pos="r" depth="6" NCoef="0" IVar="-1" Cut="0.0e+00" cType="1" res="-0.209040388" rms="0.0e+00" purity="0.0e+00" nType="-99"/>
                </Node>
                <Node pos="r" depth="5" NCoef="0" IVar="0" Cut="0.0413885936" cType="1" res="0.0e+00" rms="0.0e+00" purity="0.0e+00" nType="0">
                  <Node pos="l" depth="6" NCoef="0" IVar="-1" Cut="0.0e+00" cType="1" res="-0.267168015" rms="0.0e+00" purity="0.0e+00" nType="-99"/>
                  <Node pos="r" depth="6" NCoef="0" IVar="-1" Cut="0.0e+00" cType="1" res="0.155530885" rms="0.0e+00" purity="0.0e+00" nType="-99"/>
                </Node>
              </Node>
              <Node pos="r" depth="4" NCoef="0" IVar="0" Cut="-0.490800977" cType="1" res="0.0e+00" rms="0.0e+00" purity="0.0e+00" nType="0">
                <Node pos="l" depth="5" NCoef="0" IVar="1" Cut="-0.795785546" cType="1" res="0.0e+00" rms="0.0e+00" purity="0.0e+00" nType="0">
                  <Node pos="l" depth="6" NCoef="0" IVar="-1" Cut="0.0e+00" cType="1" res="0.161104873" rms="0.0e+00" purity="0.0e+00" nType="-99"/>
                  <Node pos="r" depth="6" NCoef="0" IVar="-1" Cut="0.0e+00" cType="1" res="-0.203374818" rms="0.0e+00" purity="0.0e+00" nType="-99"/>
                </Node>
                <Node pos="r" depth="5" NCoef="0" IVar="5" Cut="0.218646288" cType="1" res="0.0e+00" rms="0.0e+00" purity="0.0e+00" nType="0">
                  <Node pos="l" depth="6" NCoef="0" IVar="-1" Cut="0.0e+00" cType="1" res="0.328630865" rms="0.0e+00" purity="0.0e+00" nType="-99"/>
                  <Node pos="r" depth="6" NCoef="0" IVar="-1" Cut="0.0e+00" cType="1" res="0.106102012" rms="0.0e+00" purity="0.0e+00" nType="-99"/>
                </Node>
              </Node>
            </Node>
            <Node pos="r" depth="3" NCoef="0" IVar="5" Cut="0.959092736" cType="1" res="0.0e+00" rms="0.0e+00" purity="0.0e+00" nType="0">
              <Node pos="l" depth="4" NCoef="0" IVar="0" Cut="0.109326988" cType="1" res="0.0e+00" rms="0.0e+00" purity="0.0e+00" nType="0">
                <Node pos="l" depth="5" NCoef="0" IVar="0" Cut="-0.340260744" cType="1" res="0.0e+00" rms="0.0e+00" purity="0.0e+00" nType="0">
                  <Node pos="l" depth="6" NCoef="0" IVar="-1" Cut="0.0e+00" cType="1" res="-0.316252053" rms="0.0e+00" purity="0.0e+00" nType="-99"/>
                  <Node pos="r" depth="6" NCoef="0" IVar="-1" Cut="0.0e+00" cType="1" res="-0.125037581" rms="0.0e+00" purity="0.0e+00" nType="-99"/>
                </Node>
                <Node pos="r" depth="5" NCoef="0" IVar="7" Cut="-0.169834048" cType="1" res="0.0e+00" rms="0.0e+00" purity="0.0e+00" nType="0">
                  <Node pos="l" depth="6" NCoef="0" IVar="-1" Cut="0.0e+00" cType="1" res="0.21777986" rms="0.0e+00" purity="0.0e+00" nType="-99"/>
                  <Node pos="r" depth="6" NCoef="0" IVar="-1" Cut="0.0e+00" cType="1" res="0.0133153079" rms="0.0e+00" purity="0.0e+00" nType="-99"/>
                </Node>
              </Node>
              <Node pos="r" depth="4" NCoef="0" IVar="-1" Cut="0.0e+00" cType="1" res="-0.396839768" rms="0.0e+00" purity="0.0e+00" nType="-99"/>
            </Node>
          </Node>
          <Node pos="r" depth="2" NCoef="0" IVar="6" Cut="-0.0754687637" cType="1" res="0.0e+00" rms="0.0e+00" purity="0.0e+00" nType="0">
            <Node pos="l" depth="3" NCoef="0" IVar="0" Cut="-0.151793703" cType="1" res="0.0e+00" rms="0.0e+00" purity="0.0e+00" nType="0">
              <Node pos="l" depth="4" NCoef="0" IVar="1" Cut="-0.785054743" cType="1" res="0.0e+00" rms="0.0e+00" purity="0.0e+00" nType="0">
                <Node pos="l" depth="5" NCoef="0" IVar="0" Cut="-0.587008715" cType="1" res="0.0e+00" rms="0.0e+00" purity="0.0e+00" nType="0">
                  <Node pos="l" depth="6" NCoef="0" IVar="-1" Cut="0.0e+00" cType="1" res="-0.251130342" rms="0.0e+00" purity="0.0e+00" nType="-99"/>
                  <Node pos="r" depth="6" NCoef="0" IVar="-1" Cut="0.0e+00" cType="1" res="0.219205037" rms="0.0e+00" purity="0.0e+00" nType="-99"/>
                </Node>
                <Node pos="r" depth="5" NCoef="0" IVar="4" Cut="1.81801987" cType="1" res="0.0e+00" rms="0.0e+00" purity="0.0e+00" nType="0">
                  <Node pos="l" depth="6" NCoef="0" IVar="-1" Cut="0.0e+00" cType="1" res="-0.373376846" rms="0.0e+00" purity="0.0e+00" nType="-99"/>
                  <Node pos="r" depth="6" NCoef="0" IVar="-1" Cut="0.0e+00" cType="1" res="0.190353647" rms="0.0e+00" purity="0.0e+00" nType="-99"/>
                </Node>
              </Node>
              <Node pos="r" depth="4" NCoef="0" IVar="1" Cut="0.855418861" cType="1" res="0.0e+00" rms="0.0e+00" purity="0.0e+00" nType="0">
                <Node pos="l" depth="5" NCoef="0" IVar="5" Cut="-0.515239716" cType="1" res="0.0e+00" rms="0.0e+00" purity="0.0e+00" nType="0">
                  <Node pos="l" depth="6" NCoef="0" IVar="-1" Cut="0.0e+00" cType="1" res="-0.240981236" rms="0.0e+00" purity="0.0e+00" nType="-99"/>
                  <Node pos="r" depth="6" NCoef="0" IVar="-1" Cut="0.0e+00" cType="1" res="0.132935986" rms="0.0e+00" purity="0.0e+00" nType="-99"/>
                </Node>
                <Node pos="r" depth="5" NCoef="0" IVar="5" Cut="1.09119821" cType="1" res="0.0e+00" rms="0.0e+00" purity="0.0e+00" nType="0">
                  <Node pos="l" depth="6" NCoef="0" IVar="-1" Cut="0.0e+00" cType="1" res="-0.24308461" rms="0.0e+00" purity="0.0e+00" nType="-99"/>
                  <Node pos="r" depth="6" NCoef="0" IVar="-1" Cut="0.0e+00" cType="1" res="-0.374537319" rms="0.0e+00" purity="0.0e+00" nType="-99"/>
                </Node>
              </Node>
            </Node>
            <Node pos="r" depth="3" NCoef="0" IVar="0" Cut="0.535898566" cType="1" res="0.0e+00" rms="0.0e+00" purity="0.0e+00" nType="0">
              <Node pos="l" depth="4" NCoef="0" IVar="1" Cut="-0.805128038" cType="1" res="0.0e+00" rms="0.0e+00" purity="0.0e+00" nType="0">
                <Node pos="l" depth="5" NCoef="0" IVar="0" Cut="-0.546647668" cType="1" res="0.0e+00" rms="0.0e+00" purity="0.0e+00" nType="0">
                  <Node pos="l" depth="6" NCoef="0" IVar="-1" Cut="0.0e+00" cType="1" res="-0.35069567" rms="0.0e+00" purity="0.0e+00" nType="-99"/>
                  <Node pos="r" depth="6" NCoef="0" IVar="-1" Cut="0.0e+00" cType="1" res="-0.133747831" rms="0.0e+00" purity="0.0e+00" nType="-99"/>
                </Node>
                <Node pos="r" depth="5" NCoef="0" IVar="0" Cut="-0.181194529" cType="1" res="0.0e+00" rms="0.0e+00" purity="0.0e+00" nType="0">
                  <Node pos="l" depth="6" NCoef="0" IVar="-1" Cut="0.0e+00" cType="1" res="-0.395413548" rms="0.0e+00" purity="0.0e+00" nType="-99"/>
                  <Node pos="r" depth="6" NCoef="0" IVar="-1" Cut="0.0e+00" cType="1" res="-0.351512849" rms="0.0e+00" purity="0.0e+00" nType="-99"/>
                </Node>
              </Node>
              <Node pos="r" depth="4" NCoef="0" IVar="1" Cut="0.914855242" cType="1" res="0.0e+00" rms="0.0e+00" purity="0.0e+00" nType="0">
                <Node pos="l" depth="5" NCoef="0" IVar="6" Cut="0.491253436" cType="1" res="0.0e+00" rms="0.0e+00" purity="0.0e+00" nType="0">
                  <Node pos="l" depth="6" NCoef="0" IVar="-1" Cut="0.0e+00" cType="1" res="-0.0864790529" rms="0.0e+00" purity="0.0e+00" nType="-99"/>
                  <Node pos="r" depth="6" NCoef="0" IVar="-1" Cut="0.0e+00" cType="1" res="-0.24382697" rms="0.0e+00" purity="0.0e+00" nType="-99"/>
                </Node>
                <Node pos="r" depth="5" NCoef="0" IVar="1" Cut="1.25461483" cType="1" res="0.0e+00" rms="0.0e+00" purity="0.0e+00" nType="0">
                  <Node pos="l" depth="6" NCoef="0" IVar="-1" Cut="0.0e+00" cType="1" res="-0.260222852" rms="0.0e+00" purity="0.0e+00" nType="-99"/>
                  <Node pos="r" depth="6" NCoef="0" IVar="-1" Cut="0.0e+00" cType="1" res="-0.356821418" rms="0.0e+00" purity="0.0e+00" nType="-99"/>
                </Node>
              </Node>
            </Node>
          </Node>
        </Node>
      </Node>
    </BinaryTree>
    <BinaryTree type="DecisionTree" boostWeight="1.0e+00" itree="3">
      <Node pos="s" depth="0" NCoef="0" IVar="6" Cut="-0.415221184" cType="1" res="0.0e+00" rms="0.0e+00" purity="0.0e+00" nType="0">
        <Node pos="l" depth="1" NCoef="0" IVar="5" Cut="0.601097405" cType="1" res="0.0e+00" rms="0.0e+00" purity="0.0e+00" nType="0">
          <Node pos="l" depth="2" NCoef="0" IVar="5" Cut="-0.619656265" cType="1" res="0.0e+00" rms="0.0e+00" purity="0.0e+00" nType="0">
            <Node pos="l" depth="3" NCoef="0" IVar="0" Cut="0.362116009" cType="1" res="0.0e+00" rms="0.0e+00" purity="0.0e+00" nType="0">
              <Node pos="l" depth="4" NCoef="0" IVar="5" Cut="-0.872927666" cType="1" res="0.0e+00" rms="0.0e+00" purity="0.0e+00" nType="0">
                <Node pos="l" depth="5" NCoef="0" IVar="1" Cut="-0.853791595" cType="1" res="0.0e+00" rms="0.0e+00" purity="0.0e+00" nType="0">
                  <Node pos="l" depth="6" NCoef="0" IVar="-1" Cut="0.0e+00" cType="1" res="-0.0283663236" rms="0.0e+00" purity="0.0e+00" nType="-99"/>
                  <Node pos="r" depth="6" NCoef="0" IVar="-1" Cut="0.0e+00" cType="1" res="-0.373466223" rms="0.0e+00" purity="0.0e+00" nType="-99"/>
                </Node>
                <Node pos="r" depth="5" NCoef="0" IVar="2" Cut="-0.0525556132" cType="1" res="0.0e+00" rms="0.0e+00" purity="0.0e+00" nType="0">
                  <Node pos="l" depth="6" NCoef="0" IVar="-1" Cut="0.0e+00" cType="1" res="-0.217671126" rms="0.0e+00" purity="0.0e+00" nType="-99"/>
                  <Node pos="r" depth="6" NCoef="0" IVar="-1" Cut="0.0e+00" cType="1" res="0.118452847" rms="0.0e+00" purity="0.0e+00" nType="-99"/>
                </Node>
              </Node>
              <Node pos="r" depth="4" NCoef="0" IVar="5" Cut="-1.2244525" cType="1" res="0.0e+00" rms="0.0e+00" purity="0.0e+00" nType="0">
                <Node pos="l" depth="5" NCoef="0" IVar="5" Cut="-1.58721685" cType="1" res="0.0e+00" rms="0.0e+00" purity="0.0e+00" nType="0">
                  <Node pos="l" depth="6" NCoef="0" IVar="-1" Cut="0.0e+00" cType="1" res="-0.316775858" rms="0.0e+00" purity="0.0e+00" nType="-99"/>
                  <Node pos="r" depth="6" NCoef="0" IVar="-1" Cut="0.0e+00" cType="1" res="-0.0737174004" rms="0.0e+00" purity="0.0e+00" nType="-99"/>
                </Node>
                <Node pos="r" depth="5" NCoef="0" IVar="5" Cut="-1.01483595" cType="1" res="0.0e+00" rms="0.0e+00" purity="0.0e+00" nType="0">
                  <Node pos="l" depth="6" NCoef="0" IVar="-1" Cut="0.0e+00" cType="1" res="0.0552659445" rms="0.0e+00" purity="0.0e+00" nType="-99"/>
                  <Node pos="r" depth="6" NCoef="0" IVar="-1" Cut="0.0e+00" cType="1" res="0.280517131" rms="0.0e+00" purity="0.0e+00" nType="-99"/>
                </Node>
              </Node>
            </Node>
            <Node pos="r" depth="3" NCoef="0" IVar="0" Cut="-0.560207486" cType="1" res="0.0e+00" rms="0.0e+00" purity="0.0e+00" nType="0">
              <Node pos="l" depth="4" NCoef="0" IVar="2" Cut="-0.114848033" cType="1" res="0.0e+00" rms="0.0e+00" purity="0.0e+00" nType="0">
                <Node pos="l" depth="5" NCoef="0" IVar="1" Cut="-0.805830836" cType="1" res="0.0e+00" rms="0.0e+00" purity="0.0e+00" nType="0">
                  <Node pos="l" depth="6" NCoef="0" IVar="-1" Cut="0.0e+00" cType="1" res="0.192850977" rms="0.0e+00" purity="0.0e+00" nType="-99"/>
                  <Node pos="r" depth="6" NCoef="0" IVar="-1" Cut="0.0e+00" cType="1" res="-0.0532051399" rms="0.0e+00" purity="0.0e+00" nType="-99"/>
                </Node>
                <Node pos="r" depth="5" NCoef="0" IVar="0" Cut="-0.84610033" cType="1" res="0.0e+00" rms="0.0e+00" purity="0.0e+00" nType="0">
                  <Node pos="l" depth="6" NCoef="0" IVar="-1" Cut="0.0e+00" cType="1" res="0.233267918" rms="0.0e+00" purity="0.0e+00" nType="-99"/>
                  <Node pos="r" depth="6" NCoef="0" IVar="-1" Cut="0.0e+00" cType="1" res="0.325180173" rms="0.0e+00" purity="0.0e+00" nType="-99"/>
                </Node>
              </Node>
              <Node pos="r" depth="4" NCoef="0" IVar="2" Cut="-0.109973118" cType="1" res="0.0e+00" rms="0.0e+00" purity="0.0e+00" nType="0">
                <Node pos="l" depth="5" NCoef="0" IVar="1" Cut="-0.703508019" cType="1" res="0.0e+00" rms="0.0e+00" purity="0.0e+00" nType="0">
                  <Node pos="l" depth="6" NCoef="0" IVar="-1" Cut="0.0e+00" cType="1" res="0.353000939" rms="0.0e+00" purity="0.0e+00" nType="-99"/>
                  <Node pos="r" depth="6" NCoef="0" IVar="-1" Cut="0.0e+00" cType="1" res="0.244144529" rms="0.0e+00" purity="0.0e+00" nType="-99"/>
                </Node>
                <Node pos="r" depth="5" NCoef="0" IVar="2" Cut="2.52666521" cType="1" res="0.0e+00" rms="0.0e+00" purity="0.0e+00" nType="0">
                  <Node pos="l" depth="6" NCoef="0" IVar="-1" Cut="0.0e+00" cType="1" res="0.363272756" rms="0.0e+00" purity="0.0e+00" nType="-99"/>
                  <Node pos="r" depth="6" NCoef="0" IVar="-1" Cut="0.0e+00" cType="1" res="0.00177177449" rms="0.0e+00" purity="0.0e+00" nType="-99"/>
                </Node>
              </Node>
            </Node>
          </Node>
          <Node pos="r" depth="2" NCoef="0" IVar="0" Cut="0.292929113" cType="1" res="0.0e+00" rms="0.0e+00" purity="0.0e+00" nType="0">
            <Node pos="l" depth="3" NCoef="0" IVar="5" Cut="0.979013085" cType="1" res="0.0e+00" rms="0.0e+00" purity="0.0e+00" nType="0">
              <Node pos="l" depth="4" NCoef="0" IVar="2" Cut="-0.107863307" cType="1" res="0.0e+00" rms="0.0e+00" purity="0.0e+00" nType="0">
                <Node pos="l" depth="5" NCoef="0" IVar="1" Cut="-0.772237539" cType="1" res="0.0e+00" rms="0.0e+00" purity="0.0e+00" nType="0">
                  <Node pos="l" depth="6" NCoef="0" IVar="-1" Cut="0.0e+00" cType="1" res="-0.10073062" rms="0.0e+00" purity="0.0e+00" nType="-99"/>
                  <Node pos="r" depth="6" NCoef="0" IVar="-1" Cut="0.0e+00" cType="1" res="-0.325888395" rms="0.0e+00" purity="0.0e+00" nType="-99"/>
                </Node>
                <Node pos="r" depth="5" NCoef="0" IVar="1" Cut="0.673536301" cType="1" res="0.0e+00" rms="0.0e+00" purity="0.0e+00" nType="0">
                  <Node pos="l" depth="6" NCoef="0" IVar="-1" Cut="0.0e+00" cType="1" res="0.130769834" rms="0.0e+00" purity="0.0e+00" nType="-99"/>
                  <Node pos="r" depth="6" NCoef="0" IVar="-1" Cut="0.0e+00" cType="1" res="-0.111307442" rms="0.0e+00" purity="0.0e+00" nType="-99"/>
                </Node>
              </Node>
              <Node pos="r" depth="4" NCoef="0" IVar="-1" Cut="0.0e+00" cType="1" res="-0.387945682" rms="0.0e+00" purity="0.0e+00" nType="-99"/>
            </Node>
            <Node pos="r" depth="3" NCoef="0" IVar="5" Cut="1.18136382" cType="1" res="0.0e+00" rms="0.0e+00" purity="0.0e+00" nType="0">
              <Node pos="l" depth="4" NCoef="0" IVar="5" Cut="0.987888992" cType="1" res="0.0e+00" rms="0.0e+00" purity="0.0e+00" nType="0">
                <Node pos="l" depth="5" NCoef="0" IVar="2" Cut="-0.103432454" cType="1" res="0.0e+00" rms="0.0e+00" purity="0.0e+00" nType="0">
                  <Node pos="l" depth="6" NCoef="0" IVar="-1" Cut="0.0e+00" cType="1" res="0.0258429628" rms="0.0e+00" purity="0.0e+00" nType="-99"/>
                  <Node pos="r" depth="6" NCoef="0" IVar="-1" Cut="0.0e+00" cType="1" res="0.279571593" rms="0.0e+00" purity="0.0e+00" nType="-99"/>
                </Node>
                <Node pos="r" depth="5" NCoef="0" IVar="0" Cut="1.07973301" cType="1" res="0.0e+00" rms="0.0e+00" purity="0.0e+00" nType="0">
                  <Node pos="l" depth="6" NCoef="0" IVar="-1" Cut="0.0e+00" cType="1" res="-0.0288062487" rms="0.0e+00" purity="0.0e+00" nType="-99"/>
                  <Node pos="r" depth="6" NCoef="0" IVar="-1" Cut="0.0e+00" cType="1" res="0.0967329144" rms="0.0e+00" purity="0.0e+00" nType="-99"/>
                </Node>
              </Node>
              <Node pos="r" depth="4" NCoef="0" IVar="5" Cut="1.38346052" cType="1" res="0.0e+00" rms="0.0e+00" purity="0.0e+00" nType="0">
                <Node pos="l" depth="5" NCoef="0" IVar="0" Cut="1.5258584" cType="1" res="0.0e+00" rms="0.0e+00" purity="0.0e+00" nType="0">
                  <Node pos="l" depth="6" NCoef="0" IVar="-1" Cut="0.0e+00" cType="1" res="-0.0978569835" rms="0.0e+00" purity="0.0e+00" nType="-99"/>
                  <Node pos="r" depth="6" NCoef="0" IVar="-1" Cut="0.0e+00" cType="1" res="0.0348775312" rms="0.0e+00" purity="0.0e+00" nType="-99"/>
                </Node>
                <Node pos="r" depth="5" NCoef="0" IVar="0" Cut="4.25221062" cType="1" res="0.0e+00" rms="0.0e+00" purity="0.0e+00" nType="0">
                  <Node pos="l" depth="6" NCoef="0" IVar="-1" Cut="0.0e+00" cType="1" res="-0.316159219" rms="0.0e+00" purity="0.0e+00" nType="-99"/>
                  <Node pos="r" depth="6" NCoef="0" IVar="-1" Cut="0.0e+00" cType="1" res="-0.0182357579" rms="0.0e+00" purity="0.0e+00" nType="-99"/>
                </Node>
              </Node>
            </Node>
          </Node>
        </Node>
        <Node pos="r" depth="1" NCoef="0" IVar="6" Cut="-0.184575379" cType="1" res="0.0e+00" rms="0.0e+00" purity="0.0e+00" nType="0">
          <Node pos="l" depth="2" NCoef="0" IVar="5" Cut="0.420205295" cType="1" res="0.0e+00" rms="0.0e+00" purity="0.0e+00" nType="0">
            <Node pos="l" depth="3" NCoef="0" IVar="5" Cut="-0.292461097" cType="1" res="0.0e+00" rms="0.0e+00" purity="0.0e+00" nType="0">
              <Node pos="l" depth="4" NCoef="0" IVar="0" Cut="0.782993913" cType="1" res="0.0e+00" rms="0.0e+00" purity="0.0e+00" nType="0">
                <Node pos="l" depth="5" NCoef="0" IVar="5" Cut="-0.838773489" cType="1" res="0.0e+00" rms="0.0e+00" purity="0.0e+00" nType="0">
                  <Node pos="l" depth="6" NCoef="0" IVar="-1" Cut="0.0e+00" cType="1" res="-0.355514616" rms="0.0e+00" purity="0.0e+00" nType="-99"/>
                  <Node pos="r" depth="6" NCoef="0" IVar="-1" Cut="0.0e+00" cType="1" res="-0.226488382" rms="0.0e+00" purity="0.0e+00" nType="-99"/>
                </Node>
                <Node pos="r" depth="5" NCoef="0" IVar="5" Cut="-1.22686827" cType="1" res="0.0e+00" rms="0.0e+00" purity="0.0e+00" nType="0">
                  <Node pos="l" depth="6" NCoef="0" IVar="-1" Cut="0.0e+00" cType="1" res="-0.313282967" rms="0.0e+00" purity="0.0e+00" nType="-99"/>
                  <Node pos="r" depth="6" NCoef="0" IVar="-1" Cut="0.0e+00" cType="1" res="0.175207078" rms="0.0e+00" purity="0.0e+00" nType="-99"/>
                </Node>
              </Node>
              <Node pos="r" depth="4" NCoef="0" IVar="0" Cut="-0.410562575" cType="1" res="0.0e+00" rms="0.0e+00" purity="0.0e+00" nType="0">
                <Node pos="l" depth="5" NCoef="0" IVar="1" Cut="-0.76401186" cType="1" res="0.0e+00" rms="0.0e+00" purity="0.0e+00" nType="0">
                  <Node pos="l" depth="6" NCoef="0" IVar="-1" Cut="0.0e+00" cType="1" res="0.11557591" rms="0.0e+00" purity="0.0e+00" nType="-99"/>
                  <Node pos="r" depth="6" NCoef="0" IVar="-1" Cut="0.0e+00" cType="1" res="-0.229268774" rms="0.0e+00" purity="0.0e+00" nType="-99"/>
                </Node>
                <Node pos="r" depth="5" NCoef="0" IVar="1" Cut="1.02528644" cType="1" res="0.0e+00" rms="0.0e+00" purity="0.0e+00" nType="0">
                  <Node pos="l" depth="6" NCoef="0" IVar="-1" Cut="0.0e+00" cType="1" res="0.296448976" rms="0.0e+00" purity="0.0e+00" nType="-99"/>
                  <Node pos="r" depth="6" NCoef="0" IVar="-1" Cut="0.0e+00" cType="1" res="0.102640778" rms="0.0e+00" purity="0.0e+00" nType="-99"/>
                </Node>
              </Node>
            </Node>
            <Node pos="r" depth="3" NCoef="0" IVar="0" Cut="0.845032156" cType="1" res="0.0e+00" rms="0.0e+00" purity="0.0e+00" nType="0">
              <Node pos="l" depth="4" NCoef="0" IVar="5" Cut="0.897384882" cType="1" res="0.0e+00" rms="0.0e+00" purity="0.0e+00" nType="0">
                <Node pos="l" depth="5" NCoef="0" IVar="2" Cut="-0.0310387649" cType="1" res="0.0e+00" rms="0.0e+00" purity="0.0e+00" nType="0">
                  <Node pos="l" depth="6" NCoef="0" IVar="-1" Cut="0.0e+00" cType="1" res="-0.280502528" rms="0.0e+00" purity="0.0e+00" nType="-99"/>
                  <Node pos="r" depth="6" NCoef="0" IVar="-1" Cut="0.0e+00" cType="1" res="0.0510339066" rms="0.0e+00" purity="0.0e+00" nType="-99"/>
                </Node>
                <Node pos="r" depth="5" NCoef="0" IVar="1" Cut="-0.874149323" cType="1" res="0.0e+00" rms="0.0e+00" purity="0.0e+00" nType="0">
                  <Node pos="l" depth="6" NCoef="0" IVar="-1" Cut="0.0e+00" cType="1" res="-0.0025473719" rms="0.0e+00" purity="0.0e+00" nType="-99"/>
                  <Node pos="r" depth="6" NCoef="0" IVar="-1" Cut="0.0e+00" cType="1" res="-0.361855298" rms="0.0e+00" purity="0.0e+00" nType="-99"/>
                </Node>
              </Node>
              <Node pos="r" depth="4" NCoef="0" IVar="5" Cut="1.21133173" cType="1" res="0.0e+00" rms="0.0e+00" purity="0.0e+00" nType="0">
                <Node pos="l" depth="5" NCoef="0" IVar="7" Cut="-0.144052029" cType="1" res="0.0e+00" rms="0.0e+00" purity="0.0e+00" nType="0">
                  <Node pos="l" depth="6" NCoef="0" IVar="-1" Cut="0.0e+00" cType="1" res="0.239447579" rms="0.0e+00" purity="0.0e+00" nType="-99"/>
                  <Node pos="r" depth="6" NCoef="0" IVar="-1" Cut="0.0e+00" cType="1" res="-0.0274185259" rms="0.0e+00" purity="0.0e+00" nType="-99"/>
                </Node>
                <Node pos="r" depth="5" NCoef="0" IVar="7" Cut="-0.426364124" cType="1" res="0.0e+00" rms="0.0e+00" purity="0.0e+00" nType="0">
                  <Node pos="l" depth="6" NCoef="0" IVar="-1" Cut="0.0e+00" cType="1" res="-0.010377801" rms="0.0e+00" purity="0.0e+00" nType="-99"/>
                  <Node pos="r" depth="6" NCoef="0" IVar="-1" Cut="0.0e+00" cType="1" res="-0.309649199" rms="0.0e+00" purity="0.0e+00" nType="-99"/>
                </Node>
              </Node>
            </Node>
          </Node>
          <Node pos="r" depth="2" NCoef="0" IVar="0" Cut="-0.0288111009" cType="1" res="0.0e+00" rms="0.0e+00" purity="0.0e+00" nType="0">
            <Node pos="l" depth="3" NCoef="0" IVar="1" Cut="-0.806045353" cType="1" res="0.0e+00" rms="0.0e+00" purity="0.0e+00" nType="0">
              <Node pos="l" depth="4" NCoef="0" IVar="0" Cut="-0.564797044" cType="1" res="0.0e+00" rms="0.0e+00" purity="0.0e+00" nType="0">
                <Node pos="l" depth="5" NCoef="0" IVar="1" Cut="-0.893203437" cType="1" res="0.0e+00" rms="0.0e+00" purity="0.0e+00" nType="0">
                  <Node pos="l" depth="6" NCoef="0" IVar="-1" Cut="0.0e+00" cType="1" res="-0.169315875" rms="0.0e+00" purity="0.0e+00" nType="-99"/>
                  <Node pos="r" depth="6" NCoef="0" IVar="-1" Cut="0.0e+00" cType="1" res="-0.317667246" rms="0.0e+00" purity="0.0e+00" nType="-99"/>
                </Node>
                <Node pos="r" depth="5" NCoef="0" IVar="2" Cut="-0.118426472" cType="1" res="0.0e+00" rms="0.0e+00" purity="0.0e+00" nType="0">
                  <Node pos="l" depth="6" NCoef="0" IVar="-1" Cut="0.0e+00" cType="1" res="0.211987808" rms="0.0e+00" purity="0.0e+00" nType="-99"/>
                  <Node pos="r" depth="6" NCoef="0" IVar="-1" Cut="0.0e+00" cType="1" res="-0.170438707" rms="0.0e+00" purity="0.0e+00" nType="-99"/>
                </Node>
              </Node>
              <Node pos="r" depth="4" NCoef="0" IVar="0" Cut="-0.372451246" cType="1" res="0.0e+00" rms="0.0e+00" purity="0.0e+00" nType="0">
                <Node pos="l" depth="5" NCoef="0" IVar="-1" Cut="0.0e+00" cType="1" res="-0.357971549" rms="0.0e+00" purity="0.0e+00" nType="-99"/>
                <Node pos="r" depth="5" NCoef="0" IVar="1" Cut="-0.689508319" cType="1" res="0.0e+00" rms="0.0e+00" purity="0.0e+00" nType="0">
                  <Node pos="l" depth="6" NCoef="0" IVar="-1" Cut="0.0e+00" cType="1" res="-0.16540347" rms="0.0e+00" purity="0.0e+00" nType="-99"/>
                  <Node pos="r" depth="6" NCoef="0" IVar="-1" Cut="0.0e+00" cType="1" res="-0.339361787" rms="0.0e+00" purity="0.0e+00" nType="-99"/>
                </Node>
              </Node>
            </Node>
            <Node pos="r" depth="3" NCoef="0" IVar="1" Cut="0.935297132" cType="1" res="0.0e+00" rms="0.0e+00" purity="0.0e+00" nType="0">
              <Node pos="l" depth="4" NCoef="0" IVar="1" Cut="-0.174463153" cType="1" res="0.0e+00" rms="0.0e+00" purity="0.0e+00" nType="0">
                <Node pos="l" depth="5" NCoef="0" IVar="2" Cut="-0.117320776" cType="1" res="0.0e+00" rms="0.0e+00" purity="0.0e+00" nType="0">
                  <Node pos="l" depth="6" NCoef="0" IVar="-1" Cut="0.0e+00" cType="1" res="0.0488793775" rms="0.0e+00" purity="0.0e+00" nType="-99"/>
                  <Node pos="r" depth="6" NCoef="0" IVar="-1" Cut="0.0e+00" cType="1" res="-0.332970649" rms="0.0e+00" purity="0.0e+00" nType="-99"/>
                </Node>
                <Node pos="r" depth="5" NCoef="0" IVar="6" Cut="0.0561300889" cType="1" res="0.0e+00" rms="0.0e+00" purity="0.0e+00" nType="0">
                  <Node pos="l" depth="6" NCoef="0" IVar="-1" Cut="0.0e+00" cType="1" res="0.028302839" rms="0.0e+00" purity="0.0e+00" nType="-99"/>
                  <Node pos="r" depth="6" NCoef="0" IVar="-1" Cut="0.0e+00" cType="1" res="-0.156223282" rms="0.0e+00" purity="0.0e+00" nType="-99"/>
                </Node>
              </Node>
              <Node pos="r" depth="4" NCoef="0" IVar="0" Cut="1.20873642" cType="1" res="0.0e+00" rms="0.0e+00" purity="0.0e+00" nType="0">
                <Node pos="l" depth="5" NCoef="0" IVar="1" Cut="1.1857686" cType="1" res="0.0e+00" rms="0.0e+00" purity="0.0e+00" nType="0">
                  <Node pos="l" depth="6" NCoef="0" IVar="-1" Cut="0.0e+00" cType="1" res="-0.24075453" rms="0.0e+00" purity="0.0e+00" nType="-99"/>
                  <Node pos="r" depth="6" NCoef="0" IVar="-1" Cut="0.0e+00" cType="1" res="-0.333894849" rms="0.0e+00" purity="0.0e+00" nType="-99"/>
                </Node>
                <Node pos="r" depth="5" NCoef="0" IVar="2" Cut="-0.0712748989" cType="1" res="0.0e+00" rms="0.0e+00" purity="0.0e+00" nType="0">
                  <Node pos="l" depth="6" NCoef="0" IVar="-1" Cut="0.0e+00" cType="1" res="0.0407311022" rms="0.0e+00" purity="0.0e+00" nType="-99"/>
                  <Node pos="r" depth="6" NCoef="0" IVar="-1" Cut="0.0e+00" cType="1" res="-0.284606367" rms="0.0e+00" purity="0.0e+00" nType="-99"/>
                </Node>
              </Node>
            </Node>
          </Node>
        </Node>
      </Node>
    </BinaryTree>
    <BinaryTree type="DecisionTree" boostWeight="1.0e+00" itree="4">
      <Node pos="s" depth="0" NCoef="0" IVar="6" Cut="-0.362701297" cType="1" res="0.0e+00" rms="0.0e+00" purity="0.0e+00" nType="0">
        <Node pos="l" depth="1" NCoef="0" IVar="5" Cut="0.539282918" cType="1" res="0.0e+00" rms="0.0e+00" purity="0.0e+00" nType="0">
          <Node pos="l" depth="2" NCoef="0" IVar="5" Cut="-0.537330627" cType="1" res="0.0e+00" rms="0.0e+00" purity="0.0e+00" nType="0">
            <Node pos="l" depth="3" NCoef="0" IVar="5" Cut="-0.992844164" cType="1" res="0.0e+00" rms="0.0e+00" purity="0.0e+00" nType="0">
              <Node pos="l" depth="4" NCoef="0" IVar="5" Cut="-1.1211735" cType="1" res="0.0e+00" rms="0.0e+00" purity="0.0e+00" nType="0">
                <Node pos="l" depth="5" NCoef="0" IVar="-1" Cut="0.0e+00" cType="1" res="-0.333825588" rms="0.0e+00" purity="0.0e+00" nType="-99"/>
                <Node pos="r" depth="5" NCoef="0" IVar="2" Cut="-0.0915036872" cType="1" res="0.0e+00" rms="0.0e+00" purity="0.0e+00" nType="0">
                  <Node pos="l" depth="6" NCoef="0" IVar="-1" Cut="0.0e+00" cType="1" res="-0.25806874" rms="0.0e+00" purity="0.0e+00" nType="-99"/>
                  <Node pos="r" depth="6" NCoef="0" IVar="-1" Cut="0.0e+00" cType="1" res="0.00614179857" rms="0.0e+00" purity="0.0e+00" nType="-99"/>
                </Node>
              </Node>
              <Node pos="r" depth="4" NCoef="0" IVar="2" Cut="-0.105027944" cType="1" res="0.0e+00" rms="0.0e+00" purity="0.0e+00" nType="0">
                <Node pos="l" depth="5" NCoef="0" IVar="1" Cut="-0.761722505" cType="1" res="0.0e+00" rms="0.0e+00" purity="0.0e+00" nType="0">
                  <Node pos="l" depth="6" NCoef="0" IVar="-1" Cut="0.0e+00" cType="1" res="-0.0692804903" rms="0.0e+00" purity="0.0e+00" nType="-99"/>
                  <Node pos="r" depth="6" NCoef="0" IVar="-1" Cut="0.0e+00" cType="1" res="-0.276389658" rms="0.0e+00" purity="0.0e+00" nType="-99"/>
                </Node>
                <Node pos="r" depth="5" NCoef="0" IVar="1" Cut="0.82030189" cType="1" res="0.0e+00" rms="0.0e+00" purity="0.0e+00" nType="0">
                  <Node pos="l" depth="6" NCoef="0" IVar="-1" Cut="0.0e+00" cType="1" res="0.249487326" rms="0.0e+00" purity="0.0e+00" nType="-99"/>
                  <Node pos="r" depth="6" NCoef="0" IVar="-1" Cut="0.0e+00" cType="1" res="0.0871258676" rms="0.0e+00" purity="0.0e+00" nType="-99"/>
                </Node>
              </Node>
            </Node>
            <Node pos="r" depth="3" NCoef="0" IVar="2" Cut="-0.111068383" cType="1" res="0.0e+00" rms="0.0e+00" purity="0.0e+00" nType="0">
              <Node pos="l" depth="4" NCoef="0" IVar="6" Cut="-0.494300455" cType="1" res="0.0e+00" rms="0.0e+00" purity="0.0e+00" nType="0">
                <Node pos="l" depth="5" NCoef="0" IVar="1" Cut="-0.907401681" cType="1" res="0.0e+00" rms="0.0e+00" purity="0.0e+00" nType="0">
                  <Node pos="l" depth="6" NCoef="0" IVar="-1" Cut="0.0e+00" cType="1" res="0.0286816563" rms="0.0e+00" purity="0.0e+00" nType="-99"/>
                  <Node pos="r" depth="6" NCoef="0" IVar="-1" Cut="0.0e+00" cType="1" res="0.261494279" rms="0.0e+00" purity="0.0e+00" nType="-99"/>
                </Node>
                <Node pos="r" depth="5" NCoef="0" IVar="5" Cut="0.172677472" cType="1" res="0.0e+00" rms="0.0e+00" purity="0.0e+00" nType="0">
                  <Node pos="l" depth="6" NCoef="0" IVar="-1" Cut="0.0e+00" cType="1" res="0.131584749" rms="0.0e+00" purity="0.0e+00" nType="-99"/>
                  <Node pos="r" depth="6" NCoef="0" IVar="-1" Cut="0.0e+00" cType="1" res="-0.184594885" rms="0.0e+00" purity="0.0e+00" nType="-99"/>
                </Node>
              </Node>
              <Node pos="r" depth="4" NCoef="0" IVar="5" Cut="0.33179304" cType="1" res="0.0e+00" rms="0.0e+00" purity="0.0e+00" nType="0">
                <Node pos="l" depth="5" NCoef="0" IVar="5" Cut="-0.305860937" cType="1" res="0.0e+00" rms="0.0e+00" purity="0.0e+00" nType="0">
                  <Node pos="l" depth="6" NCoef="0" IVar="-1" Cut="0.0e+00" cType="1" res="0.282967865" rms="0.0e+00" purity="0.0e+00" nType="-99"/>
                  <Node pos="r" depth="6" NCoef="0" IVar="-1" Cut="0.0e+00" cType="1" res="0.339456528" rms="0.0e+00" purity="0.0e+00" nType="-99"/>
                </Node>
                <Node pos="r" depth="5" NCoef="0" IVar="6" Cut="-0.469526708" cType="1" res="0.0e+00" rms="0.0e+00" purity="0.0e+00" nType="0">
                  <Node pos="l" depth="6" NCoef="0" IVar="-1" Cut="0.0e+00" cType="1" res="0.292597234" rms="0.0e+00" purity="0.0e+00" nType="-99"/>
                  <Node pos="r" depth="6" NCoef="0" IVar="-1" Cut="0.0e+00" cType="1" res="0.153297231" rms="0.0e+00" purity="0.0e+00" nType="-99"/>
                </Node>
              </Node>
            </Node>
          </Node>
          <Node pos="r" depth="2" NCoef="0" IVar="5" Cut="1.01562035" cType="1" res="0.0e+00" rms="0.0e+00" purity="0.0e+00" nType="0">
            <Node pos="l" depth="3" NCoef="0" IVar="2" Cut="-0.106618904" cType="1" res="0.0e+00" rms="0.0e+00" purity="0.0e+00" nType="0">
              <Node pos="l" depth="4" NCoef="0" IVar="1" Cut="-0.754456401" cType="1" res="0.0e+00" rms="0.0e+00" purity="0.0e+00" nType="0">
                <Node pos="l" depth="5" NCoef="0" IVar="4" Cut="-0.272311896" cType="1" res="0.0e+00" rms="0.0e+00" purity="0.0e+00" nType="0">
                  <Node pos="l" depth="6" NCoef="0" IVar="-1" Cut="0.0e+00" cType="1" res="0.0953783467" rms="0.0e+00" purity="0.0e+00" nType="-99"/>
                  <Node pos="r" depth="6" NCoef="0" IVar="-1" Cut="0.0e+00" cType="1" res="-0.118565559" rms="0.0e+00" purity="0.0e+00" nType="-99"/>
                </Node>
                <Node pos="r" depth="5" NCoef="0" IVar="4" Cut="-0.288293272" cType="1" res="0.0e+00" rms="0.0e+00" purity="0.0e+00" nType="0">
                  <Node pos="l" depth="6" NCoef="0" IVar="-1" Cut="0.0e+00" cType="1" res="-0.0726069883" rms="0.0e+00" purity="0.0e+00" nType="-99"/>
                  <Node pos="r" depth="6" NCoef="0" IVar="-1" Cut="0.0e+00" cType="1" res="-0.297896564" rms="0.0e+00" purity="0.0e+00" nType="-99"/>
                </Node>
              </Node>
              <Node pos="r" depth="4" NCoef="0" IVar="1" Cut="0.812047482" cType="1" res="0.0e+00" rms="0.0e+00" purity="0.0e+00" nType="0">
                <Node pos="l" depth="5" NCoef="0" IVar="2" Cut="0.677523017" cType="1" res="0.0e+00" rms="0.0e+00" purity="0.0e+00" nType="0">
                  <Node pos="l" depth="6" NCoef="0" IVar="-1" Cut="0.0e+00" cType="1" res="0.231206253" rms="0.0e+00" purity="0.0e+00" nType="-99"/>
                  <Node pos="r" depth="6" NCoef="0" IVar="-1" Cut="0.0e+00" cType="1" res="-0" rms="0.0e+00" purity="0.0e+00" nType="-99"/>
                </Node>
                <Node pos="r" depth="5" NCoef="0" IVar="2" Cut="-0.085710302" cType="1" res="0.0e+00" rms="0.0e+00" purity="0.0e+00" nType="0">
                  <Node pos="l" depth="6" NCoef="0" IVar="-1" Cut="0.0e+00" cType="1" res="-0.157331109" rms="0.0e+00" purity="0.0e+00" nType="-99"/>
                  <Node pos="r" depth="6" NCoef="0" IVar="-1" Cut="0.0e+00" cType="1" res="0.110399373" rms="0.0e+00" purity="0.0e+00" nType="-99"/>
                </Node>
              </Node>
            </Node>
            <Node pos="r" depth="3" NCoef="0" IVar="5" Cut="1.11391222" cType="1" res="0.0e+00" rms="0.0e+00" purity="0.0e+00" nType="0">
              <Node pos="l" depth="4" NCoef="0" IVar="2" Cut="-0.0898721367" cType="1" res="0.0e+00" rms="0.0e+00" purity="0.0e+00" nType="0">
                <Node pos="l" depth="5" NCoef="0" IVar="-1" Cut="0.0e+00" cType="1" res="-0.250264108" rms="0.0e+00" purity="0.0e+00" nType="-99"/>
                <Node pos="r" depth="5" NCoef="0" IVar="7" Cut="0.0172340367" cType="1" res="0.0e+00" rms="0.0e+00" purity="0.0e+00" nType="0">
                  <Node pos="l" depth="6" NCoef="0" IVar="-1" Cut="0.0e+00" cType="1" res="0.0321912952" rms="0.0e+00" purity="0.0e+00" nType="-99"/>
                  <Node pos="r" depth="6" NCoef="0" IVar="-1" Cut="0.0e+00" cType="1" res="-0.0462060682" rms="0.0e+00" purity="0.0e+00" nType="-99"/>
                </Node>
              </Node>
              <Node pos="r" depth="4" NCoef="0" IVar="-1" Cut="0.0e+00" cType="1" res="-0.334639192" rms="0.0e+00" purity="0.0e+00" nType="-99"/>
            </Node>
          </Node>
        </Node>
        <Node pos="r" depth="1" NCoef="0" IVar="6" Cut="-0.107463807" cType="1" res="0.0e+00" rms="0.0e+00" purity="0.0e+00" nType="0">
          <Node pos="l" depth="2" NCoef="0" IVar="5" Cut="0.489330828" cType="1" res="0.0e+00" rms="0.0e+00" purity="0.0e+00" nType="0">
            <Node pos="l" depth="3" NCoef="0" IVar="5" Cut="-0.348965883" cType="1" res="0.0e+00" rms="0.0e+00" purity="0.0e+00" nType="0">
              <Node pos="l" depth="4" NCoef="0" IVar="5" Cut="-1.06952381" cType="1" res="0.0e+00" rms="0.0e+00" purity="0.0e+00" nType="0">
                <Node pos="l" depth="5" NCoef="0" IVar="-1" Cut="0.0e+00" cType="1" res="-0.330686301" rms="0.0e+00" purity="0.0e+00" nType="-99"/>
                <Node pos="r" depth="5" NCoef="0" IVar="2" Cut="-0.104598351" cType="1" res="0.0e+00" rms="0.0e+00" purity="0.0e+00" nType="0">
                  <Node pos="l" depth="6" NCoef="0" IVar="-1" Cut="0.0e+00" cType="1" res="-0.279639423" rms="0.0e+00" purity="0.0e+00" nType="-99"/>
                  <Node pos="r" depth="6" NCoef="0" IVar="-1" Cut="0.0e+00" cType="1" res="-0.0472152904" rms="0.0e+00" purity="0.0e+00" nType="-99"/>
                </Node>
              </Node>
              <Node pos="r" depth="4" NCoef="0" IVar="2" Cut="-0.109671138" cType="1" res="0.0e+00" rms="0.0e+00" purity="0.0e+00" nType="0">
                <Node pos="l" depth="5" NCoef="0" IVar="1" Cut="-0.746284246" cType="1" res="0.0e+00" rms="0.0e+00" purity="0.0e+00" nType="0">
                  <Node pos="l" depth="6" NCoef="0" IVar="-1" Cut="0.0e+00" cType="1" res="0.0724081695" rms="0.0e+00" purity="0.0e+00" nType="-99"/>
                  <Node pos="r" depth="6" NCoef="0" IVar="-1" Cut="0.0e+00" cType="1" res="-0.214215279" rms="0.0e+00" purity="0.0e+00" nType="-99"/>
                </Node>
                <Node pos="r" depth="5" NCoef="0" IVar="5" Cut="0.237379223" cType="1" res="0.0e+00" rms="0.0e+00" purity="0.0e+00" nType="0">
                  <Node pos="l" depth="6" NCoef="0" IVar="-1" Cut="0.0e+00" cType="1" res="0.284277141" rms="0.0e+00" purity="0.0e+00" nType="-99"/>
                  <Node pos="r" depth="6" NCoef="0" IVar="-1" Cut="0.0e+00" cType="1" res="0.0682950914" rms="0.0e+00" purity="0.0e+00" nType="-99"/>
                </Node>
              </Node>
            </Node>
            <Node pos="r" depth="3" NCoef="0" IVar="5" Cut="1.01103616" cType="1" res="0.0e+00" rms="0.0e+00" purity="0.0e+00" nType="0">
              <Node pos="l" depth="4" NCoef="0" IVar="2" Cut="-0.103542112" cType="1" res="0.0e+00" rms="0.0e+00" purity="0.0e+00" nType="0">
                <Node pos="l" depth="5" NCoef="0" IVar="1" Cut="-0.868044138" cType="1" res="0.0e+00" rms="0.0e+00" purity="0.0e+00" nType="0">
                  <Node pos="l" depth="6" NCoef="0" IVar="-1" Cut="0.0e+00" cType="1" res="-0.0780336857" rms="0.0e+00" purity="0.0e+00" nType="-99"/>
                  <Node pos="r" depth="6" NCoef="0" IVar="-1" Cut="0.0e+00" cType="1" res="-0.294470847" rms="0.0e+00" purity="0.0e+00" nType="-99"/>
                </Node>
                <Node pos="r" depth="5" NCoef="0" IVar="7" Cut="-0.231058449" cType="1" res="0.0e+00" rms="0.0e+00" purity="0.0e+00" nType="0">
                  <Node pos="l" depth="6" NCoef="0" IVar="-1" Cut="0.0e+00" cType="1" res="0.0812286884" rms="0.0e+00" purity="0.0e+00" nType="-99"/>
                  <Node pos="r" depth="6" NCoef="0" IVar="-1" Cut="0.0e+00" cType="1" res="-0.163867235" rms="0.0e+00" purity="0.0e+00" nType="-99"/>
                </Node>
              </Node>
              <Node pos="r" depth="4" NCoef="0" IVar="-1" Cut="0.0e+00" cType="1" res="-0.330844551" rms="0.0e+00" purity="0.0e+00" nType="-99"/>
            </Node>
          </Node>
          <Node pos="r" depth="2" NCoef="0" IVar="6" Cut="0.280659795" cType="1" res="0.0e+00" rms="0.0e+00" purity="0.0e+00" nType="0">
            <Node pos="l" depth="3" NCoef="0" IVar="4" Cut="1.46174479" cType="1" res="0.0e+00" rms="0.0e+00" purity="0.0e+00" nType="0">
              <Node pos="l" depth="4" NCoef="0" IVar="1" Cut="-0.800134838" cType="1" res="0.0e+00" rms="0.0e+00" purity="0.0e+00" nType="0">
                <Node pos="l" depth="5" NCoef="0" IVar="2" Cut="-0.118195824" cType="1" res="0.0e+00" rms="0.0e+00" purity="0.0e+00" nType="0">
                  <Node pos="l" depth="6" NCoef="0" IVar="-1" Cut="0.0e+00" cType="1" res="-0.0247718561" rms="0.0e+00" purity="0.0e+00" nType="-99"/>
                  <Node pos="r" depth="6" NCoef="0" IVar="-1" Cut="0.0e+00" cType="1" res="-0.211210206" rms="0.0e+00" purity="0.0e+00" nType="-99"/>
                </Node>
                <Node pos="r" depth="5" NCoef="0" IVar="4" Cut="-1.43746138" cType="1" res="0.0e+00" rms="0.0e+00" purity="0.0e+00" nType="0">
                  <Node pos="l" depth="6" NCoef="0" IVar="-1" Cut="0.0e+00" cType="1" res="-0.0497361161" rms="0.0e+00" purity="0.0e+00" nType="-99"/>
                  <Node pos="r" depth="6" NCoef="0" IVar="-1" Cut="0.0e+00" cType="1" res="-0.303418338" rms="0.0e+00" purity="0.0e+00" nType="-99"/>
                </Node>
              </Node>
              <Node pos="r" depth="4" NCoef="0" IVar="2" Cut="0.0350344777" cType="1" res="0.0e+00" rms="0.0e+00" purity="0.0e+00" nType="0">
                <Node pos="l" depth="5" NCoef="0" IVar="2" Cut="-0.0577665418" cType="1" res="0.0e+00" rms="0.0e+00" purity="0.0e+00" nType="0">
                  <Node pos="l" depth="6" NCoef="0" IVar="-1" Cut="0.0e+00" cType="1" res="0.413879484" rms="0.0e+00" purity="0.0e+00" nType="-99"/>
                  <Node pos="r" depth="6" NCoef="0" IVar="-1" Cut="0.0e+00" cType="1" res="0.126220986" rms="0.0e+00" purity="0.0e+00" nType="-99"/>
                </Node>
                <Node pos="r" depth="5" NCoef="0" IVar="2" Cut="0.393050849" cType="1" res="0.0e+00" rms="0.0e+00" purity="0.0e+00" nType="0">
                  <Node pos="l" depth="6" NCoef="0" IVar="-1" Cut="0.0e+00" cType="1" res="-0.0348784477" rms="0.0e+00" purity="0.0e+00" nType="-99"/>
                  <Node pos="r" depth="6" NCoef="0" IVar="-1" Cut="0.0e+00" cType="1" res="-0.23240684" rms="0.0e+00" purity="0.0e+00" nType="-99"/>
                </Node>
              </Node>
            </Node>
            <Node pos="r" depth="3" NCoef="0" IVar="1" Cut="0.0191210657" cType="1" res="0.0e+00" rms="0.0e+00" purity="0.0e+00" nType="0">
              <Node pos="l" depth="4" NCoef="0" IVar="1" Cut="-0.849747598" cType="1" res="0.0e+00" rms="0.0e+00" purity="0.0e+00" nType="0">
                <Node pos="l" depth="5" NCoef="0" IVar="3" Cut="1.51788735" cType="1" res="0.0e+00" rms="0.0e+00" purity="0.0e+00" nType="0">
                  <Node pos="l" depth="6" NCoef="0" IVar="-1" Cut="0.0e+00" cType="1" res="-0.278920114" rms="0.0e+00" purity="0.0e+00" nType="-99"/>
                  <Node pos="r" depth="6" NCoef="0" IVar="-1" Cut="0.0e+00" cType="1" res="-0.0139137683" rms="0.0e+00" purity="0.0e+00" nType="-99"/>
                </Node>
                <Node pos="r" depth="5" NCoef="0" IVar="-1" Cut="0.0e+00" cType="1" res="-0.334456861" rms="0.0e+00" purity="0.0e+00" nType="-99"/>
              </Node>
              <Node pos="r" depth="4" NCoef="0" IVar="1" Cut="1.01462615" cType="1" res="0.0e+00" rms="0.0e+00" purity="0.0e+00" nType="0">
                <Node pos="l" depth="5" NCoef="0" IVar="6" Cut="0.627327919" cType="1" res="0.0e+00" rms="0.0e+00" purity="0.0e+00" nType="0">
                  <Node pos="l" depth="6" NCoef="0" IVar="-1" Cut="0.0e+00" cType="1" res="-0.207954809" rms="0.0e+00" purity="0.0e+00" nType="-99"/>
                  <Node pos="r" depth="6" NCoef="0" IVar="-1" Cut="0.0e+00" cType="1" res="-0.28834191" rms="0.0e+00" purity="0.0e+00" nType="-99"/>
                </Node>
                <Node pos="r" depth="5" NCoef="0" IVar="-1" Cut="0.0e+00" cType="1" res="-0.323284924" rms="0.0e+00" purity="0.0e+00" nType="-99"/>
              </Node>
            </Node>
          </Node>
        </Node>
      </Node>
    </BinaryTree>
    <BinaryTree type="DecisionTree" boostWeight="1.0e+00" itree="5">
      <Node pos="s" depth="0" NCoef="0" IVar="6" Cut="-0.428392261" cType="1" res="0.0e+00" rms="0.0e+00" purity="0.0e+00" nType="0">
        <Node pos="l" depth="1" NCoef="0" IVar="0" Cut="-0.49364233" cType="1" res="0.0e+00" rms="0.0e+00" purity="0.0e+00" nType="0">
          <Node pos="l" depth="2" NCoef="0" IVar="1" Cut="-0.747545242" cType="1" res="0.0e+00" rms="0.0e+00" purity="0.0e+00" nType="0">
            <Node pos="l" depth="3" NCoef="0" IVar="0" Cut="-0.635319829" cType="1" res="0.0e+00" rms="0.0e+00" purity="0.0e+00" nType="0">
              <Node pos="l" depth="4" NCoef="0" IVar="4" Cut="0.265319228" cType="1" res="0.0e+00" rms="0.0e+00" purity="0.0e+00" nType="0">
                <Node pos="l" depth="5" NCoef="0" IVar="4" Cut="-0.215276584" cType="1" res="0.0e+00" rms="0.0e+00" purity="0.0e+00" nType="0">
                  <Node pos="l" depth="6" NCoef="0" IVar="-1" Cut="0.0e+00" cType="1" res="0.165181339" rms="0.0e+00" purity="0.0e+00" nType="-99"/>
                  <Node pos="r" depth="6" NCoef="0" IVar="-1" Cut="0.0e+00" cType="1" res="-0.0291241389" rms="0.0e+00" purity="0.0e+00" nType="-99"/>
                </Node>
                <Node pos="r" depth="5" NCoef="0" IVar="5" Cut="-0.876445353" cType="1" res="0.0e+00" rms="0.0e+00" purity="0.0e+00" nType="0">
                  <Node pos="l" depth="6" NCoef="0" IVar="-1" Cut="0.0e+00" cType="1" res="-0.0348954387" rms="0.0e+00" purity="0.0e+00" nType="-99"/>
                  <Node pos="r" depth="6" NCoef="0" IVar="-1" Cut="0.0e+00" cType="1" res="0.232804969" rms="0.0e+00" purity="0.0e+00" nType="-99"/>
                </Node>
              </Node>
              <Node pos="r" depth="4" NCoef="0" IVar="5" Cut="-0.269923538" cType="1" res="0.0e+00" rms="0.0e+00" purity="0.0e+00" nType="0">
                <Node pos="l" depth="5" NCoef="0" IVar="1" Cut="-0.814857841" cType="1" res="0.0e+00" rms="0.0e+00" purity="0.0e+00" nType="0">
                  <Node pos="l" depth="6" NCoef="0" IVar="-1" Cut="0.0e+00" cType="1" res="0.0372622907" rms="0.0e+00" purity="0.0e+00" nType="-99"/>
                  <Node pos="r" depth="6" NCoef="0" IVar="-1" Cut="0.0e+00" cType="1" res="-0.178939253" rms="0.0e+00" purity="0.0e+00" nType="-99"/>
                </Node>
                <Node pos="r" depth="5" NCoef="0" IVar="5" Cut="0.336439192" cType="1" res="0.0e+00" rms="0.0e+00" purity="0.0e+00" nType="0">
                  <Node pos="l" depth="6" NCoef="0" IVar="-1" Cut="0.0e+00" cType="1" res="0.295153826" rms="0.0e+00" purity="0.0e+00" nType="-99"/>
                  <Node pos="r" depth="6" NCoef="0" IVar="-1" Cut="0.0e+00" cType="1" res="-0.0941606387" rms="0.0e+00" purity="0.0e+00" nType="-99"/>
                </Node>
              </Node>
            </Node>
            <Node pos="r" depth="3" NCoef="0" IVar="5" Cut="-0.259533465" cType="1" res="0.0e+00" rms="0.0e+00" purity="0.0e+00" nType="0">
              <Node pos="l" depth="4" NCoef="0" IVar="4" Cut="-0.333728731" cType="1" res="0.0e+00" rms="0.0e+00" purity="0.0e+00" nType="0">
                <Node pos="l" depth="5" NCoef="0" IVar="1" Cut="-0.660042763" cType="1" res="0.0e+00" rms="0.0e+00" purity="0.0e+00" nType="0">
                  <Node pos="l" depth="6" NCoef="0" IVar="-1" Cut="0.0e+00" cType="1" res="0.094337821" rms="0.0e+00" purity="0.0e+00" nType="-99"/>
                  <Node pos="r" depth="6" NCoef="0" IVar="-1" Cut="0.0e+00" cType="1" res="-0.0804537907" rms="0.0e+00" purity="0.0e+00" nType="-99"/>
                </Node>
                <Node pos="r" depth="5" NCoef="0" IVar="4" Cut="0.917197168" cType="1" res="0.0e+00" rms="0.0e+00" purity="0.0e+00" nType="0">
                  <Node pos="l" depth="6" NCoef="0" IVar="-1" Cut="0.0e+00" cType="1" res="-0.330043972" rms="0.0e+00" purity="0.0e+00" nType="-99"/>
                  <Node pos="r" depth="6" NCoef="0" IVar="-1" Cut="0.0e+00" cType="1" res="0.009400337" rms="0.0e+00" purity="0.0e+00" nType="-99"/>
                </Node>
              </Node>
              <Node pos="r" depth="4" NCoef="0" IVar="5" Cut="0.200168163" cType="1" res="0.0e+00" rms="0.0e+00" purity="0.0e+00" nType="0">
                <Node pos="l" depth="5" NCoef="0" IVar="4" Cut="-0.23821646" cType="1" res="0.0e+00" rms="0.0e+00" purity="0.0e+00" nType="0">
                  <Node pos="l" depth="6" NCoef="0" IVar="-1" Cut="0.0e+00" cType="1" res="0.172833771" rms="0.0e+00" purity="0.0e+00" nType="-99"/>
                  <Node pos="r" depth="6" NCoef="0" IVar="-1" Cut="0.0e+00" cType="1" res="0.0183207337" rms="0.0e+00" purity="0.0e+00" nType="-99"/>
                </Node>
                <Node pos="r" depth="5" NCoef="0" IVar="4" Cut="0.981421411" cType="1" res="0.0e+00" rms="0.0e+00" purity="0.0e+00" nType="0">
                  <Node pos="l" depth="6" NCoef="0" IVar="-1" Cut="0.0e+00" cType="1" res="-0.271845967" rms="0.0e+00" purity="0.0e+00" nType="-99"/>
                  <Node pos="r" depth="6" NCoef="0" IVar="-1" Cut="0.0e+00" cType="1" res="0.0272161346" rms="0.0e+00" purity="0.0e+00" nType="-99"/>
                </Node>
              </Node>
            </Node>
          </Node>
          <Node pos="r" depth="2" NCoef="0" IVar="5" Cut="0.837811232" cType="1" res="0.0e+00" rms="0.0e+00" purity="0.0e+00" nType="0">
            <Node pos="l" depth="3" NCoef="0" IVar="5" Cut="-0.842540443" cType="1" res="0.0e+00" rms="0.0e+00" purity="0.0e+00" nType="0">
              <Node pos="l" depth="4" NCoef="0" IVar="0" Cut="1.07957482" cType="1" res="0.0e+00" rms="0.0e+00" purity="0.0e+00" nType="0">
                <Node pos="l" depth="5" NCoef="0" IVar="5" Cut="-1.13886487" cType="1" res="0.0e+00" rms="0.0e+00" purity="0.0e+00" nType="0">
                  <Node pos="l" depth="6" NCoef="0" IVar="-1" Cut="0.0e+00" cType="1" res="-0.310554087" rms="0.0e+00" purity="0.0e+00" nType="-99"/>
                  <Node pos="r" depth="6" NCoef="0" IVar="-1" Cut="0.0e+00" cType="1" res="-0.094311215" rms="0.0e+00" purity="0.0e+00" nType="-99"/>
                </Node>
                <Node pos="r" depth="5" NCoef="0" IVar="5" Cut="-1.77784634" cType="1" res="0.0e+00" rms="0.0e+00" purity="0.0e+00" nType="0">
                  <Node pos="l" depth="6" NCoef="0" IVar="-1" Cut="0.0e+00" cType="1" res="-0.178024262" rms="0.0e+00" purity="0.0e+00" nType="-99"/>
                  <Node pos="r" depth="6" NCoef="0" IVar="-1" Cut="0.0e+00" cType="1" res="0.157636598" rms="0.0e+00" purity="0.0e+00" nType="-99"/>
                </Node>
              </Node>
              <Node pos="r" depth="4" NCoef="0" IVar="5" Cut="0.379813462" cType="1" res="0.0e+00" rms="0.0e+00" purity="0.0e+00" nType="0">
                <Node pos="l" depth="5" NCoef="0" IVar="5" Cut="-0.366149008" cType="1" res="0.0e+00" rms="0.0e+00" purity="0.0e+00" nType="0">
                  <Node pos="l" depth="6" NCoef="0" IVar="-1" Cut="0.0e+00" cType="1" res="0.17904985" rms="0.0e+00" purity="0.0e+00" nType="-99"/>
                  <Node pos="r" depth="6" NCoef="0" IVar="-1" Cut="0.0e+00" cType="1" res="0.313270807" rms="0.0e+00" purity="0.0e+00" nType="-99"/>
                </Node>
