<?xml version="1.0"?>
<MethodSetup Method="BDT::BDT">
  <Variables NVar="8">
    <Variable Expression="f0" Internal="f0" Label="f0" Max="0.0e+00" Min="0.0e+00" Title="f0" Type="F" Unit="" VarIndex="0"/>
    <Variable Expression="f1" Internal="f1" Label="f1" Max="0.0e+00" Min="0.0e+00" Title="f1" Type="F" Unit="" VarIndex="1"/>
    <Variable Expression="f2" Internal="f2" Label="f2" Max="0.0e+00" Min="0.0e+00" Title="f2" Type="F" Unit="" VarIndex="2"/>
    <Variable Expression="f3" Internal="f3" Label="f3" Max="0.0e+00" Min="0.0e+00" Title="f3" Type="F" Unit="" VarIndex="3"/>
    <Variable Expression="f4" Internal="f4" Label="f4" Max="0.0e+00" Min="0.0e+00" Title="f4" Type="F" Unit="" VarIndex="4"/>
    <Variable Expression="f5" Internal="f5" Label="f5" Max="0.0e+00" Min="0.0e+00" Title="f5" Type="F" Unit="" VarIndex="5"/>
    <Variable Expression="f6" Internal="f6" Label="f6" Max="0.0e+00" Min="0.0e+00" Title="f6" Type="F" Unit="" VarIndex="6"/>
    <Variable Expression="f7" Internal="f7" Label="f7" Max="0.0e+00" Min="0.0e+00" Title="f7" Type="F" Unit="" VarIndex="7"/>
  </Variables>
  <GeneralInfo>
    <Info name="Creator" value="xgboost2TMVA"/>
    <Info name="AnalysisType" value="Classification"/>
  </GeneralInfo>
  <Options>
    <Option modified="No" name="NodePurityLimit">5.00e-01</Option>
    <Option modified="Yes" name="BoostType">Grad</Option>
  </Options>
  <Weights AnalysisType="1" NTrees="1200">
    <BinaryTree boostWeight="1.0e+00" itree="0" type="DecisionTree">
      <Node Cut="-1.04417646" IVar="6" NCoef="0" cType="1" depth="0" nType="0" pos="s" purity="0.0e+00" res="0.0e+00" rms="0.0e+00">
        <Node Cut="0.415911585" IVar="5" NCoef="0" cType="1" depth="1" nType="0" pos="l" purity="0.0e+00" res="0.0e+00" rms="0.0e+00">
          <Node Cut="-0.338496268" IVar="5" NCoef="0" cType="1" depth="2" nType="0" pos="l" purity="0.0e+00" res="0.0e+00" rms="0.0e+00">
            <Node Cut="-0.520193636" IVar="5" NCoef="0" cType="1" depth="3" nType="0" pos="l" purity="0.0e+00" res="0.0e+00" rms="0.0e+00">
              <Node Cut="0.0e+00" IVar="-1" NCoef="0" cType="1" depth="4" nType="-99" pos="l" purity="0.0e+00" res="-0.0481755547" rms="0.0e+00"/>
              <Node Cut="-0.185417339" IVar="0" NCoef="0" cType="1" depth="4" nType="0" pos="r" purity="0.0e+00" res="0.0e+00" rms="0.0e+00">
                <Node Cut="0.0e+00" IVar="-1" NCoef="0" cType="1" depth="5" nType="-99" pos="l" purity="0.0e+00" res="-0.029438369" rms="0.0e+00"/>
                <Node Cut="0.0e+00" IVar="-1" NCoef="0" cType="1" depth="5" nType="-99" pos="r" purity="0.0e+00" res="0.0193704236" rms="0.0e+00"/>
              </Node>
            </Node>
            <Node Cut="0.271253228" IVar="5" NCoef="0" cType="1" depth="3" nType="0" pos="r" purity="0.0e+00" res="0.0e+00" rms="0.0e+00">
              <Node Cut="-0.263929248" IVar="5" NCoef="0" cType="1" depth="4" nType="0" pos="l" purity="0.0e+00" res="0.0e+00" rms="0.0e+00">
                <Node Cut="-0.329951525" IVar="0" NCoef="0" cType="1" depth="5" nType="0" pos="l" purity="0.0e+00" res="0.0e+00" rms="0.0e+00">
                  <Node Cut="0.0e+00" IVar="-1" NCoef="0" cType="1" depth="6" nType="-99" pos="l" purity="0.0e+00" res="-0.0100965109" rms="0.0e+00"/>
                  <Node Cut="0.0e+00" IVar="-1" NCoef="0" cType="1" depth="6" nType="-99" pos="r" purity="0.0e+00" res="0.0273697805" rms="0.0e+00"/>
                </Node>
                <Node Cut="-0.595246553" IVar="0" NCoef="0" cType="1" depth="5" nType="0" pos="r" purity="0.0e+00" res="0.0e+00" rms="0.0e+00">
                  <Node Cut="0.0e+00" IVar="-1" NCoef="0" cType="1" depth="6" nType="-99" pos="l" purity="0.0e+00" res="0.00873519853" rms="0.0e+00"/>
                  <Node Cut="0.0e+00" IVar="-1" NCoef="0" cType="1" depth="6" nType="-99" pos="r" purity="0.0e+00" res="0.0555539392" rms="0.0e+00"/>
                </Node>
              </Node>
              <Node Cut="-0.293408871" IVar="0" NCoef="0" cType="1" depth="4" nType="0" pos="r" purity="0.0e+00" res="0.0e+00" rms="0.0e+00">
                <Node Cut="0.0e+00" IVar="-1" NCoef="0" cType="1" depth="5" nType="-99" pos="l" purity="0.0e+00" res="-0.0209935904" rms="0.0e+00"/>
                <Node Cut="0.0e+00" IVar="-1" NCoef="0" cType="1" depth="5" nType="-99" pos="r" purity="0.0e+00" res="0.0297592171" rms="0.0e+00"/>
              </Node>
            </Node>
          </Node>
          <Node Cut="1.31872988" IVar="0" NCoef="0" cType="1" depth="2" nType="0" pos="r" purity="0.0e+00" res="0.0e+00" rms="0.0e+00">
            <Node Cut="0.0e+00" IVar="-1" NCoef="0" cType="1" depth="3" nType="-99" pos="l" purity="0.0e+00" res="-0.0492399596" rms="0.0e+00"/>
            <Node Cut="0.660794497" IVar="5" NCoef="0" cType="1" depth="3" nType="0" pos="r" purity="0.0e+00" res="0.0e+00" rms="0.0e+00">
              <Node Cut="0.0e+00" IVar="-1" NCoef="0" cType="1" depth="4" nType="-99" pos="l" purity="0.0e+00" res="0.00841794163" rms="0.0e+00"/>
              <Node Cut="0.0e+00" IVar="-1" NCoef="0" cType="1" depth="4" nType="-99" pos="r" purity="0.0e+00" res="-0.0175644848" rms="0.0e+00"/>
            </Node>
          </Node>
        </Node>
        <Node Cut="-0.891237199" IVar="6" NCoef="0" cType="1" depth="1" nType="0" pos="r" purity="0.0e+00" res="0.0e+00" rms="0.0e+00">
          <Node Cut="-0.240483195" IVar="2" NCoef="0" cType="1" depth="2" nType="0" pos="l" purity="0.0e+00" res="0.0e+00" rms="0.0e+00">
            <Node Cut="0.176479429" IVar="5" NCoef="0" cType="1" depth="3" nType="0" pos="l" purity="0.0e+00" res="0.0e+00" rms="0.0e+00">
              <Node Cut="-0.159181893" IVar="5" NCoef="0" cType="1" depth="4" nType="0" pos="l" purity="0.0e+00" res="0.0e+00" rms="0.0e+00">
                <Node Cut="0.0e+00" IVar="-1" NCoef="0" cType="1" depth="5" nType="-99" pos="l" purity="0.0e+00" res="-0.022668222" rms="0.0e+00"/>
                <Node Cut="-0.672908366" IVar="1" NCoef="0" cType="1" depth="5" nType="0" pos="r" purity="0.0e+00" res="0.0e+00" rms="0.0e+00">
                  <Node Cut="0.0e+00" IVar="-1" NCoef="0" cType="1" depth="6" nType="-99" pos="l" purity="0.0e+00" res="-0.00271283905" rms="0.0e+00"/>
                  <Node Cut="0.0e+00" IVar="-1" NCoef="0" cType="1" depth="6" nType="-99" pos="r" purity="0.0e+00" res="0.0362596214" rms="0.0e+00"/>
                </Node>
              </Node>
              <Node Cut="0.0e+00" IVar="-1" NCoef="0" cType="1" depth="4" nType="-99" pos="r" purity="0.0e+00" res="-0.0248008147" rms="0.0e+00"/>
            </Node>
            <Node Cut="-2.48336267" IVar="4" NCoef="0" cType="1" depth="3" nType="0" pos="r" purity="0.0e+00" res="0.0e+00" rms="0.0e+00">
              <Node Cut="0.0e+00" IVar="-1" NCoef="0" cType="1" depth="4" nType="-99" pos="l" purity="0.0e+00" res="0.00182788505" rms="0.0e+00"/>
              <Node Cut="2.18717051" IVar="4" NCoef="0" cType="1" depth="4" nType="0" pos="r" purity="0.0e+00" res="0.0e+00" rms="0.0e+00">
                <Node Cut="-1.59584761" IVar="4" NCoef="0" cType="1" depth="5" nType="0" pos="l" purity="0.0e+00" res="0.0e+00" rms="0.0e+00">
                  <Node Cut="-0.189010367" IVar="2" NCoef="0" cType="1" depth="6" nType="0" pos="l" purity="0.0e+00" res="0.0e+00" rms="0.0e+00">
                    <Node Cut="0.0e+00" IVar="-1" NCoef="0" cType="1" depth="7" nType="-99" pos="l" purity="0.0e+00" res="0.00911400281" rms="0.0e+00"/>
                    <Node Cut="0.0e+00" IVar="-1" NCoef="0" cType="1" depth="7" nType="-99" pos="r" purity="0.0e+00" res="-0.0236924868" rms="0.0e+00"/>
                  </Node>
                  <Node Cut="0.0e+00" IVar="-1" NCoef="0" cType="1" depth="6" nType="-99" pos="r" purity="0.0e+00" res="-0.0504280031" rms="0.0e+00"/>
                </Node>
                <Node Cut="-0.165920258" IVar="2" NCoef="0" cType="1" depth="5" nType="0" pos="r" purity="0.0e+00" res="0.0e+00" rms="0.0e+00">
                  <Node Cut="0.0e+00" IVar="-1" NCoef="0" cType="1" depth="6" nType="-99" pos="l" purity="0.0e+00" res="0.0113963559" rms="0.0e+00"/>
                  <Node Cut="0.0e+00" IVar="-1" NCoef="0" cType="1" depth="6" nType="-99" pos="r" purity="0.0e+00" res="-0.0147480173" rms="0.0e+00"/>
                </Node>
              </Node>
            </Node>
          </Node>
          <Node Cut="-0.261141539" IVar="2" NCoef="0" cType="1" depth="2" nType="0" pos="r" purity="0.0e+00" res="0.0e+00" rms="0.0e+00">
            <Node Cut="-0.616654515" IVar="6" NCoef="0" cType="1" depth="3" nType="0" pos="l" purity="0.0e+00" res="0.0e+00" rms="0.0e+00">
              <Node Cut="0.0e+00" IVar="-1" NCoef="0" cType="1" depth="4" nType="-99" pos="l" purity="0.0e+00" res="0.0058114347" rms="0.0e+00"/>
              <Node Cut="-0.474311054" IVar="4" NCoef="0" cType="1" depth="4" nType="0" pos="r" purity="0.0e+00" res="0.0e+00" rms="0.0e+00">
                <Node Cut="0.0e+00" IVar="-1" NCoef="0" cType="1" depth="5" nType="-99" pos="l" purity="0.0e+00" res="-0" rms="0.0e+00"/>
                <Node Cut="0.0e+00" IVar="-1" NCoef="0" cType="1" depth="5" nType="-99" pos="r" purity="0.0e+00" res="-0.040854644" rms="0.0e+00"/>
              </Node>
            </Node>
            <Node Cut="0.0e+00" IVar="-1" NCoef="0" cType="1" depth="3" nType="-99" pos="r" purity="0.0e+00" res="-0.0578943677" rms="0.0e+00"/>
          </Node>
        </Node>
      </Node>
    </BinaryTree>
    <BinaryTree boostWeight="1.0e+00" itree="1" type="DecisionTree">
      <Node Cut="-1.04042077" IVar="6" NCoef="0" cType="1" depth="0" nType="0" pos="s" purity="0.0e+00" res="0.0e+00" rms="0.0e+00">
        <Node Cut="0.358167291" IVar="5" NCoef="0" cType="1" depth="1" nType="0" pos="l" purity="0.0e+00" res="0.0e+00" rms="0.0e+00">
          <Node Cut="-0.338354945" IVar="5" NCoef="0" cType="1" depth="2" nType="0" pos="l" purity="0.0e+00" res="0.0e+00" rms="0.0e+00">
            <Node Cut="1.04214752" IVar="0" NCoef="0" cType="1" depth="3" nType="0" pos="l" purity="0.0e+00" res="0.0e+00" rms="0.0e+00">
              <Node Cut="-0.407695383" IVar="5" NCoef="0" cType="1" depth="4" nType="0" pos="l" purity="0.0e+00" res="0.0e+00" rms="0.0e+00">
                <Node Cut="0.0e+00" IVar="-1" NCoef="0" cType="1" depth="5" nType="-99" pos="l" purity="0.0e+00" res="-0.0477836058" rms="0.0e+00"/>
                <Node Cut="-0.161715567" IVar="0" NCoef="0" cType="1" depth="5" nType="0" pos="r" purity="0.0e+00" res="0.0e+00" rms="0.0e+00">
                  <Node Cut="0.0e+00" IVar="-1" NCoef="0" cType="1" depth="6" nType="-99" pos="l" purity="0.0e+00" res="-0.0152648287" rms="0.0e+00"/>
                  <Node Cut="0.0e+00" IVar="-1" NCoef="0" cType="1" depth="6" nType="-99" pos="r" purity="0.0e+00" res="0.00862181094" rms="0.0e+00"/>
                </Node>
              </Node>
              <Node Cut="-0.818395019" IVar="5" NCoef="0" cType="1" depth="4" nType="0" pos="r" purity="0.0e+00" res="0.0e+00" rms="0.0e+00">
                <Node Cut="0.0e+00" IVar="-1" NCoef="0" cType="1" depth="5" nType="-99" pos="l" purity="0.0e+00" res="-0.018948229" rms="0.0e+00"/>
                <Node Cut="0.0e+00" IVar="-1" NCoef="0" cType="1" depth="5" nType="-99" pos="r" purity="0.0e+00" res="0.0168914665" rms="0.0e+00"/>
              </Node>
            </Node>
            <Node Cut="0.26583001" IVar="5" NCoef="0" cType="1" depth="3" nType="0" pos="r" purity="0.0e+00" res="0.0e+00" rms="0.0e+00">
              <Node Cut="-0.263708353" IVar="5" NCoef="0" cType="1" depth="4" nType="0" pos="l" purity="0.0e+00" res="0.0e+00" rms="0.0e+00">
                <Node Cut="-0.329951525" IVar="0" NCoef="0" cType="1" depth="5" nType="0" pos="l" purity="0.0e+00" res="0.0e+00" rms="0.0e+00">
                  <Node Cut="0.0e+00" IVar="-1" NCoef="0" cType="1" depth="6" nType="-99" pos="l" purity="0.0e+00" res="-0.00984055642" rms="0.0e+00"/>
                  <Node Cut="0.0e+00" IVar="-1" NCoef="0" cType="1" depth="6" nType="-99" pos="r" purity="0.0e+00" res="0.0278902557" rms="0.0e+00"/>
                </Node>
                <Node Cut="-0.595330358" IVar="0" NCoef="0" cType="1" depth="5" nType="0" pos="r" purity="0.0e+00" res="0.0e+00" rms="0.0e+00">
                  <Node Cut="0.0e+00" IVar="-1" NCoef="0" cType="1" depth="6" nType="-99" pos="l" purity="0.0e+00" res="0.00678783981" rms="0.0e+00"/>
                  <Node Cut="0.0e+00" IVar="-1" NCoef="0" cType="1" depth="6" nType="-99" pos="r" purity="0.0e+00" res="0.0539937764" rms="0.0e+00"/>
                </Node>
              </Node>
              <Node Cut="-0.285976589" IVar="0" NCoef="0" cType="1" depth="4" nType="0" pos="r" purity="0.0e+00" res="0.0e+00" rms="0.0e+00">
                <Node Cut="0.0e+00" IVar="-1" NCoef="0" cType="1" depth="5" nType="-99" pos="l" purity="0.0e+00" res="-0.0127188098" rms="0.0e+00"/>
                <Node Cut="0.0e+00" IVar="-1" NCoef="0" cType="1" depth="5" nType="-99" pos="r" purity="0.0e+00" res="0.0282901693" rms="0.0e+00"/>
              </Node>
            </Node>
          </Node>
          <Node Cut="0.489391357" IVar="5" NCoef="0" cType="1" depth="2" nType="0" pos="r" purity="0.0e+00" res="0.0e+00" rms="0.0e+00">
            <Node Cut="0.0351360589" IVar="0" NCoef="0" cType="1" depth="3" nType="0" pos="l" purity="0.0e+00" res="0.0e+00" rms="0.0e+00">
              <Node Cut="0.0e+00" IVar="-1" NCoef="0" cType="1" depth="4" nType="-99" pos="l" purity="0.0e+00" res="-0.0245445054" rms="0.0e+00"/>
              <Node Cut="0.0e+00" IVar="-1" NCoef="0" cType="1" depth="4" nType="-99" pos="r" purity="0.0e+00" res="0.0181880649" rms="0.0e+00"/>
            </Node>
            <Node Cut="0.0e+00" IVar="-1" NCoef="0" cType="1" depth="3" nType="-99" pos="r" purity="0.0e+00" res="-0.0480778813" rms="0.0e+00"/>
          </Node>
        </Node>
        <Node Cut="-0.903677225" IVar="6" NCoef="0" cType="1" depth="1" nType="0" pos="r" purity="0.0e+00" res="0.0e+00" rms="0.0e+00">
          <Node Cut="-0.240483195" IVar="2" NCoef="0" cType="1" depth="2" nType="0" pos="l" purity="0.0e+00" res="0.0e+00" rms="0.0e+00">
            <Node Cut="0.176479429" IVar="5" NCoef="0" cType="1" depth="3" nType="0" pos="l" purity="0.0e+00" res="0.0e+00" rms="0.0e+00">
              <Node Cut="-0.157400012" IVar="5" NCoef="0" cType="1" depth="4" nType="0" pos="l" purity="0.0e+00" res="0.0e+00" rms="0.0e+00">
                <Node Cut="0.0e+00" IVar="-1" NCoef="0" cType="1" depth="5" nType="-99" pos="l" purity="0.0e+00" res="-0.0215648077" rms="0.0e+00"/>
                <Node Cut="0.0e+00" IVar="-1" NCoef="0" cType="1" depth="5" nType="-99" pos="r" purity="0.0e+00" res="0.0340708755" rms="0.0e+00"/>
              </Node>
              <Node Cut="0.0e+00" IVar="-1" NCoef="0" cType="1" depth="4" nType="-99" pos="r" purity="0.0e+00" res="-0.0238721613" rms="0.0e+00"/>
            </Node>
            <Node Cut="-1.59584761" IVar="4" NCoef="0" cType="1" depth="3" nType="0" pos="r" purity="0.0e+00" res="0.0e+00" rms="0.0e+00">
              <Node Cut="-0.188679188" IVar="2" NCoef="0" cType="1" depth="4" nType="0" pos="l" purity="0.0e+00" res="0.0e+00" rms="0.0e+00">
                <Node Cut="0.0e+00" IVar="-1" NCoef="0" cType="1" depth="5" nType="-99" pos="l" purity="0.0e+00" res="0.0160500389" rms="0.0e+00"/>
                <Node Cut="0.0e+00" IVar="-1" NCoef="0" cType="1" depth="5" nType="-99" pos="r" purity="0.0e+00" res="-0.0241852645" rms="0.0e+00"/>
              </Node>
              <Node Cut="1.68084979" IVar="4" NCoef="0" cType="1" depth="4" nType="0" pos="r" purity="0.0e+00" res="0.0e+00" rms="0.0e+00">
                <Node Cut="0.0e+00" IVar="-1" NCoef="0" cType="1" depth="5" nType="-99" pos="l" purity="0.0e+00" res="-0.0502524599" rms="0.0e+00"/>
                <Node Cut="-0.162785262" IVar="2" NCoef="0" cType="1" depth="5" nType="0" pos="r" purity="0.0e+00" res="0.0e+00" rms="0.0e+00">
                  <Node Cut="0.0e+00" IVar="-1" NCoef="0" cType="1" depth="6" nType="-99" pos="l" purity="0.0e+00" res="0.0129043432" rms="0.0e+00"/>
                  <Node Cut="0.0e+00" IVar="-1" NCoef="0" cType="1" depth="6" nType="-99" pos="r" purity="0.0e+00" res="-0.0235762708" rms="0.0e+00"/>
                </Node>
              </Node>
            </Node>
          </Node>
          <Node Cut="-0.26121825" IVar="2" NCoef="0" cType="1" depth="2" nType="0" pos="r" purity="0.0e+00" res="0.0e+00" rms="0.0e+00">
            <Node Cut="-0.616654515" IVar="6" NCoef="0" cType="1" depth="3" nType="0" pos="l" purity="0.0e+00" res="0.0e+00" rms="0.0e+00">
              <Node Cut="0.604967713" IVar="7" NCoef="0" cType="1" depth="4" nType="0" pos="l" purity="0.0e+00" res="0.0e+00" rms="0.0e+00">
                <Node Cut="-0.617687345" IVar="7" NCoef="0" cType="1" depth="5" nType="0" pos="l" purity="0.0e+00" res="0.0e+00" rms="0.0e+00">
                  <Node Cut="0.0e+00" IVar="-1" NCoef="0" cType="1" depth="6" nType="-99" pos="l" purity="0.0e+00" res="0.0128542408" rms="0.0e+00"/>
                  <Node Cut="0.0e+00" IVar="-1" NCoef="0" cType="1" depth="6" nType="-99" pos="r" purity="0.0e+00" res="-0.0141972154" rms="0.0e+00"/>
                </Node>
                <Node Cut="0.0e+00" IVar="-1" NCoef="0" cType="1" depth="5" nType="-99" pos="r" purity="0.0e+00" res="0.0136437807" rms="0.0e+00"/>
              </Node>
              <Node Cut="-0.487908959" IVar="4" NCoef="0" cType="1" depth="4" nType="0" pos="r" purity="0.0e+00" res="0.0e+00" rms="0.0e+00">
                <Node Cut="0.0e+00" IVar="-1" NCoef="0" cType="1" depth="5" nType="-99" pos="l" purity="0.0e+00" res="0.00224678917" rms="0.0e+00"/>
                <Node Cut="-1.60651398" IVar="7" NCoef="0" cType="1" depth="5" nType="0" pos="r" purity="0.0e+00" res="0.0e+00" rms="0.0e+00">
                  <Node Cut="0.0e+00" IVar="-1" NCoef="0" cType="1" depth="6" nType="-99" pos="l" purity="0.0e+00" res="-0.00237164344" rms="0.0e+00"/>
                  <Node Cut="0.0e+00" IVar="-1" NCoef="0" cType="1" depth="6" nType="-99" pos="r" purity="0.0e+00" res="-0.0403961837" rms="0.0e+00"/>
                </Node>
              </Node>
            </Node>
            <Node Cut="0.0e+00" IVar="-1" NCoef="0" cType="1" depth="3" nType="-99" pos="r" purity="0.0e+00" res="-0.056184873" rms="0.0e+00"/>
          </Node>
        </Node>
      </Node>
    </BinaryTree>
    <BinaryTree boostWeight="1.0e+00" itree="2" type="DecisionTree">
      <Node Cut="-1.0266552" IVar="6" NCoef="0" cType="1" depth="0" nType="0" pos="s" purity="0.0e+00" res="0.0e+00" rms="0.0e+00">
        <Node Cut="0.399550468" IVar="5" NCoef="0" cType="1" depth="1" nType="0" pos="l" purity="0.0e+00" res="0.0e+00" rms="0.0e+00">
          <Node Cut="-0.338354945" IVar="5" NCoef="0" cType="1" depth="2" nType="0" pos="l" purity="0.0e+00" res="0.0e+00" rms="0.0e+00">
            <Node Cut="-0.520193636" IVar="5" NCoef="0" cType="1" depth="3" nType="0" pos="l" purity="0.0e+00" res="0.0e+00" rms="0.0e+00">
              <Node Cut="0.0e+00" IVar="-1" NCoef="0" cType="1" depth="4" nType="-99" pos="l" purity="0.0e+00" res="-0.0460256264" rms="0.0e+00"/>
              <Node Cut="-0.185597852" IVar="0" NCoef="0" cType="1" depth="4" nType="0" pos="r" purity="0.0e+00" res="0.0e+00" rms="0.0e+00">
                <Node Cut="0.0e+00" IVar="-1" NCoef="0" cType="1" depth="5" nType="-99" pos="l" purity="0.0e+00" res="-0.0290564001" rms="0.0e+00"/>
                <Node Cut="0.0e+00" IVar="-1" NCoef="0" cType="1" depth="5" nType="-99" pos="r" purity="0.0e+00" res="0.0179805402" rms="0.0e+00"/>
              </Node>
            </Node>
            <Node Cut="0.271253228" IVar="5" NCoef="0" cType="1" depth="3" nType="0" pos="r" purity="0.0e+00" res="0.0e+00" rms="0.0e+00">
              <Node Cut="-0.286397517" IVar="5" NCoef="0" cType="1" depth="4" nType="0" pos="l" purity="0.0e+00" res="0.0e+00" rms="0.0e+00">
                <Node Cut="-0.320199549" IVar="0" NCoef="0" cType="1" depth="5" nType="0" pos="l" purity="0.0e+00" res="0.0e+00" rms="0.0e+00">
                  <Node Cut="0.0e+00" IVar="-1" NCoef="0" cType="1" depth="6" nType="-99" pos="l" purity="0.0e+00" res="-0.00834757555" rms="0.0e+00"/>
                  <Node Cut="0.0e+00" IVar="-1" NCoef="0" cType="1" depth="6" nType="-99" pos="r" purity="0.0e+00" res="0.0189478509" rms="0.0e+00"/>
                </Node>
                <Node Cut="-0.678968906" IVar="1" NCoef="0" cType="1" depth="5" nType="0" pos="r" purity="0.0e+00" res="0.0e+00" rms="0.0e+00">
                  <Node Cut="0.0e+00" IVar="-1" NCoef="0" cType="1" depth="6" nType="-99" pos="l" purity="0.0e+00" res="0.0215871874" rms="0.0e+00"/>
                  <Node Cut="0.0e+00" IVar="-1" NCoef="0" cType="1" depth="6" nType="-99" pos="r" purity="0.0e+00" res="0.0524799563" rms="0.0e+00"/>
                </Node>
              </Node>
              <Node Cut="-0.293408871" IVar="0" NCoef="0" cType="1" depth="4" nType="0" pos="r" purity="0.0e+00" res="0.0e+00" rms="0.0e+00">
                <Node Cut="0.0e+00" IVar="-1" NCoef="0" cType="1" depth="5" nType="-99" pos="l" purity="0.0e+00" res="-0.0189671777" rms="0.0e+00"/>
                <Node Cut="0.0e+00" IVar="-1" NCoef="0" cType="1" depth="5" nType="-99" pos="r" purity="0.0e+00" res="0.0274717808" rms="0.0e+00"/>
              </Node>
            </Node>
          </Node>
          <Node Cut="0.489391357" IVar="5" NCoef="0" cType="1" depth="2" nType="0" pos="r" purity="0.0e+00" res="0.0e+00" rms="0.0e+00">
            <Node Cut="0.0351360589" IVar="0" NCoef="0" cType="1" depth="3" nType="0" pos="l" purity="0.0e+00" res="0.0e+00" rms="0.0e+00">
              <Node Cut="0.0e+00" IVar="-1" NCoef="0" cType="1" depth="4" nType="-99" pos="l" purity="0.0e+00" res="-0.0209009908" rms="0.0e+00"/>
              <Node Cut="0.0e+00" IVar="-1" NCoef="0" cType="1" depth="4" nType="-99" pos="r" purity="0.0e+00" res="0.0113652684" rms="0.0e+00"/>
            </Node>
            <Node Cut="0.0e+00" IVar="-1" NCoef="0" cType="1" depth="3" nType="-99" pos="r" purity="0.0e+00" res="-0.0470632464" rms="0.0e+00"/>
          </Node>
        </Node>
        <Node Cut="-0.889936566" IVar="6" NCoef="0" cType="1" depth="1" nType="0" pos="r" purity="0.0e+00" res="0.0e+00" rms="0.0e+00">
          <Node Cut="-0.240483195" IVar="2" NCoef="0" cType="1" depth="2" nType="0" pos="l" purity="0.0e+00" res="0.0e+00" rms="0.0e+00">
            <Node Cut="0.162068859" IVar="5" NCoef="0" cType="1" depth="3" nType="0" pos="l" purity="0.0e+00" res="0.0e+00" rms="0.0e+00">
              <Node Cut="-0.159181893" IVar="5" NCoef="0" cType="1" depth="4" nType="0" pos="l" purity="0.0e+00" res="0.0e+00" rms="0.0e+00">
                <Node Cut="0.0e+00" IVar="-1" NCoef="0" cType="1" depth="5" nType="-99" pos="l" purity="0.0e+00" res="-0.0213119239" rms="0.0e+00"/>
                <Node Cut="0.0e+00" IVar="-1" NCoef="0" cType="1" depth="5" nType="-99" pos="r" purity="0.0e+00" res="0.0311960075" rms="0.0e+00"/>
              </Node>
              <Node Cut="0.0e+00" IVar="-1" NCoef="0" cType="1" depth="4" nType="-99" pos="r" purity="0.0e+00" res="-0.0225845221" rms="0.0e+00"/>
            </Node>
            <Node Cut="-0.222858667" IVar="2" NCoef="0" cType="1" depth="3" nType="0" pos="r" purity="0.0e+00" res="0.0e+00" rms="0.0e+00">
              <Node Cut="-0.340461671" IVar="1" NCoef="0" cType="1" depth="4" nType="0" pos="l" purity="0.0e+00" res="0.0e+00" rms="0.0e+00">
                <Node Cut="0.0e+00" IVar="-1" NCoef="0" cType="1" depth="5" nType="-99" pos="l" purity="0.0e+00" res="-0.0218387861" rms="0.0e+00"/>
                <Node Cut="0.0e+00" IVar="-1" NCoef="0" cType="1" depth="5" nType="-99" pos="r" purity="0.0e+00" res="0.00562931877" rms="0.0e+00"/>
              </Node>
              <Node Cut="0.0e+00" IVar="-1" NCoef="0" cType="1" depth="4" nType="-99" pos="r" purity="0.0e+00" res="-0.0451992862" rms="0.0e+00"/>
            </Node>
          </Node>
          <Node Cut="-0.261218011" IVar="2" NCoef="0" cType="1" depth="2" nType="0" pos="r" purity="0.0e+00" res="0.0e+00" rms="0.0e+00">
            <Node Cut="-0.616654515" IVar="6" NCoef="0" cType="1" depth="3" nType="0" pos="l" purity="0.0e+00" res="0.0e+00" rms="0.0e+00">
              <Node Cut="0.0e+00" IVar="-1" NCoef="0" cType="1" depth="4" nType="-99" pos="l" purity="0.0e+00" res="0.00678489031" rms="0.0e+00"/>
              <Node Cut="-1.60590768" IVar="7" NCoef="0" cType="1" depth="4" nType="0" pos="r" purity="0.0e+00" res="0.0e+00" rms="0.0e+00">
                <Node Cut="0.0e+00" IVar="-1" NCoef="0" cType="1" depth="5" nType="-99" pos="l" purity="0.0e+00" res="0.000875080936" rms="0.0e+00"/>
                <Node Cut="0.0e+00" IVar="-1" NCoef="0" cType="1" depth="5" nType="-99" pos="r" purity="0.0e+00" res="-0.0365289673" rms="0.0e+00"/>
              </Node>
            </Node>
            <Node Cut="0.0e+00" IVar="-1" NCoef="0" cType="1" depth="3" nType="-99" pos="r" purity="0.0e+00" res="-0.0546384789" rms="0.0e+00"/>
          </Node>
        </Node>
      </Node>
    </BinaryTree>
    <BinaryTree boostWeight="1.0e+00" itree="3" type="DecisionTree">
      <Node Cut="-1.02904618" IVar="6" NCoef="0" cType="1" depth="0" nType="0" pos="s" purity="0.0e+00" res="0.0e+00" rms="0.0e+00">
        <Node Cut="0.365887761" IVar="5" NCoef="0" cType="1" depth="1" nType="0" pos="l" purity="0.0e+00" res="0.0e+00" rms="0.0e+00">
          <Node Cut="-0.338354945" IVar="5" NCoef="0" cType="1" depth="2" nType="0" pos="l" purity="0.0e+00" res="0.0e+00" rms="0.0e+00">
            <Node Cut="0.936957955" IVar="0" NCoef="0" cType="1" depth="3" nType="0" pos="l" purity="0.0e+00" res="0.0e+00" rms="0.0e+00">
              <Node Cut="-0.407687038" IVar="5" NCoef="0" cType="1" depth="4" nType="0" pos="l" purity="0.0e+00" res="0.0e+00" rms="0.0e+00">
                <Node Cut="0.0e+00" IVar="-1" NCoef="0" cType="1" depth="5" nType="-99" pos="l" purity="0.0e+00" res="-0.045845177" rms="0.0e+00"/>
                <Node Cut="-0.15219745" IVar="0" NCoef="0" cType="1" depth="5" nType="0" pos="r" purity="0.0e+00" res="0.0e+00" rms="0.0e+00">
                  <Node Cut="0.0e+00" IVar="-1" NCoef="0" cType="1" depth="6" nType="-99" pos="l" purity="0.0e+00" res="-0.0154967159" rms="0.0e+00"/>
                  <Node Cut="0.0e+00" IVar="-1" NCoef="0" cType="1" depth="6" nType="-99" pos="r" purity="0.0e+00" res="0.00778102735" rms="0.0e+00"/>
                </Node>
              </Node>
              <Node Cut="-0.786171198" IVar="5" NCoef="0" cType="1" depth="4" nType="0" pos="r" purity="0.0e+00" res="0.0e+00" rms="0.0e+00">
                <Node Cut="0.0e+00" IVar="-1" NCoef="0" cType="1" depth="5" nType="-99" pos="l" purity="0.0e+00" res="-0.0199701041" rms="0.0e+00"/>
                <Node Cut="0.0e+00" IVar="-1" NCoef="0" cType="1" depth="5" nType="-99" pos="r" purity="0.0e+00" res="0.0164574292" rms="0.0e+00"/>
              </Node>
            </Node>
            <Node Cut="0.265887678" IVar="5" NCoef="0" cType="1" depth="3" nType="0" pos="r" purity="0.0e+00" res="0.0e+00" rms="0.0e+00">
              <Node Cut="-0.221436381" IVar="5" NCoef="0" cType="1" depth="4" nType="0" pos="l" purity="0.0e+00" res="0.0e+00" rms="0.0e+00">
                <Node Cut="-0.487122655" IVar="0" NCoef="0" cType="1" depth="5" nType="0" pos="l" purity="0.0e+00" res="0.0e+00" rms="0.0e+00">
                  <Node Cut="0.0e+00" IVar="-1" NCoef="0" cType="1" depth="6" nType="-99" pos="l" purity="0.0e+00" res="-0.00880064815" rms="0.0e+00"/>
                  <Node Cut="0.0e+00" IVar="-1" NCoef="0" cType="1" depth="6" nType="-99" pos="r" purity="0.0e+00" res="0.0313610323" rms="0.0e+00"/>
                </Node>
                <Node Cut="-0.677584291" IVar="1" NCoef="0" cType="1" depth="5" nType="0" pos="r" purity="0.0e+00" res="0.0e+00" rms="0.0e+00">
                  <Node Cut="0.0e+00" IVar="-1" NCoef="0" cType="1" depth="6" nType="-99" pos="l" purity="0.0e+00" res="0.025652688" rms="0.0e+00"/>
                  <Node Cut="0.0e+00" IVar="-1" NCoef="0" cType="1" depth="6" nType="-99" pos="r" purity="0.0e+00" res="0.051305633" rms="0.0e+00"/>
                </Node>
              </Node>
              <Node Cut="-0.294622391" IVar="0" NCoef="0" cType="1" depth="4" nType="0" pos="r" purity="0.0e+00" res="0.0e+00" rms="0.0e+00">
                <Node Cut="0.0e+00" IVar="-1" NCoef="0" cType="1" depth="5" nType="-99" pos="l" purity="0.0e+00" res="-0.0143714137" rms="0.0e+00"/>
                <Node Cut="0.0e+00" IVar="-1" NCoef="0" cType="1" depth="5" nType="-99" pos="r" purity="0.0e+00" res="0.0269319601" rms="0.0e+00"/>
              </Node>
            </Node>
          </Node>
          <Node Cut="0.489391357" IVar="5" NCoef="0" cType="1" depth="2" nType="0" pos="r" purity="0.0e+00" res="0.0e+00" rms="0.0e+00">
            <Node Cut="0.0351360589" IVar="0" NCoef="0" cType="1" depth="3" nType="0" pos="l" purity="0.0e+00" res="0.0e+00" rms="0.0e+00">
              <Node Cut="0.0e+00" IVar="-1" NCoef="0" cType="1" depth="4" nType="-99" pos="l" purity="0.0e+00" res="-0.0222723335" rms="0.0e+00"/>
              <Node Cut="0.0e+00" IVar="-1" NCoef="0" cType="1" depth="4" nType="-99" pos="r" purity="0.0e+00" res="0.0168069862" rms="0.0e+00"/>
            </Node>
            <Node Cut="0.0e+00" IVar="-1" NCoef="0" cType="1" depth="3" nType="-99" pos="r" purity="0.0e+00" res="-0.0459191538" rms="0.0e+00"/>
          </Node>
        </Node>
        <Node Cut="-0.891863227" IVar="6" NCoef="0" cType="1" depth="1" nType="0" pos="r" purity="0.0e+00" res="0.0e+00" rms="0.0e+00">
          <Node Cut="0.24310568" IVar="5" NCoef="0" cType="1" depth="2" nType="0" pos="l" purity="0.0e+00" res="0.0e+00" rms="0.0e+00">
            <Node Cut="-0.20389992" IVar="5" NCoef="0" cType="1" depth="3" nType="0" pos="l" purity="0.0e+00" res="0.0e+00" rms="0.0e+00">
              <Node Cut="0.0e+00" IVar="-1" NCoef="0" cType="1" depth="4" nType="-99" pos="l" purity="0.0e+00" res="-0.0449154861" rms="0.0e+00"/>
              <Node Cut="0.162068859" IVar="5" NCoef="0" cType="1" depth="4" nType="0" pos="r" purity="0.0e+00" res="0.0e+00" rms="0.0e+00">
                <Node Cut="0.0e+00" IVar="-1" NCoef="0" cType="1" depth="5" nType="-99" pos="l" purity="0.0e+00" res="0.0321032964" rms="0.0e+00"/>
                <Node Cut="0.0e+00" IVar="-1" NCoef="0" cType="1" depth="5" nType="-99" pos="r" purity="0.0e+00" res="-0.000993167516" rms="0.0e+00"/>
              </Node>
            </Node>
            <Node Cut="0.0e+00" IVar="-1" NCoef="0" cType="1" depth="3" nType="-99" pos="r" purity="0.0e+00" res="-0.0455323309" rms="0.0e+00"/>
          </Node>
          <Node Cut="-0.660433888" IVar="6" NCoef="0" cType="1" depth="2" nType="0" pos="r" purity="0.0e+00" res="0.0e+00" rms="0.0e+00">
            <Node Cut="-0.653373241" IVar="1" NCoef="0" cType="1" depth="3" nType="0" pos="l" purity="0.0e+00" res="0.0e+00" rms="0.0e+00">
              <Node Cut="0.0e+00" IVar="-1" NCoef="0" cType="1" depth="4" nType="-99" pos="l" purity="0.0e+00" res="-0" rms="0.0e+00"/>
              <Node Cut="-0.751820207" IVar="7" NCoef="0" cType="1" depth="4" nType="0" pos="r" purity="0.0e+00" res="0.0e+00" rms="0.0e+00">
                <Node Cut="0.0e+00" IVar="-1" NCoef="0" cType="1" depth="5" nType="-99" pos="l" purity="0.0e+00" res="-0.00245264289" rms="0.0e+00"/>
                <Node Cut="0.719239831" IVar="7" NCoef="0" cType="1" depth="5" nType="0" pos="r" purity="0.0e+00" res="0.0e+00" rms="0.0e+00">
                  <Node Cut="0.0e+00" IVar="-1" NCoef="0" cType="1" depth="6" nType="-99" pos="l" purity="0.0e+00" res="-0.0446703769" rms="0.0e+00"/>
                  <Node Cut="0.0e+00" IVar="-1" NCoef="0" cType="1" depth="6" nType="-99" pos="r" purity="0.0e+00" res="-0.00887564663" rms="0.0e+00"/>
                </Node>
              </Node>
            </Node>
            <Node Cut="0.0e+00" IVar="-1" NCoef="0" cType="1" depth="3" nType="-99" pos="r" purity="0.0e+00" res="-0.0533498935" rms="0.0e+00"/>
          </Node>
        </Node>
      </Node>
    </BinaryTree>
    <BinaryTree boostWeight="1.0e+00" itree="4" type="DecisionTree">
      <Node Cut="-1.04095948" IVar="6" NCoef="0" cType="1" depth="0" nType="0" pos="s" purity="0.0e+00" res="0.0e+00" rms="0.0e+00">
        <Node Cut="0.365887761" IVar="5" NCoef="0" cType="1" depth="1" nType="0" pos="l" purity="0.0e+00" res="0.0e+00" rms="0.0e+00">
          <Node Cut="-0.338354945" IVar="5" NCoef="0" cType="1" depth="2" nType="0" pos="l" purity="0.0e+00" res="0.0e+00" rms="0.0e+00">
            <Node Cut="-0.520193636" IVar="5" NCoef="0" cType="1" depth="3" nType="0" pos="l" purity="0.0e+00" res="0.0e+00" rms="0.0e+00">
              <Node Cut="0.0e+00" IVar="-1" NCoef="0" cType="1" depth="4" nType="-99" pos="l" purity="0.0e+00" res="-0.0438954756" rms="0.0e+00"/>
              <Node Cut="-0.14891392" IVar="0" NCoef="0" cType="1" depth="4" nType="0" pos="r" purity="0.0e+00" res="0.0e+00" rms="0.0e+00">
                <Node Cut="0.0e+00" IVar="-1" NCoef="0" cType="1" depth="5" nType="-99" pos="l" purity="0.0e+00" res="-0.02716887" rms="0.0e+00"/>
                <Node Cut="0.0e+00" IVar="-1" NCoef="0" cType="1" depth="5" nType="-99" pos="r" purity="0.0e+00" res="0.0181754436" rms="0.0e+00"/>
              </Node>
            </Node>
            <Node Cut="0.27373454" IVar="5" NCoef="0" cType="1" depth="3" nType="0" pos="r" purity="0.0e+00" res="0.0e+00" rms="0.0e+00">
              <Node Cut="-0.263929248" IVar="5" NCoef="0" cType="1" depth="4" nType="0" pos="l" purity="0.0e+00" res="0.0e+00" rms="0.0e+00">
                <Node Cut="-0.434384435" IVar="0" NCoef="0" cType="1" depth="5" nType="0" pos="l" purity="0.0e+00" res="0.0e+00" rms="0.0e+00">
                  <Node Cut="0.0e+00" IVar="-1" NCoef="0" cType="1" depth="6" nType="-99" pos="l" purity="0.0e+00" res="-0.0114410529" rms="0.0e+00"/>
                  <Node Cut="0.0e+00" IVar="-1" NCoef="0" cType="1" depth="6" nType="-99" pos="r" purity="0.0e+00" res="0.0252686385" rms="0.0e+00"/>
                </Node>
                <Node Cut="0.0e+00" IVar="-1" NCoef="0" cType="1" depth="5" nType="-99" pos="r" purity="0.0e+00" res="0.0497236513" rms="0.0e+00"/>
              </Node>
              <Node Cut="-0.351387858" IVar="0" NCoef="0" cType="1" depth="4" nType="0" pos="r" purity="0.0e+00" res="0.0e+00" rms="0.0e+00">
                <Node Cut="0.0e+00" IVar="-1" NCoef="0" cType="1" depth="5" nType="-99" pos="l" purity="0.0e+00" res="-0.0147563675" rms="0.0e+00"/>
                <Node Cut="0.0e+00" IVar="-1" NCoef="0" cType="1" depth="5" nType="-99" pos="r" purity="0.0e+00" res="0.0254384968" rms="0.0e+00"/>
              </Node>
            </Node>
          </Node>
          <Node Cut="0.489391357" IVar="5" NCoef="0" cType="1" depth="2" nType="0" pos="r" purity="0.0e+00" res="0.0e+00" rms="0.0e+00">
            <Node Cut="-0.0715556964" IVar="0" NCoef="0" cType="1" depth="3" nType="0" pos="l" purity="0.0e+00" res="0.0e+00" rms="0.0e+00">
              <Node Cut="0.0e+00" IVar="-1" NCoef="0" cType="1" depth="4" nType="-99" pos="l" purity="0.0e+00" res="-0.0222023875" rms="0.0e+00"/>
              <Node Cut="0.0e+00" IVar="-1" NCoef="0" cType="1" depth="4" nType="-99" pos="r" purity="0.0e+00" res="0.0161438864" rms="0.0e+00"/>
            </Node>
            <Node Cut="0.0e+00" IVar="-1" NCoef="0" cType="1" depth="3" nType="-99" pos="r" purity="0.0e+00" res="-0.0445827805" rms="0.0e+00"/>
          </Node>
        </Node>
        <Node Cut="-0.934453249" IVar="6" NCoef="0" cType="1" depth="1" nType="0" pos="r" purity="0.0e+00" res="0.0e+00" rms="0.0e+00">
          <Node Cut="0.231751502" IVar="5" NCoef="0" cType="1" depth="2" nType="0" pos="l" purity="0.0e+00" res="0.0e+00" rms="0.0e+00">
            <Node Cut="-0.166929454" IVar="5" NCoef="0" cType="1" depth="3" nType="0" pos="l" purity="0.0e+00" res="0.0e+00" rms="0.0e+00">
              <Node Cut="0.0e+00" IVar="-1" NCoef="0" cType="1" depth="4" nType="-99" pos="l" purity="0.0e+00" res="-0.0401198342" rms="0.0e+00"/>
              <Node Cut="0.0e+00" IVar="-1" NCoef="0" cType="1" depth="4" nType="-99" pos="r" purity="0.0e+00" res="0.0329409577" rms="0.0e+00"/>
            </Node>
            <Node Cut="0.0e+00" IVar="-1" NCoef="0" cType="1" depth="3" nType="-99" pos="r" purity="0.0e+00" res="-0.0423602648" rms="0.0e+00"/>
          </Node>
          <Node Cut="-0.657168329" IVar="6" NCoef="0" cType="1" depth="2" nType="0" pos="r" purity="0.0e+00" res="0.0e+00" rms="0.0e+00">
            <Node Cut="-0.645068288" IVar="1" NCoef="0" cType="1" depth="3" nType="0" pos="l" purity="0.0e+00" res="0.0e+00" rms="0.0e+00">
              <Node Cut="0.0e+00" IVar="-1" NCoef="0" cType="1" depth="4" nType="-99" pos="l" purity="0.0e+00" res="-0.00167131633" rms="0.0e+00"/>
              <Node Cut="-0.733974099" IVar="4" NCoef="0" cType="1" depth="4" nType="0" pos="r" purity="0.0e+00" res="0.0e+00" rms="0.0e+00">
                <Node Cut="-0.353014737" IVar="1" NCoef="0" cType="1" depth="5" nType="0" pos="l" purity="0.0e+00" res="0.0e+00" rms="0.0e+00">
                  <Node Cut="-0.556991041" IVar="0" NCoef="0" cType="1" depth="6" nType="0" pos="l" purity="0.0e+00" res="0.0e+00" rms="0.0e+00">
                    <Node Cut="0.0e+00" IVar="-1" NCoef="0" cType="1" depth="7" nType="-99" pos="l" purity="0.0e+00" res="-0.00640384294" rms="0.0e+00"/>
                    <Node Cut="0.0e+00" IVar="-1" NCoef="0" cType="1" depth="7" nType="-99" pos="r" purity="0.0e+00" res="0.0200317726" rms="0.0e+00"/>
                  </Node>
                  <Node Cut="0.0e+00" IVar="-1" NCoef="0" cType="1" depth="6" nType="-99" pos="r" purity="0.0e+00" res="-0.0275009871" rms="0.0e+00"/>
                </Node>
                <Node Cut="1.27194118" IVar="4" NCoef="0" cType="1" depth="5" nType="0" pos="r" purity="0.0e+00" res="0.0e+00" rms="0.0e+00">
                  <Node Cut="0.0e+00" IVar="-1" NCoef="0" cType="1" depth="6" nType="-99" pos="l" purity="0.0e+00" res="-0.0460820198" rms="0.0e+00"/>
                  <Node Cut="-0.24905917" IVar="1" NCoef="0" cType="1" depth="6" nType="0" pos="r" purity="0.0e+00" res="0.0e+00" rms="0.0e+00">
                    <Node Cut="0.0e+00" IVar="-1" NCoef="0" cType="1" depth="7" nType="-99" pos="l" purity="0.0e+00" res="0.00809696969" rms="0.0e+00"/>
                    <Node Cut="0.0e+00" IVar="-1" NCoef="0" cType="1" depth="7" nType="-99" pos="r" purity="0.0e+00" res="-0.0275860112" rms="0.0e+00"/>
                  </Node>
                </Node>
              </Node>
            </Node>
            <Node Cut="0.0e+00" IVar="-1" NCoef="0" cType="1" depth="3" nType="-99" pos="r" purity="0.0e+00" res="-0.0520142019" rms="0.0e+00"/>
          </Node>
        </Node>
      </Node>
    </BinaryTree>
    <BinaryTree boostWeight="1.0e+00" itree="5" type="DecisionTree">
      <Node Cut="-0.24047184" IVar="2" NCoef="0" cType="1" depth="0" nType="0" pos="s" purity="0.0e+00" res="0.0e+00" rms="0.0e+00">
        <Node Cut="-0.184187666" IVar="5" NCoef="0" cType="1" depth="1" nType="0" pos="l" purity="0.0e+00" res="0.0e+00" rms="0.0e+00">
          <Node Cut="-0.00940553844" IVar="0" NCoef="0" cType="1" depth="2" nType="0" pos="l" purity="0.0e+00" res="0.0e+00" rms="0.0e+00">
            <Node Cut="-0.219125599" IVar="5" NCoef="0" cType="1" depth="3" nType="0" pos="l" purity="0.0e+00" res="0.0e+00" rms="0.0e+00">
              <Node Cut="0.0e+00" IVar="-1" NCoef="0" cType="1" depth="4" nType="-99" pos="l" purity="0.0e+00" res="-0.0472093709" rms="0.0e+00"/>
              <Node Cut="-0.198133111" IVar="0" NCoef="0" cType="1" depth="4" nType="0" pos="r" purity="0.0e+00" res="0.0e+00" rms="0.0e+00">
                <Node Cut="0.0e+00" IVar="-1" NCoef="0" cType="1" depth="5" nType="-99" pos="l" purity="0.0e+00" res="-0.0204142276" rms="0.0e+00"/>
                <Node Cut="0.0e+00" IVar="-1" NCoef="0" cType="1" depth="5" nType="-99" pos="r" purity="0.0e+00" res="0.00401005894" rms="0.0e+00"/>
              </Node>
            </Node>
            <Node Cut="-0.313926399" IVar="5" NCoef="0" cType="1" depth="3" nType="0" pos="r" purity="0.0e+00" res="0.0e+00" rms="0.0e+00">
              <Node Cut="0.0e+00" IVar="-1" NCoef="0" cType="1" depth="4" nType="-99" pos="l" purity="0.0e+00" res="-0.0176898651" rms="0.0e+00"/>
              <Node Cut="-0.354285806" IVar="7" NCoef="0" cType="1" depth="4" nType="0" pos="r" purity="0.0e+00" res="0.0e+00" rms="0.0e+00">
                <Node Cut="0.0e+00" IVar="-1" NCoef="0" cType="1" depth="5" nType="-99" pos="l" purity="0.0e+00" res="-0.00970963947" rms="0.0e+00"/>
                <Node Cut="0.343616724" IVar="7" NCoef="0" cType="1" depth="5" nType="0" pos="r" purity="0.0e+00" res="0.0e+00" rms="0.0e+00">
                  <Node Cut="0.0e+00" IVar="-1" NCoef="0" cType="1" depth="6" nType="-99" pos="l" purity="0.0e+00" res="0.0245504193" rms="0.0e+00"/>
                  <Node Cut="0.0e+00" IVar="-1" NCoef="0" cType="1" depth="6" nType="-99" pos="r" purity="0.0e+00" res="-0.00869041122" rms="0.0e+00"/>
                </Node>
              </Node>
            </Node>
          </Node>
          <Node Cut="0.180208623" IVar="5" NCoef="0" cType="1" depth="2" nType="0" pos="r" purity="0.0e+00" res="0.0e+00" rms="0.0e+00">
            <Node Cut="0.511805117" IVar="7" NCoef="0" cType="1" depth="3" nType="0" pos="l" purity="0.0e+00" res="0.0e+00" rms="0.0e+00">
              <Node Cut="-0.499210507" IVar="7" NCoef="0" cType="1" depth="4" nType="0" pos="l" purity="0.0e+00" res="0.0e+00" rms="0.0e+00">
                <Node Cut="-0.25620538" IVar="2" NCoef="0" cType="1" depth="5" nType="0" pos="l" purity="0.0e+00" res="0.0e+00" rms="0.0e+00">
                  <Node Cut="-0.476240039" IVar="4" NCoef="0" cType="1" depth="6" nType="0" pos="l" purity="0.0e+00" res="0.0e+00" rms="0.0e+00">
                    <Node Cut="0.0e+00" IVar="-1" NCoef="0" cType="1" depth="7" nType="-99" pos="l" purity="0.0e+00" res="0.00645644451" rms="0.0e+00"/>
                    <Node Cut="0.456886351" IVar="4" NCoef="0" cType="1" depth="7" nType="0" pos="r" purity="0.0e+00" res="0.0e+00" rms="0.0e+00">
                      <Node Cut="0.0e+00" IVar="-1" NCoef="0" cType="1" depth="8" nType="-99" pos="l" purity="0.0e+00" res="-0.0286962688" rms="0.0e+00"/>
                      <Node Cut="0.0e+00" IVar="-1" NCoef="0" cType="1" depth="8" nType="-99" pos="r" purity="0.0e+00" res="0.0017367166" rms="0.0e+00"/>
                    </Node>
                  </Node>
                  <Node Cut="-0.568180621" IVar="0" NCoef="0" cType="1" depth="6" nType="0" pos="r" purity="0.0e+00" res="0.0e+00" rms="0.0e+00">
                    <Node Cut="0.0e+00" IVar="-1" NCoef="0" cType="1" depth="7" nType="-99" pos="l" purity="0.0e+00" res="-0.00731235789" rms="0.0e+00"/>
                    <Node Cut="-0.425105065" IVar="0" NCoef="0" cType="1" depth="7" nType="0" pos="r" purity="0.0e+00" res="0.0e+00" rms="0.0e+00">
                      <Node Cut="0.0e+00" IVar="-1" NCoef="0" cType="1" depth="8" nType="-99" pos="l" purity="0.0e+00" res="0.0290548019" rms="0.0e+00"/>
                      <Node Cut="0.0e+00" IVar="-1" NCoef="0" cType="1" depth="8" nType="-99" pos="r" purity="0.0e+00" res="-0.000974105205" rms="0.0e+00"/>
                    </Node>
                  </Node>
                </Node>
                <Node Cut="-0.673083425" IVar="1" NCoef="0" cType="1" depth="5" nType="0" pos="r" purity="0.0e+00" res="0.0e+00" rms="0.0e+00">
                  <Node Cut="0.296469748" IVar="7" NCoef="0" cType="1" depth="6" nType="0" pos="l" purity="0.0e+00" res="0.0e+00" rms="0.0e+00">
                    <Node Cut="-0.290837228" IVar="7" NCoef="0" cType="1" depth="7" nType="0" pos="l" purity="0.0e+00" res="0.0e+00" rms="0.0e+00">
                      <Node Cut="0.0e+00" IVar="-1" NCoef="0" cType="1" depth="8" nType="-99" pos="l" purity="0.0e+00" res="-0.00157027401" rms="0.0e+00"/>
                      <Node Cut="0.0e+00" IVar="-1" NCoef="0" cType="1" depth="8" nType="-99" pos="r" purity="0.0e+00" res="0.0323489904" rms="0.0e+00"/>
                    </Node>
                    <Node Cut="0.0e+00" IVar="-1" NCoef="0" cType="1" depth="7" nType="-99" pos="r" purity="0.0e+00" res="-0.00479141343" rms="0.0e+00"/>
                  </Node>
                  <Node Cut="0.420333803" IVar="7" NCoef="0" cType="1" depth="6" nType="0" pos="r" purity="0.0e+00" res="0.0e+00" rms="0.0e+00">
                    <Node Cut="0.0e+00" IVar="-1" NCoef="0" cType="1" depth="7" nType="-99" pos="l" purity="0.0e+00" res="0.0474792905" rms="0.0e+00"/>
                    <Node Cut="0.0e+00" IVar="-1" NCoef="0" cType="1" depth="7" nType="-99" pos="r" purity="0.0e+00" res="0.0169589799" rms="0.0e+00"/>
                  </Node>
                </Node>
              </Node>
              <Node Cut="-0.255213857" IVar="2" NCoef="0" cType="1" depth="4" nType="0" pos="r" purity="0.0e+00" res="0.0e+00" rms="0.0e+00">
                <Node Cut="-0.430747449" IVar="4" NCoef="0" cType="1" depth="5" nType="0" pos="l" purity="0.0e+00" res="0.0e+00" rms="0.0e+00">
                  <Node Cut="0.0e+00" IVar="-1" NCoef="0" cType="1" depth="6" nType="-99" pos="l" purity="0.0e+00" res="0.000845561794" rms="0.0e+00"/>
                  <Node Cut="0.436891377" IVar="4" NCoef="0" cType="1" depth="6" nType="0" pos="r" purity="0.0e+00" res="0.0e+00" rms="0.0e+00">
                    <Node Cut="0.0e+00" IVar="-1" NCoef="0" cType="1" depth="7" nType="-99" pos="l" purity="0.0e+00" res="-0.0329583101" rms="0.0e+00"/>
                    <Node Cut="0.0e+00" IVar="-1" NCoef="0" cType="1" depth="7" nType="-99" pos="r" purity="0.0e+00" res="-0.000882755558" rms="0.0e+00"/>
                  </Node>
                </Node>
                <Node Cut="0.0e+00" IVar="-1" NCoef="0" cType="1" depth="5" nType="-99" pos="r" purity="0.0e+00" res="0.0110000502" rms="0.0e+00"/>
              </Node>
            </Node>
            <Node Cut="-0.0111615434" IVar="0" NCoef="0" cType="1" depth="3" nType="0" pos="r" purity="0.0e+00" res="0.0e+00" rms="0.0e+00">
              <Node Cut="0.223312706" IVar="5" NCoef="0" cType="1" depth="4" nType="0" pos="l" purity="0.0e+00" res="0.0e+00" rms="0.0e+00">
                <Node Cut="0.477842271" IVar="4" NCoef="0" cType="1" depth="5" nType="0" pos="l" purity="0.0e+00" res="0.0e+00" rms="0.0e+00">
                  <Node Cut="-0.479083061" IVar="4" NCoef="0" cType="1" depth="6" nType="0" pos="l" purity="0.0e+00" res="0.0e+00" rms="0.0e+00">
                    <Node Cut="0.0e+00" IVar="-1" NCoef="0" cType="1" depth="7" nType="-99" pos="l" purity="0.0e+00" res="0.00182667642" rms="0.0e+00"/>
                    <Node Cut="0.0e+00" IVar="-1" NCoef="0" cType="1" depth="7" nType="-99" pos="r" purity="0.0e+00" res="-0.0268113222" rms="0.0e+00"/>
                  </Node>
                  <Node Cut="0.0e+00" IVar="-1" NCoef="0" cType="1" depth="6" nType="-99" pos="r" purity="0.0e+00" res="0.0071614231" rms="0.0e+00"/>
                </Node>
                <Node Cut="0.0e+00" IVar="-1" NCoef="0" cType="1" depth="5" nType="-99" pos="r" purity="0.0e+00" res="-0.047377754" rms="0.0e+00"/>
              </Node>
              <Node Cut="0.314967513" IVar="5" NCoef="0" cType="1" depth="4" nType="0" pos="r" purity="0.0e+00" res="0.0e+00" rms="0.0e+00">
                <Node Cut="0.34513548" IVar="7" NCoef="0" cType="1" depth="5" nType="0" pos="l" purity="0.0e+00" res="0.0e+00" rms="0.0e+00">
                  <Node Cut="-0.419537246" IVar="7" NCoef="0" cType="1" depth="6" nType="0" pos="l" purity="0.0e+00" res="0.0e+00" rms="0.0e+00">
                    <Node Cut="0.0e+00" IVar="-1" NCoef="0" cType="1" depth="7" nType="-99" pos="l" purity="0.0e+00" res="-0.00810075086" rms="0.0e+00"/>
                    <Node Cut="0.0e+00" IVar="-1" NCoef="0" cType="1" depth="7" nType="-99" pos="r" purity="0.0e+00" res="0.0261043776" rms="0.0e+00"/>
                  </Node>
                  <Node Cut="0.0e+00" IVar="-1" NCoef="0" cType="1" depth="6" nType="-99" pos="r" purity="0.0e+00" res="-0.00912384223" rms="0.0e+00"/>
                </Node>
                <Node Cut="0.0e+00" IVar="-1" NCoef="0" cType="1" depth="5" nType="-99" pos="r" purity="0.0e+00" res="-0.0167461336" rms="0.0e+00"/>
              </Node>
            </Node>
          </Node>
        </Node>
        <Node Cut="-0.218943268" IVar="2" NCoef="0" cType="1" depth="1" nType="0" pos="r" purity="0.0e+00" res="0.0e+00" rms="0.0e+00">
          <Node Cut="-1.27308488" IVar="4" NCoef="0" cType="1" depth="2" nType="0" pos="l" purity="0.0e+00" res="0.0e+00" rms="0.0e+00">
            <Node Cut="-0.569109023" IVar="0" NCoef="0" cType="1" depth="3" nType="0" pos="l" purity="0.0e+00" res="0.0e+00" rms="0.0e+00">
              <Node Cut="0.0e+00" IVar="-1" NCoef="0" cType="1" depth="4" nType="-99" pos="l" purity="0.0e+00" res="-0.00219931826" rms="0.0e+00"/>
              <Node Cut="0.828074336" IVar="7" NCoef="0" cType="1" depth="4" nType="0" pos="r" purity="0.0e+00" res="0.0e+00" rms="0.0e+00">
                <Node Cut="-0.848982394" IVar="7" NCoef="0" cType="1" depth="5" nType="0" pos="l" purity="0.0e+00" res="0.0e+00" rms="0.0e+00">
                  <Node Cut="0.0e+00" IVar="-1" NCoef="0" cType="1" depth="6" nType="-99" pos="l" purity="0.0e+00" res="-0.000285326678" rms="0.0e+00"/>
                  <Node Cut="0.0e+00" IVar="-1" NCoef="0" cType="1" depth="6" nType="-99" pos="r" purity="0.0e+00" res="0.0467364378" rms="0.0e+00"/>
                </Node>
                <Node Cut="0.0e+00" IVar="-1" NCoef="0" cType="1" depth="5" nType="-99" pos="r" purity="0.0e+00" res="-0.000912280113" rms="0.0e+00"/>
              </Node>
            </Node>
            <Node Cut="1.65090108" IVar="4" NCoef="0" cType="1" depth="3" nType="0" pos="r" purity="0.0e+00" res="0.0e+00" rms="0.0e+00">
              <Node Cut="0.464074463" IVar="1" NCoef="0" cType="1" depth="4" nType="0" pos="l" purity="0.0e+00" res="0.0e+00" rms="0.0e+00">
                <Node Cut="0.0e+00" IVar="-1" NCoef="0" cType="1" depth="5" nType="-99" pos="l" purity="0.0e+00" res="-0.0508521907" rms="0.0e+00"/>
                <Node Cut="0.0e+00" IVar="-1" NCoef="0" cType="1" depth="5" nType="-99" pos="r" purity="0.0e+00" res="0.00551522151" rms="0.0e+00"/>
              </Node>
              <Node Cut="-0.572465181" IVar="0" NCoef="0" cType="1" depth="4" nType="0" pos="r" purity="0.0e+00" res="0.0e+00" rms="0.0e+00">
                <Node Cut="0.0e+00" IVar="-1" NCoef="0" cType="1" depth="5" nType="-99" pos="l" purity="0.0e+00" res="-0.00336007075" rms="0.0e+00"/>
                <Node Cut="-0.513664246" IVar="7" NCoef="0" cType="1" depth="5" nType="0" pos="r" purity="0.0e+00" res="0.0e+00" rms="0.0e+00">
                  <Node Cut="0.0e+00" IVar="-1" NCoef="0" cType="1" depth="6" nType="-99" pos="l" purity="0.0e+00" res="0.000465771795" rms="0.0e+00"/>
                  <Node Cut="0.483543396" IVar="7" NCoef="0" cType="1" depth="6" nType="0" pos="r" purity="0.0e+00" res="0.0e+00" rms="0.0e+00">
                    <Node Cut="0.0e+00" IVar="-1" NCoef="0" cType="1" depth="7" nType="-99" pos="l" purity="0.0e+00" res="0.0465969555" rms="0.0e+00"/>
                    <Node Cut="0.0e+00" IVar="-1" NCoef="0" cType="1" depth="7" nType="-99" pos="r" purity="0.0e+00" res="0.000620844541" rms="0.0e+00"/>
                  </Node>
                </Node>
              </Node>
            </Node>
          </Node>
          <Node Cut="-1.59678781" IVar="4" NCoef="0" cType="1" depth="2" nType="0" pos="r" purity="0.0e+00" res="0.0e+00" rms="0.0e+00">
            <Node Cut="-0.13905023" IVar="2" NCoef="0" cType="1" depth="3" nType="0" pos="l" purity="0.0e+00" res="0.0e+00" rms="0.0e+00">
              <Node Cut="-0.529172659" IVar="0" NCoef="0" cType="1" depth="4" nType="0" pos="l" purity="0.0e+00" res="0.0e+00" rms="0.0e+00">
                <Node Cut="0.0e+00" IVar="-1" NCoef="0" cType="1" depth="5" nType="-99" pos="l" purity="0.0e+00" res="-0.0130999386" rms="0.0e+00"/>
                <Node Cut="0.412576169" IVar="7" NCoef="0" cType="1" depth="5" nType="0" pos="r" purity="0.0e+00" res="0.0e+00" rms="0.0e+00">
                  <Node Cut="-0.462560445" IVar="7" NCoef="0" cType="1" depth="6" nType="0" pos="l" purity="0.0e+00" res="0.0e+00" rms="0.0e+00">
                    <Node Cut="0.0e+00" IVar="-1" NCoef="0" cType="1" depth="7" nType="-99" pos="l" purity="0.0e+00" res="-0.00931232702" rms="0.0e+00"/>
                    <Node Cut="0.0e+00" IVar="-1" NCoef="0" cType="1" depth="7" nType="-99" pos="r" purity="0.0e+00" res="0.0364738926" rms="0.0e+00"/>
                  </Node>
                  <Node Cut="0.0e+00" IVar="-1" NCoef="0" cType="1" depth="6" nType="-99" pos="r" purity="0.0e+00" res="-0.011189606" rms="0.0e+00"/>
                </Node>
              </Node>
              <Node Cut="-0.119559079" IVar="2" NCoef="0" cType="1" depth="4" nType="0" pos="r" purity="0.0e+00" res="0.0e+00" rms="0.0e+00">
                <Node Cut="0.0e+00" IVar="-1" NCoef="0" cType="1" depth="5" nType="-99" pos="l" purity="0.0e+00" res="-0.00653282506" rms="0.0e+00"/>
                <Node Cut="0.0e+00" IVar="-1" NCoef="0" cType="1" depth="5" nType="-99" pos="r" purity="0.0e+00" res="-0.0481444262" rms="0.0e+00"/>
              </Node>
            </Node>
            <Node Cut="1.66352749" IVar="4" NCoef="0" cType="1" depth="3" nType="0" pos="r" purity="0.0e+00" res="0.0e+00" rms="0.0e+00">
              <Node Cut="0.0e+00" IVar="-1" NCoef="0" cType="1" depth="4" nType="-99" pos="l" purity="0.0e+00" res="-0.052304972" rms="0.0e+00"/>
              <Node Cut="-0.137362033" IVar="2" NCoef="0" cType="1" depth="4" nType="0" pos="r" purity="0.0e+00" res="0.0e+00" rms="0.0e+00">
                <Node Cut="-0.550970554" IVar="0" NCoef="0" cType="1" depth="5" nType="0" pos="l" purity="0.0e+00" res="0.0e+00" rms="0.0e+00">
                  <Node Cut="0.0e+00" IVar="-1" NCoef="0" cType="1" depth="6" nType="-99" pos="l" purity="0.0e+00" res="-0.0202994682" rms="0.0e+00"/>
                  <Node Cut="0.430427611" IVar="7" NCoef="0" cType="1" depth="6" nType="0" pos="r" purity="0.0e+00" res="0.0e+00" rms="0.0e+00">
                    <Node Cut="-0.602580965" IVar="7" NCoef="0" cType="1" depth="7" nType="0" pos="l" purity="0.0e+00" res="0.0e+00" rms="0.0e+00">
                      <Node Cut="0.0e+00" IVar="-1" NCoef="0" cType="1" depth="8" nType="-99" pos="l" purity="0.0e+00" res="-0.012506498" rms="0.0e+00"/>
                      <Node Cut="-0.337494612" IVar="5" NCoef="0" cType="1" depth="8" nType="0" pos="r" purity="0.0e+00" res="0.0e+00" rms="0.0e+00">
                        <Node Cut="0.0e+00" IVar="-1" NCoef="0" cType="1" depth="9" nType="-99" pos="l" purity="0.0e+00" res="-0.00248377118" rms="0.0e+00"/>
                        <Node Cut="0.27940625" IVar="5" NCoef="0" cType="1" depth="9" nType="0" pos="r" purity="0.0e+00" res="0.0e+00" rms="0.0e+00">
                          <Node Cut="0.0e+00" IVar="-1" NCoef="0" cType="1" depth="10" nType="-99" pos="l" purity="0.0e+00" res="0.0381051823" rms="0.0e+00"/>
                          <Node Cut="0.0e+00" IVar="-1" NCoef="0" cType="1" depth="10" nType="-99" pos="r" purity="0.0e+00" res="-0.000527843949" rms="0.0e+00"/>
                        </Node>
                      </Node>
                    </Node>
                    <Node Cut="0.0e+00" IVar="-1" NCoef="0" cType="1" depth="7" nType="-99" pos="r" purity="0.0e+00" res="-0.011014347" rms="0.0e+00"/>
                  </Node>
                </Node>
                <Node Cut="0.0e+00" IVar="-1" NCoef="0" cType="1" depth="5" nType="-99" pos="r" purity="0.0e+00" res="-0.0481175333" rms="0.0e+00"/>
              </Node>
            </Node>
          </Node>
        </Node>
      </Node>
    </BinaryTree>
    <BinaryTree boostWeight="1.0e+00" itree="6" type="DecisionTree">
      <Node Cut="-1.04311216" IVar="6" NCoef="0" cType="1" depth="0" nType="0" pos="s" purity="0.0e+00" res="0.0e+00" rms="0.0e+00">
        <Node Cut="0.415911585" IVar="5" NCoef="0" cType="1" depth="1" nType="0" pos="l" purity="0.0e+00" res="0.0e+00" rms="0.0e+00">
          <Node Cut="-0.338354945" IVar="5" NCoef="0" cType="1" depth="2" nType="0" pos="l" purity="0.0e+00" res="0.0e+00" rms="0.0e+00">
            <Node Cut="-0.520193636" IVar="5" NCoef="0" cType="1" depth="3" nType="0" pos="l" purity="0.0e+00" res="0.0e+00" rms="0.0e+00">
              <Node Cut="0.0e+00" IVar="-1" NCoef="0" cType="1" depth="4" nType="-99" pos="l" purity="0.0e+00" res="-0.0414319113" rms="0.0e+00"/>
              <Node Cut="-0.185417339" IVar="0" NCoef="0" cType="1" depth="4" nType="0" pos="r" purity="0.0e+00" res="0.0e+00" rms="0.0e+00">
                <Node Cut="0.0e+00" IVar="-1" NCoef="0" cType="1" depth="5" nType="-99" pos="l" purity="0.0e+00" res="-0.0260305144" rms="0.0e+00"/>
                <Node Cut="0.0e+00" IVar="-1" NCoef="0" cType="1" depth="5" nType="-99" pos="r" purity="0.0e+00" res="0.0179903563" rms="0.0e+00"/>
              </Node>
            </Node>
            <Node Cut="0.271253228" IVar="5" NCoef="0" cType="1" depth="3" nType="0" pos="r" purity="0.0e+00" res="0.0e+00" rms="0.0e+00">
              <Node Cut="-0.283846915" IVar="5" NCoef="0" cType="1" depth="4" nType="0" pos="l" purity="0.0e+00" res="0.0e+00" rms="0.0e+00">
                <Node Cut="-0.322232544" IVar="0" NCoef="0" cType="1" depth="5" nType="0" pos="l" purity="0.0e+00" res="0.0e+00" rms="0.0e+00">
                  <Node Cut="0.0e+00" IVar="-1" NCoef="0" cType="1" depth="6" nType="-99" pos="l" purity="0.0e+00" res="-0.00866000727" rms="0.0e+00"/>
                  <Node Cut="0.0e+00" IVar="-1" NCoef="0" cType="1" depth="6" nType="-99" pos="r" purity="0.0e+00" res="0.0200621709" rms="0.0e+00"/>
                </Node>
                <Node Cut="-0.594997466" IVar="0" NCoef="0" cType="1" depth="5" nType="0" pos="r" purity="0.0e+00" res="0.0e+00" rms="0.0e+00">
                  <Node Cut="0.0e+00" IVar="-1" NCoef="0" cType="1" depth="6" nType="-99" pos="l" purity="0.0e+00" res="0.0074089868" rms="0.0e+00"/>
                  <Node Cut="0.0e+00" IVar="-1" NCoef="0" cType="1" depth="6" nType="-99" pos="r" purity="0.0e+00" res="0.0475140959" rms="0.0e+00"/>
                </Node>
              </Node>
              <Node Cut="-0.293408871" IVar="0" NCoef="0" cType="1" depth="4" nType="0" pos="r" purity="0.0e+00" res="0.0e+00" rms="0.0e+00">
                <Node Cut="0.0e+00" IVar="-1" NCoef="0" cType="1" depth="5" nType="-99" pos="l" purity="0.0e+00" res="-0.0197030809" rms="0.0e+00"/>
                <Node Cut="0.0e+00" IVar="-1" NCoef="0" cType="1" depth="5" nType="-99" pos="r" purity="0.0e+00" res="0.0267541185" rms="0.0e+00"/>
              </Node>
            </Node>
          </Node>
          <Node Cut="2.61498427" IVar="0" NCoef="0" cType="1" depth="2" nType="0" pos="r" purity="0.0e+00" res="0.0e+00" rms="0.0e+00">
            <Node Cut="0.0e+00" IVar="-1" NCoef="0" cType="1" depth="3" nType="-99" pos="l" purity="0.0e+00" res="-0.0420780182" rms="0.0e+00"/>
            <Node Cut="0.0e+00" IVar="-1" NCoef="0" cType="1" depth="3" nType="-99" pos="r" purity="0.0e+00" res="-0.0014658242" rms="0.0e+00"/>
          </Node>
        </Node>
        <Node Cut="-0.889936566" IVar="6" NCoef="0" cType="1" depth="1" nType="0" pos="r" purity="0.0e+00" res="0.0e+00" rms="0.0e+00">
          <Node Cut="-0.240483195" IVar="2" NCoef="0" cType="1" depth="2" nType="0" pos="l" purity="0.0e+00" res="0.0e+00" rms="0.0e+00">
            <Node Cut="0.176479429" IVar="5" NCoef="0" cType="1" depth="3" nType="0" pos="l" purity="0.0e+00" res="0.0e+00" rms="0.0e+00">
              <Node Cut="-0.159181893" IVar="5" NCoef="0" cType="1" depth="4" nType="0" pos="l" purity="0.0e+00" res="0.0e+00" rms="0.0e+00">
                <Node Cut="0.0e+00" IVar="-1" NCoef="0" cType="1" depth="5" nType="-99" pos="l" purity="0.0e+00" res="-0.02158577" rms="0.0e+00"/>
                <Node Cut="-0.674481869" IVar="1" NCoef="0" cType="1" depth="5" nType="0" pos="r" purity="0.0e+00" res="0.0e+00" rms="0.0e+00">
                  <Node Cut="0.0e+00" IVar="-1" NCoef="0" cType="1" depth="6" nType="-99" pos="l" purity="0.0e+00" res="-0.00342427357" rms="0.0e+00"/>
                  <Node Cut="0.0e+00" IVar="-1" NCoef="0" cType="1" depth="6" nType="-99" pos="r" purity="0.0e+00" res="0.0319685414" rms="0.0e+00"/>
                </Node>
              </Node>
              <Node Cut="0.0e+00" IVar="-1" NCoef="0" cType="1" depth="4" nType="-99" pos="r" purity="0.0e+00" res="-0.0230573639" rms="0.0e+00"/>
            </Node>
            <Node Cut="-1.59584761" IVar="4" NCoef="0" cType="1" depth="3" nType="0" pos="r" purity="0.0e+00" res="0.0e+00" rms="0.0e+00">
              <Node Cut="-0.176059186" IVar="2" NCoef="0" cType="1" depth="4" nType="0" pos="l" purity="0.0e+00" res="0.0e+00" rms="0.0e+00">
                <Node Cut="0.0e+00" IVar="-1" NCoef="0" cType="1" depth="5" nType="-99" pos="l" purity="0.0e+00" res="0.0152311772" rms="0.0e+00"/>
                <Node Cut="0.0e+00" IVar="-1" NCoef="0" cType="1" depth="5" nType="-99" pos="r" purity="0.0e+00" res="-0.023254944" rms="0.0e+00"/>
              </Node>
              <Node Cut="1.68084979" IVar="4" NCoef="0" cType="1" depth="4" nType="0" pos="r" purity="0.0e+00" res="0.0e+00" rms="0.0e+00">
                <Node Cut="0.0e+00" IVar="-1" NCoef="0" cType="1" depth="5" nType="-99" pos="l" purity="0.0e+00" res="-0.0456410125" rms="0.0e+00"/>
                <Node Cut="-0.162785262" IVar="2" NCoef="0" cType="1" depth="5" nType="0" pos="r" purity="0.0e+00" res="0.0e+00" rms="0.0e+00">
                  <Node Cut="0.0e+00" IVar="-1" NCoef="0" cType="1" depth="6" nType="-99" pos="l" purity="0.0e+00" res="0.0138437869" rms="0.0e+00"/>
                  <Node Cut="0.0e+00" IVar="-1" NCoef="0" cType="1" depth="6" nType="-99" pos="r" purity="0.0e+00" res="-0.023283964" rms="0.0e+00"/>
                </Node>
              </Node>
            </Node>
          </Node>
          <Node Cut="-0.260320812" IVar="2" NCoef="0" cType="1" depth="2" nType="0" pos="r" purity="0.0e+00" res="0.0e+00" rms="0.0e+00">
            <Node Cut="-0.616654515" IVar="6" NCoef="0" cType="1" depth="3" nType="0" pos="l" purity="0.0e+00" res="0.0e+00" rms="0.0e+00">
              <Node Cut="0.0e+00" IVar="-1" NCoef="0" cType="1" depth="4" nType="-99" pos="l" purity="0.0e+00" res="0.00629031193" rms="0.0e+00"/>
              <Node Cut="-0.474311054" IVar="4" NCoef="0" cType="1" depth="4" nType="0" pos="r" purity="0.0e+00" res="0.0e+00" rms="0.0e+00">
                <Node Cut="0.0e+00" IVar="-1" NCoef="0" cType="1" depth="5" nType="-99" pos="l" purity="0.0e+00" res="-0.00125611201" rms="0.0e+00"/>
                <Node Cut="0.508525252" IVar="4" NCoef="0" cType="1" depth="5" nType="0" pos="r" purity="0.0e+00" res="0.0e+00" rms="0.0e+00">
                  <Node Cut="0.0e+00" IVar="-1" NCoef="0" cType="1" depth="6" nType="-99" pos="l" purity="0.0e+00" res="-0.0401463099" rms="0.0e+00"/>
                  <Node Cut="0.0e+00" IVar="-1" NCoef="0" cType="1" depth="6" nType="-99" pos="r" purity="0.0e+00" res="-0.0049182903" rms="0.0e+00"/>
                </Node>
              </Node>
            </Node>
            <Node Cut="0.0e+00" IVar="-1" NCoef="0" cType="1" depth="3" nType="-99" pos="r" purity="0.0e+00" res="-0.0497951172" rms="0.0e+00"/>
          </Node>
        </Node>
      </Node>
    </BinaryTree>
    <BinaryTree boostWeight="1.0e+00" itree="7" type="DecisionTree">
      <Node Cut="-1.0266552" IVar="6" NCoef="0" cType="1" depth="0" nType="0" pos="s" purity="0.0e+00" res="0.0e+00" rms="0.0e+00">
        <Node Cut="0.360887259" IVar="5" NCoef="0" cType="1" depth="1" nType="0" pos="l" purity="0.0e+00" res="0.0e+00" rms="0.0e+00">
          <Node Cut="-0.338354945" IVar="5" NCoef="0" cType="1" depth="2" nType="0" pos="l" purity="0.0e+00" res="0.0e+00" rms="0.0e+00">
            <Node Cut="0.964097261" IVar="0" NCoef="0" cType="1" depth="3" nType="0" pos="l" purity="0.0e+00" res="0.0e+00" rms="0.0e+00">
              <Node Cut="-0.387800276" IVar="5" NCoef="0" cType="1" depth="4" nType="0" pos="l" purity="0.0e+00" res="0.0e+00" rms="0.0e+00">
                <Node Cut="0.0e+00" IVar="-1" NCoef="0" cType="1" depth="5" nType="-99" pos="l" purity="0.0e+00" res="-0.0418230779" rms="0.0e+00"/>
                <Node Cut="0.0e+00" IVar="-1" NCoef="0" cType="1" depth="5" nType="-99" pos="r" purity="0.0e+00" res="-0.00481237099" rms="0.0e+00"/>
              </Node>
              <Node Cut="-0.818395019" IVar="5" NCoef="0" cType="1" depth="4" nType="0" pos="r" purity="0.0e+00" res="0.0e+00" rms="0.0e+00">
                <Node Cut="0.0e+00" IVar="-1" NCoef="0" cType="1" depth="5" nType="-99" pos="l" purity="0.0e+00" res="-0.0195856057" rms="0.0e+00"/>
                <Node Cut="0.0e+00" IVar="-1" NCoef="0" cType="1" depth="5" nType="-99" pos="r" purity="0.0e+00" res="0.0165346153" rms="0.0e+00"/>
              </Node>
            </Node>
            <Node Cut="0.265887678" IVar="5" NCoef="0" cType="1" depth="3" nType="0" pos="r" purity="0.0e+00" res="0.0e+00" rms="0.0e+00">
              <Node Cut="-0.234362245" IVar="5" NCoef="0" cType="1" depth="4" nType="0" pos="l" purity="0.0e+00" res="0.0e+00" rms="0.0e+00">
                <Node Cut="-0.48010385" IVar="0" NCoef="0" cType="1" depth="5" nType="0" pos="l" purity="0.0e+00" res="0.0e+00" rms="0.0e+00">
                  <Node Cut="0.0e+00" IVar="-1" NCoef="0" cType="1" depth="6" nType="-99" pos="l" purity="0.0e+00" res="-0.0104214353" rms="0.0e+00"/>
                  <Node Cut="0.0e+00" IVar="-1" NCoef="0" cType="1" depth="6" nType="-99" pos="r" purity="0.0e+00" res="0.0283736475" rms="0.0e+00"/>
                </Node>
                <Node Cut="-0.677584291" IVar="1" NCoef="0" cType="1" depth="5" nType="0" pos="r" purity="0.0e+00" res="0.0e+00" rms="0.0e+00">
                  <Node Cut="0.0e+00" IVar="-1" NCoef="0" cType="1" depth="6" nType="-99" pos="l" purity="0.0e+00" res="0.0227350015" rms="0.0e+00"/>
                  <Node Cut="0.0e+00" IVar="-1" NCoef="0" cType="1" depth="6" nType="-99" pos="r" purity="0.0e+00" res="0.0466706753" rms="0.0e+00"/>
                </Node>
              </Node>
              <Node Cut="-0.294622391" IVar="0" NCoef="0" cType="1" depth="4" nType="0" pos="r" purity="0.0e+00" res="0.0e+00" rms="0.0e+00">
                <Node Cut="0.0e+00" IVar="-1" NCoef="0" cType="1" depth="5" nType="-99" pos="l" purity="0.0e+00" res="-0.0127828633" rms="0.0e+00"/>
                <Node Cut="0.0e+00" IVar="-1" NCoef="0" cType="1" depth="5" nType="-99" pos="r" purity="0.0e+00" res="0.0254168902" rms="0.0e+00"/>
              </Node>
            </Node>
          </Node>
          <Node Cut="0.489391357" IVar="5" NCoef="0" cType="1" depth="2" nType="0" pos="r" purity="0.0e+00" res="0.0e+00" rms="0.0e+00">
            <Node Cut="0.0351360589" IVar="0" NCoef="0" cType="1" depth="3" nType="0" pos="l" purity="0.0e+00" res="0.0e+00" rms="0.0e+00">
              <Node Cut="0.0e+00" IVar="-1" NCoef="0" cType="1" depth="4" nType="-99" pos="l" purity="0.0e+00" res="-0.021388663" rms="0.0e+00"/>
              <Node Cut="0.0e+00" IVar="-1" NCoef="0" cType="1" depth="4" nType="-99" pos="r" purity="0.0e+00" res="0.0164427087" rms="0.0e+00"/>
            </Node>
            <Node Cut="0.0e+00" IVar="-1" NCoef="0" cType="1" depth="3" nType="-99" pos="r" purity="0.0e+00" res="-0.0425656922" rms="0.0e+00"/>
          </Node>
        </Node>
        <Node Cut="-0.889928639" IVar="6" NCoef="0" cType="1" depth="1" nType="0" pos="r" purity="0.0e+00" res="0.0e+00" rms="0.0e+00">
          <Node Cut="-0.240483195" IVar="2" NCoef="0" cType="1" depth="2" nType="0" pos="l" purity="0.0e+00" res="0.0e+00" rms="0.0e+00">
            <Node Cut="0.162068859" IVar="5" NCoef="0" cType="1" depth="3" nType="0" pos="l" purity="0.0e+00" res="0.0e+00" rms="0.0e+00">
              <Node Cut="-0.159181893" IVar="5" NCoef="0" cType="1" depth="4" nType="0" pos="l" purity="0.0e+00" res="0.0e+00" rms="0.0e+00">
                <Node Cut="0.0e+00" IVar="-1" NCoef="0" cType="1" depth="5" nType="-99" pos="l" purity="0.0e+00" res="-0.0197705291" rms="0.0e+00"/>
                <Node Cut="0.0e+00" IVar="-1" NCoef="0" cType="1" depth="5" nType="-99" pos="r" purity="0.0e+00" res="0.0287372936" rms="0.0e+00"/>
              </Node>
              <Node Cut="0.0e+00" IVar="-1" NCoef="0" cType="1" depth="4" nType="-99" pos="r" purity="0.0e+00" res="-0.0209603775" rms="0.0e+00"/>
            </Node>
            <Node Cut="-2.48336267" IVar="4" NCoef="0" cType="1" depth="3" nType="0" pos="r" purity="0.0e+00" res="0.0e+00" rms="0.0e+00">
              <Node Cut="0.0e+00" IVar="-1" NCoef="0" cType="1" depth="4" nType="-99" pos="l" purity="0.0e+00" res="0.00265892013" rms="0.0e+00"/>
              <Node Cut="1.67998147" IVar="4" NCoef="0" cType="1" depth="4" nType="0" pos="r" purity="0.0e+00" res="0.0e+00" rms="0.0e+00">
                <Node Cut="-1.59584761" IVar="4" NCoef="0" cType="1" depth="5" nType="0" pos="l" purity="0.0e+00" res="0.0e+00" rms="0.0e+00">
                  <Node Cut="-0.20912765" IVar="2" NCoef="0" cType="1" depth="6" nType="0" pos="l" purity="0.0e+00" res="0.0e+00" rms="0.0e+00">
                    <Node Cut="0.0e+00" IVar="-1" NCoef="0" cType="1" depth="7" nType="-99" pos="l" purity="0.0e+00" res="0.00899914373" rms="0.0e+00"/>
                    <Node Cut="0.0e+00" IVar="-1" NCoef="0" cType="1" depth="7" nType="-99" pos="r" purity="0.0e+00" res="-0.0197613779" rms="0.0e+00"/>
                  </Node>
                  <Node Cut="0.0e+00" IVar="-1" NCoef="0" cType="1" depth="6" nType="-99" pos="r" purity="0.0e+00" res="-0.0440511443" rms="0.0e+00"/>
                </Node>
                <Node Cut="-0.162623703" IVar="2" NCoef="0" cType="1" depth="5" nType="0" pos="r" purity="0.0e+00" res="0.0e+00" rms="0.0e+00">
                  <Node Cut="0.0e+00" IVar="-1" NCoef="0" cType="1" depth="6" nType="-99" pos="l" purity="0.0e+00" res="0.0118943723" rms="0.0e+00"/>
                  <Node Cut="0.0e+00" IVar="-1" NCoef="0" cType="1" depth="6" nType="-99" pos="r" purity="0.0e+00" res="-0.021268364" rms="0.0e+00"/>
                </Node>
              </Node>
            </Node>
          </Node>
          <Node Cut="-0.261086881" IVar="2" NCoef="0" cType="1" depth="2" nType="0" pos="r" purity="0.0e+00" res="0.0e+00" rms="0.0e+00">
            <Node Cut="-0.590338051" IVar="6" NCoef="0" cType="1" depth="3" nType="0" pos="l" purity="0.0e+00" res="0.0e+00" rms="0.0e+00">
              <Node Cut="0.0e+00" IVar="-1" NCoef="0" cType="1" depth="4" nType="-99" pos="l" purity="0.0e+00" res="0.0062037264" rms="0.0e+00"/>
              <Node Cut="-0.474311054" IVar="4" NCoef="0" cType="1" depth="4" nType="0" pos="r" purity="0.0e+00" res="0.0e+00" rms="0.0e+00">
                <Node Cut="0.0e+00" IVar="-1" NCoef="0" cType="1" depth="5" nType="-99" pos="l" purity="0.0e+00" res="0.00179033948" rms="0.0e+00"/>
                <Node Cut="0.437408745" IVar="4" NCoef="0" cType="1" depth="5" nType="0" pos="r" purity="0.0e+00" res="0.0e+00" rms="0.0e+00">
                  <Node Cut="0.0e+00" IVar="-1" NCoef="0" cType="1" depth="6" nType="-99" pos="l" purity="0.0e+00" res="-0.0390284024" rms="0.0e+00"/>
                  <Node Cut="0.0e+00" IVar="-1" NCoef="0" cType="1" depth="6" nType="-99" pos="r" purity="0.0e+00" res="-0.00832991861" rms="0.0e+00"/>
                </Node>
              </Node>
            </Node>
            <Node Cut="0.0e+00" IVar="-1" NCoef="0" cType="1" depth="3" nType="-99" pos="r" purity="0.0e+00" res="-0.0486540347" rms="0.0e+00"/>
          </Node>
        </Node>
      </Node>
    </BinaryTree>
    <BinaryTree boostWeight="1.0e+00" itree="8" type="DecisionTree">
      <Node Cut="-1.04311216" IVar="6" NCoef="0" cType="1" depth="0" nType="0" pos="s" purity="0.0e+00" res="0.0e+00" rms="0.0e+00">
        <Node Cut="0.399550468" IVar="5" NCoef="0" cType="1" depth="1" nType="0" pos="l" purity="0.0e+00" res="0.0e+00" rms="0.0e+00">
          <Node Cut="-0.345303655" IVar="5" NCoef="0" cType="1" depth="2" nType="0" pos="l" purity="0.0e+00" res="0.0e+00" rms="0.0e+00">
            <Node Cut="0.936957955" IVar="0" NCoef="0" cType="1" depth="3" nType="0" pos="l" purity="0.0e+00" res="0.0e+00" rms="0.0e+00">
              <Node Cut="0.0e+00" IVar="-1" NCoef="0" cType="1" depth="4" nType="-99" pos="l" purity="0.0e+00" res="-0.0388263464" rms="0.0e+00"/>
              <Node Cut="-0.818395019" IVar="5" NCoef="0" cType="1" depth="4" nType="0" pos="r" purity="0.0e+00" res="0.0e+00" rms="0.0e+00">
                <Node Cut="0.0e+00" IVar="-1" NCoef="0" cType="1" depth="5" nType="-99" pos="l" purity="0.0e+00" res="-0.017962696" rms="0.0e+00"/>
                <Node Cut="0.0e+00" IVar="-1" NCoef="0" cType="1" depth="5" nType="-99" pos="r" purity="0.0e+00" res="0.0161157493" rms="0.0e+00"/>
              </Node>
            </Node>
            <Node Cut="0.30980444" IVar="5" NCoef="0" cType="1" depth="3" nType="0" pos="r" purity="0.0e+00" res="0.0e+00" rms="0.0e+00">
              <Node Cut="-0.263929248" IVar="5" NCoef="0" cType="1" depth="4" nType="0" pos="l" purity="0.0e+00" res="0.0e+00" rms="0.0e+00">
                <Node Cut="-0.32237038" IVar="0" NCoef="0" cType="1" depth="5" nType="0" pos="l" purity="0.0e+00" res="0.0e+00" rms="0.0e+00">
                  <Node Cut="0.0e+00" IVar="-1" NCoef="0" cType="1" depth="6" nType="-99" pos="l" purity="0.0e+00" res="-0.0097414013" rms="0.0e+00"/>
                  <Node Cut="0.0e+00" IVar="-1" NCoef="0" cType="1" depth="6" nType="-99" pos="r" purity="0.0e+00" res="0.0250835847" rms="0.0e+00"/>
                </Node>
                <Node Cut="-0.677584291" IVar="1" NCoef="0" cType="1" depth="5" nType="0" pos="r" purity="0.0e+00" res="0.0e+00" rms="0.0e+00">
                  <Node Cut="0.0e+00" IVar="-1" NCoef="0" cType="1" depth="6" nType="-99" pos="l" purity="0.0e+00" res="0.0217695367" rms="0.0e+00"/>
                  <Node Cut="-0.262871534" IVar="2" NCoef="0" cType="1" depth="6" nType="0" pos="r" purity="0.0e+00" res="0.0e+00" rms="0.0e+00">
                    <Node Cut="0.0e+00" IVar="-1" NCoef="0" cType="1" depth="7" nType="-99" pos="l" purity="0.0e+00" res="0.000963548722" rms="0.0e+00"/>
                    <Node Cut="0.0060272594" IVar="2" NCoef="0" cType="1" depth="7" nType="0" pos="r" purity="0.0e+00" res="0.0e+00" rms="0.0e+00">
                      <Node Cut="0.246872082" IVar="5" NCoef="0" cType="1" depth="8" nType="0" pos="l" purity="0.0e+00" res="0.0e+00" rms="0.0e+00">
                        <Node Cut="0.0e+00" IVar="-1" NCoef="0" cType="1" depth="9" nType="-99" pos="l" purity="0.0e+00" res="0.0457023792" rms="0.0e+00"/>
                        <Node Cut="-0.431123674" IVar="0" NCoef="0" cType="1" depth="9" nType="0" pos="r" purity="0.0e+00" res="0.0e+00" rms="0.0e+00">
                          <Node Cut="0.0e+00" IVar="-1" NCoef="0" cType="1" depth="10" nType="-99" pos="l" purity="0.0e+00" res="-0.00801690854" rms="0.0e+00"/>
                          <Node Cut="0.0e+00" IVar="-1" NCoef="0" cType="1" depth="10" nType="-99" pos="r" purity="0.0e+00" res="0.0258029271" rms="0.0e+00"/>
                        </Node>
                      </Node>
                      <Node Cut="0.0e+00" IVar="-1" NCoef="0" cType="1" depth="8" nType="-99" pos="r" purity="0.0e+00" res="-0" rms="0.0e+00"/>
                    </Node>
                  </Node>
                </Node>
              </Node>
              <Node Cut="-0.285976589" IVar="0" NCoef="0" cType="1" depth="4" nType="0" pos="r" purity="0.0e+00" res="0.0e+00" rms="0.0e+00">
                <Node Cut="0.0e+00" IVar="-1" NCoef="0" cType="1" depth="5" nType="-99" pos="l" purity="0.0e+00" res="-0.0170274265" rms="0.0e+00"/>
                <Node Cut="0.0e+00" IVar="-1" NCoef="0" cType="1" depth="5" nType="-99" pos="r" purity="0.0e+00" res="0.0190519691" rms="0.0e+00"/>
              </Node>
            </Node>
          </Node>
          <Node Cut="0.543855667" IVar="0" NCoef="0" cType="1" depth="2" nType="0" pos="r" purity="0.0e+00" res="0.0e+00" rms="0.0e+00">
            <Node Cut="0.0e+00" IVar="-1" NCoef="0" cType="1" depth="3" nType="-99" pos="l" purity="0.0e+00" res="-0.0423233323" rms="0.0e+00"/>
            <Node Cut="0.81332159" IVar="5" NCoef="0" cType="1" depth="3" nType="0" pos="r" purity="0.0e+00" res="0.0e+00" rms="0.0e+00">
              <Node Cut="0.0e+00" IVar="-1" NCoef="0" cType="1" depth="4" nType="-99" pos="l" purity="0.0e+00" res="0.0122311292" rms="0.0e+00"/>
              <Node Cut="0.0e+00" IVar="-1" NCoef="0" cType="1" depth="4" nType="-99" pos="r" purity="0.0e+00" res="-0.0242962688" rms="0.0e+00"/>
            </Node>
          </Node>
        </Node>
        <Node Cut="-0.903508484" IVar="6" NCoef="0" cType="1" depth="1" nType="0" pos="r" purity="0.0e+00" res="0.0e+00" rms="0.0e+00">
          <Node Cut="-0.240483195" IVar="2" NCoef="0" cType="1" depth="2" nType="0" pos="l" purity="0.0e+00" res="0.0e+00" rms="0.0e+00">
            <Node Cut="0.176479429" IVar="5" NCoef="0" cType="1" depth="3" nType="0" pos="l" purity="0.0e+00" res="0.0e+00" rms="0.0e+00">
              <Node Cut="-0.159181893" IVar="5" NCoef="0" cType="1" depth="4" nType="0" pos="l" purity="0.0e+00" res="0.0e+00" rms="0.0e+00">
                <Node Cut="0.0e+00" IVar="-1" NCoef="0" cType="1" depth="5" nType="-99" pos="l" purity="0.0e+00" res="-0.0197174419" rms="0.0e+00"/>
                <Node Cut="0.0e+00" IVar="-1" NCoef="0" cType="1" depth="5" nType="-99" pos="r" purity="0.0e+00" res="0.0298720356" rms="0.0e+00"/>
              </Node>
              <Node Cut="0.0e+00" IVar="-1" NCoef="0" cType="1" depth="4" nType="-99" pos="r" purity="0.0e+00" res="-0.0213265587" rms="0.0e+00"/>
            </Node>
            <Node Cut="-1.59584761" IVar="4" NCoef="0" cType="1" depth="3" nType="0" pos="r" purity="0.0e+00" res="0.0e+00" rms="0.0e+00">
              <Node Cut="-0.176059186" IVar="2" NCoef="0" cType="1" depth="4" nType="0" pos="l" purity="0.0e+00" res="0.0e+00" rms="0.0e+00">
                <Node Cut="0.0e+00" IVar="-1" NCoef="0" cType="1" depth="5" nType="-99" pos="l" purity="0.0e+00" res="0.013717033" rms="0.0e+00"/>
                <Node Cut="0.0e+00" IVar="-1" NCoef="0" cType="1" depth="5" nType="-99" pos="r" purity="0.0e+00" res="-0.022069281" rms="0.0e+00"/>
              </Node>
              <Node Cut="1.68084979" IVar="4" NCoef="0" cType="1" depth="4" nType="0" pos="r" purity="0.0e+00" res="0.0e+00" rms="0.0e+00">
                <Node Cut="0.0e+00" IVar="-1" NCoef="0" cType="1" depth="5" nType="-99" pos="l" purity="0.0e+00" res="-0.0432941169" rms="0.0e+00"/>
                <Node Cut="-0.162785262" IVar="2" NCoef="0" cType="1" depth="5" nType="0" pos="r" purity="0.0e+00" res="0.0e+00" rms="0.0e+00">
                  <Node Cut="0.0e+00" IVar="-1" NCoef="0" cType="1" depth="6" nType="-99" pos="l" purity="0.0e+00" res="0.0120652569" rms="0.0e+00"/>
                  <Node Cut="0.0e+00" IVar="-1" NCoef="0" cType="1" depth="6" nType="-99" pos="r" purity="0.0e+00" res="-0.0213615578" rms="0.0e+00"/>
                </Node>
              </Node>
            </Node>
          </Node>
          <Node Cut="-0.261128306" IVar="2" NCoef="0" cType="1" depth="2" nType="0" pos="r" purity="0.0e+00" res="0.0e+00" rms="0.0e+00">
            <Node Cut="-0.471418083" IVar="6" NCoef="0" cType="1" depth="3" nType="0" pos="l" purity="0.0e+00" res="0.0e+00" rms="0.0e+00">
              <Node Cut="-0.668452322" IVar="1" NCoef="0" cType="1" depth="4" nType="0" pos="l" purity="0.0e+00" res="0.0e+00" rms="0.0e+00">
                <Node Cut="0.0e+00" IVar="-1" NCoef="0" cType="1" depth="5" nType="-99" pos="l" purity="0.0e+00" res="-0.00996270124" rms="0.0e+00"/>
                <Node Cut="0.0e+00" IVar="-1" NCoef="0" cType="1" depth="5" nType="-99" pos="r" purity="0.0e+00" res="0.00857923366" rms="0.0e+00"/>
              </Node>
              <Node Cut="-0.474311054" IVar="4" NCoef="0" cType="1" depth="4" nType="0" pos="r" purity="0.0e+00" res="0.0e+00" rms="0.0e+00">
                <Node Cut="0.0e+00" IVar="-1" NCoef="0" cType="1" depth="5" nType="-99" pos="l" purity="0.0e+00" res="0.00134319242" rms="0.0e+00"/>
                <Node Cut="0.0e+00" IVar="-1" NCoef="0" cType="1" depth="5" nType="-99" pos="r" purity="0.0e+00" res="-0.0345140658" rms="0.0e+00"/>
              </Node>
            </Node>
            <Node Cut="-0.24516198" IVar="2" NCoef="0" cType="1" depth="3" nType="0" pos="r" purity="0.0e+00" res="0.0e+00" rms="0.0e+00">
              <Node Cut="1.65107715" IVar="4" NCoef="0" cType="1" depth="4" nType="0" pos="l" purity="0.0e+00" res="0.0e+00" rms="0.0e+00">
                <Node Cut="-0.713663816" IVar="4" NCoef="0" cType="1" depth="5" nType="0" pos="l" purity="0.0e+00" res="0.0e+00" rms="0.0e+00">
                  <Node Cut="-0.553821683" IVar="0" NCoef="0" cType="1" depth="6" nType="0" pos="l" purity="0.0e+00" res="0.0e+00" rms="0.0e+00">
                    <Node Cut="0.0e+00" IVar="-1" NCoef="0" cType="1" depth="7" nType="-99" pos="l" purity="0.0e+00" res="-0.010097472" rms="0.0e+00"/>
                    <Node Cut="0.0e+00" IVar="-1" NCoef="0" cType="1" depth="7" nType="-99" pos="r" purity="0.0e+00" res="0.0204856526" rms="0.0e+00"/>
                  </Node>
                  <Node Cut="0.0e+00" IVar="-1" NCoef="0" cType="1" depth="6" nType="-99" pos="r" purity="0.0e+00" res="-0.0453394316" rms="0.0e+00"/>
                </Node>
                <Node Cut="-0.568064988" IVar="0" NCoef="0" cType="1" depth="5" nType="0" pos="r" purity="0.0e+00" res="0.0e+00" rms="0.0e+00">
                  <Node Cut="0.0e+00" IVar="-1" NCoef="0" cType="1" depth="6" nType="-99" pos="l" purity="0.0e+00" res="-0.0104907295" rms="0.0e+00"/>
                  <Node Cut="0.0e+00" IVar="-1" NCoef="0" cType="1" depth="6" nType="-99" pos="r" purity="0.0e+00" res="0.021080073" rms="0.0e+00"/>
                </Node>
              </Node>
              <Node Cut="0.0e+00" IVar="-1" NCoef="0" cType="1" depth="4" nType="-99" pos="r" purity="0.0e+00" res="-0.048636768" rms="0.0e+00"/>
            </Node>
          </Node>
        </Node>
      </Node>
    </BinaryTree>
    <BinaryTree boostWeight="1.0e+00" itree="9" type="DecisionTree">
      <Node Cut="-0.240472347" IVar="2" NCoef="0" cType="1" depth="0" nType="0" pos="s" purity="0.0e+00" res="0.0e+00" rms="0.0e+00">
        <Node Cut="-0.185130164" IVar="5" NCoef="0" cType="1" depth="1" nType="0" pos="l" purity="0.0e+00" res="0.0e+00" rms="0.0e+00">
          <Node Cut="0.132002696" IVar="0" NCoef="0" cType="1" depth="2" nType="0" pos="l" purity="0.0e+00" res="0.0e+00" rms="0.0e+00">
            <Node Cut="0.57011807" IVar="4" NCoef="0" cType="1" depth="3" nType="0" pos="l" purity="0.0e+00" res="0.0e+00" rms="0.0e+00">
              <Node Cut="-0.645234704" IVar="4" NCoef="0" cType="1" depth="4" nType="0" pos="l" purity="0.0e+00" res="0.0e+00" rms="0.0e+00">
                <Node Cut="0.0e+00" IVar="-1" NCoef="0" cType="1" depth="5" nType="-99" pos="l" purity="0.0e+00" res="-0.000752437569" rms="0.0e+00"/>
                <Node Cut="-0.20024465" IVar="0" NCoef="0" cType="1" depth="5" nType="0" pos="r" purity="0.0e+00" res="0.0e+00" rms="0.0e+00">
                  <Node Cut="0.0e+00" IVar="-1" NCoef="0" cType="1" depth="6" nType="-99" pos="l" purity="0.0e+00" res="-0.0442171805" rms="0.0e+00"/>
                  <Node Cut="-0.224287853" IVar="5" NCoef="0" cType="1" depth="6" nType="0" pos="r" purity="0.0e+00" res="0.0e+00" rms="0.0e+00">
                    <Node Cut="0.0e+00" IVar="-1" NCoef="0" cType="1" depth="7" nType="-99" pos="l" purity="0.0e+00" res="-0.0245388374" rms="0.0e+00"/>
                    <Node Cut="0.0e+00" IVar="-1" NCoef="0" cType="1" depth="7" nType="-99" pos="r" purity="0.0e+00" res="0.00429941202" rms="0.0e+00"/>
                  </Node>
                </Node>
              </Node>
              <Node Cut="0.0e+00" IVar="-1" NCoef="0" cType="1" depth="4" nType="-99" pos="r" purity="0.0e+00" res="-0.00419286545" rms="0.0e+00"/>
            </Node>
            <Node Cut="-0.354285806" IVar="7" NCoef="0" cType="1" depth="3" nType="0" pos="r" purity="0.0e+00" res="0.0e+00" rms="0.0e+00">
              <Node Cut="0.0e+00" IVar="-1" NCoef="0" cType="1" depth="4" nType="-99" pos="l" purity="0.0e+00" res="-0.0181236733" rms="0.0e+00"/>
              <Node Cut="0.338428438" IVar="7" NCoef="0" cType="1" depth="4" nType="0" pos="r" purity="0.0e+00" res="0.0e+00" rms="0.0e+00">
                <Node Cut="0.0e+00" IVar="-1" NCoef="0" cType="1" depth="5" nType="-99" pos="l" purity="0.0e+00" res="0.019874895" rms="0.0e+00"/>
                <Node Cut="0.0e+00" IVar="-1" NCoef="0" cType="1" depth="5" nType="-99" pos="r" purity="0.0e+00" res="-0.0155352736" rms="0.0e+00"/>
              </Node>
            </Node>
          </Node>
          <Node Cut="0.182591826" IVar="5" NCoef="0" cType="1" depth="2" nType="0" pos="r" purity="0.0e+00" res="0.0e+00" rms="0.0e+00">
            <Node Cut="0.501709938" IVar="7" NCoef="0" cType="1" depth="3" nType="0" pos="l" purity="0.0e+00" res="0.0e+00" rms="0.0e+00">
              <Node Cut="-0.499210507" IVar="7" NCoef="0" cType="1" depth="4" nType="0" pos="l" purity="0.0e+00" res="0.0e+00" rms="0.0e+00">
                <Node Cut="-0.25620538" IVar="2" NCoef="0" cType="1" depth="5" nType="0" pos="l" purity="0.0e+00" res="0.0e+00" rms="0.0e+00">
                  <Node Cut="-0.412839115" IVar="4" NCoef="0" cType="1" depth="6" nType="0" pos="l" purity="0.0e+00" res="0.0e+00" rms="0.0e+00">
                    <Node Cut="0.0e+00" IVar="-1" NCoef="0" cType="1" depth="7" nType="-99" pos="l" purity="0.0e+00" res="0.00352717726" rms="0.0e+00"/>
                    <Node Cut="0.407312214" IVar="4" NCoef="0" cType="1" depth="7" nType="0" pos="r" purity="0.0e+00" res="0.0e+00" rms="0.0e+00">
                      <Node Cut="0.0e+00" IVar="-1" NCoef="0" cType="1" depth="8" nType="-99" pos="l" purity="0.0e+00" res="-0.0302041266" rms="0.0e+00"/>
                      <Node Cut="0.0e+00" IVar="-1" NCoef="0" cType="1" depth="8" nType="-99" pos="r" purity="0.0e+00" res="0.000374641153" rms="0.0e+00"/>
                    </Node>
                  </Node>
                  <Node Cut="-0.568180621" IVar="0" NCoef="0" cType="1" depth="6" nType="0" pos="r" purity="0.0e+00" res="0.0e+00" rms="0.0e+00">
                    <Node Cut="0.0e+00" IVar="-1" NCoef="0" cType="1" depth="7" nType="-99" pos="l" purity="0.0e+00" res="-0.00650171004" rms="0.0e+00"/>
                    <Node Cut="-0.20626083" IVar="3" NCoef="0" cType="1" depth="7" nType="0" pos="r" purity="0.0e+00" res="0.0e+00" rms="0.0e+00">
                      <Node Cut="0.0e+00" IVar="-1" NCoef="0" cType="1" depth="8" nType="-99" pos="l" purity="0.0e+00" res="-0.00378970965" rms="0.0e+00"/>
                      <Node Cut="0.0e+00" IVar="-1" NCoef="0" cType="1" depth="8" nType="-99" pos="r" purity="0.0e+00" res="0.0279157776" rms="0.0e+00"/>
                    </Node>
                  </Node>
                </Node>
                <Node Cut="-0.673083425" IVar="1" NCoef="0" cType="1" depth="5" nType="0" pos="r" purity="0.0e+00" res="0.0e+00" rms="0.0e+00">
                  <Node Cut="0.296469748" IVar="7" NCoef="0" cType="1" depth="6" nType="0" pos="l" purity="0.0e+00" res="0.0e+00" rms="0.0e+00">
                    <Node Cut="-0.290837228" IVar="7" NCoef="0" cType="1" depth="7" nType="0" pos="l" purity="0.0e+00" res="0.0e+00" rms="0.0e+00">
                      <Node Cut="0.0e+00" IVar="-1" NCoef="0" cType="1" depth="8" nType="-99" pos="l" purity="0.0e+00" res="-0.000862749701" rms="0.0e+00"/>
                      <Node Cut="0.0e+00" IVar="-1" NCoef="0" cType="1" depth="8" nType="-99" pos="r" purity="0.0e+00" res="0.029103402" rms="0.0e+00"/>
                    </Node>
                    <Node Cut="0.0e+00" IVar="-1" NCoef="0" cType="1" depth="7" nType="-99" pos="r" purity="0.0e+00" res="-0.00505496282" rms="0.0e+00"/>
                  </Node>
                  <Node Cut="0.159481212" IVar="5" NCoef="0" cType="1" depth="6" nType="0" pos="r" purity="0.0e+00" res="0.0e+00" rms="0.0e+00">
                    <Node Cut="-0.156735331" IVar="5" NCoef="0" cType="1" depth="7" nType="0" pos="l" purity="0.0e+00" res="0.0e+00" rms="0.0e+00">
                      <Node Cut="-0.550477386" IVar="0" NCoef="0" cType="1" depth="8" nType="0" pos="l" purity="0.0e+00" res="0.0e+00" rms="0.0e+00">
                        <Node Cut="0.0e+00" IVar="-1" NCoef="0" cType="1" depth="9" nType="-99" pos="l" purity="0.0e+00" res="-0.00365571422" rms="0.0e+00"/>
                        <Node Cut="0.0e+00" IVar="-1" NCoef="0" cType="1" depth="9" nType="-99" pos="r" purity="0.0e+00" res="0.0234159976" rms="0.0e+00"/>
                      </Node>
                      <Node Cut="0.0e+00" IVar="-1" NCoef="0" cType="1" depth="8" nType="-99" pos="r" purity="0.0e+00" res="0.0436404198" rms="0.0e+00"/>
                    </Node>
                    <Node Cut="0.20985204" IVar="7" NCoef="0" cType="1" depth="7" nType="0" pos="r" purity="0.0e+00" res="0.0e+00" rms="0.0e+00">
                      <Node Cut="0.0e+00" IVar="-1" NCoef="0" cType="1" depth="8" nType="-99" pos="l" purity="0.0e+00" res="0.0206651352" rms="0.0e+00"/>
                      <Node Cut="0.0e+00" IVar="-1" NCoef="0" cType="1" depth="8" nType="-99" pos="r" purity="0.0e+00" res="-0.00476805819" rms="0.0e+00"/>
                    </Node>
                  </Node>
                </Node>
              </Node>
              <Node Cut="-0.255213857" IVar="2" NCoef="0" cType="1" depth="4" nType="0" pos="r" purity="0.0e+00" res="0.0e+00" rms="0.0e+00">
                <Node Cut="-0.473611116" IVar="4" NCoef="0" cType="1" depth="5" nType="0" pos="l" purity="0.0e+00" res="0.0e+00" rms="0.0e+00">
                  <Node Cut="0.0e+00" IVar="-1" NCoef="0" cType="1" depth="6" nType="-99" pos="l" purity="0.0e+00" res="0.0031104933" rms="0.0e+00"/>
                  <Node Cut="0.462916613" IVar="4" NCoef="0" cType="1" depth="6" nType="0" pos="r" purity="0.0e+00" res="0.0e+00" rms="0.0e+00">
                    <Node Cut="0.0e+00" IVar="-1" NCoef="0" cType="1" depth="7" nType="-99" pos="l" purity="0.0e+00" res="-0.028586546" rms="0.0e+00"/>
                    <Node Cut="0.0e+00" IVar="-1" NCoef="0" cType="1" depth="7" nType="-99" pos="r" purity="0.0e+00" res="0.00222841441" rms="0.0e+00"/>
                  </Node>
                </Node>
                <Node Cut="-0.568168819" IVar="0" NCoef="0" cType="1" depth="5" nType="0" pos="r" purity="0.0e+00" res="0.0e+00" rms="0.0e+00">
                  <Node Cut="0.0e+00" IVar="-1" NCoef="0" cType="1" depth="6" nType="-99" pos="l" purity="0.0e+00" res="-0.00381391519" rms="0.0e+00"/>
                  <Node Cut="-0.26365903" IVar="1" NCoef="0" cType="1" depth="6" nType="0" pos="r" purity="0.0e+00" res="0.0e+00" rms="0.0e+00">
                    <Node Cut="0.0e+00" IVar="-1" NCoef="0" cType="1" depth="7" nType="-99" pos="l" purity="0.0e+00" res="0.0243902169" rms="0.0e+00"/>
                    <Node Cut="0.0e+00" IVar="-1" NCoef="0" cType="1" depth="7" nType="-99" pos="r" purity="0.0e+00" res="-0.00229240232" rms="0.0e+00"/>
                  </Node>
                </Node>
              </Node>
            </Node>
            <Node Cut="-0.0111615434" IVar="0" NCoef="0" cType="1" depth="3" nType="0" pos="r" purity="0.0e+00" res="0.0e+00" rms="0.0e+00">
              <Node Cut="0.216293022" IVar="5" NCoef="0" cType="1" depth="4" nType="0" pos="l" purity="0.0e+00" res="0.0e+00" rms="0.0e+00">
                <Node Cut="0.477842271" IVar="4" NCoef="0" cType="1" depth="5" nType="0" pos="l" purity="0.0e+00" res="0.0e+00" rms="0.0e+00">
                  <Node Cut="0.0e+00" IVar="-1" NCoef="0" cType="1" depth="6" nType="-99" pos="l" purity="0.0e+00" res="-0.0192899015" rms="0.0e+00"/>
                  <Node Cut="0.0e+00" IVar="-1" NCoef="0" cType="1" depth="6" nType="-99" pos="r" purity="0.0e+00" res="0.00563761592" rms="0.0e+00"/>
                </Node>
                <Node Cut="0.0e+00" IVar="-1" NCoef="0" cType="1" depth="5" nType="-99" pos="r" purity="0.0e+00" res="-0.0434462167" rms="0.0e+00"/>
              </Node>
              <Node Cut="0.34513548" IVar="7" NCoef="0" cType="1" depth="4" nType="0" pos="r" purity="0.0e+00" res="0.0e+00" rms="0.0e+00">
                <Node Cut="-0.281935215" IVar="7" NCoef="0" cType="1" depth="5" nType="0" pos="l" purity="0.0e+00" res="0.0e+00" rms="0.0e+00">
                  <Node Cut="0.0e+00" IVar="-1" NCoef="0" cType="1" depth="6" nType="-99" pos="l" purity="0.0e+00" res="-0.0182353742" rms="0.0e+00"/>
                  <Node Cut="0.0e+00" IVar="-1" NCoef="0" cType="1" depth="6" nType="-99" pos="r" purity="0.0e+00" res="0.0216955598" rms="0.0e+00"/>
                </Node>
                <Node Cut="0.0e+00" IVar="-1" NCoef="0" cType="1" depth="5" nType="-99" pos="r" purity="0.0e+00" res="-0.0225231461" rms="0.0e+00"/>
              </Node>
            </Node>
          </Node>
        </Node>
        <Node Cut="-0.219009206" IVar="2" NCoef="0" cType="1" depth="1" nType="0" pos="r" purity="0.0e+00" res="0.0e+00" rms="0.0e+00">
          <Node Cut="-1.27308488" IVar="4" NCoef="0" cType="1" depth="2" nType="0" pos="l" purity="0.0e+00" res="0.0e+00" rms="0.0e+00">
            <Node Cut="-0.569109023" IVar="0" NCoef="0" cType="1" depth="3" nType="0" pos="l" purity="0.0e+00" res="0.0e+00" rms="0.0e+00">
              <Node Cut="0.0e+00" IVar="-1" NCoef="0" cType="1" depth="4" nType="-99" pos="l" purity="0.0e+00" res="-0.00162138522" rms="0.0e+00"/>
              <Node Cut="0.677039027" IVar="7" NCoef="0" cType="1" depth="4" nType="0" pos="r" purity="0.0e+00" res="0.0e+00" rms="0.0e+00">
                <Node Cut="-0.875736237" IVar="7" NCoef="0" cType="1" depth="5" nType="0" pos="l" purity="0.0e+00" res="0.0e+00" rms="0.0e+00">
                  <Node Cut="0.0e+00" IVar="-1" NCoef="0" cType="1" depth="6" nType="-99" pos="l" purity="0.0e+00" res="0.00103428192" rms="0.0e+00"/>
                  <Node Cut="0.0e+00" IVar="-1" NCoef="0" cType="1" depth="6" nType="-99" pos="r" purity="0.0e+00" res="0.0433737412" rms="0.0e+00"/>
                </Node>
                <Node Cut="0.0e+00" IVar="-1" NCoef="0" cType="1" depth="5" nType="-99" pos="r" purity="0.0e+00" res="-0.000741742086" rms="0.0e+00"/>
              </Node>
            </Node>
            <Node Cut="1.29437137" IVar="4" NCoef="0" cType="1" depth="3" nType="0" pos="r" purity="0.0e+00" res="0.0e+00" rms="0.0e+00">
              <Node Cut="0.464074463" IVar="1" NCoef="0" cType="1" depth="4" nType="0" pos="l" purity="0.0e+00" res="0.0e+00" rms="0.0e+00">
                <Node Cut="0.0e+00" IVar="-1" NCoef="0" cType="1" depth="5" nType="-99" pos="l" purity="0.0e+00" res="-0.0467424467" rms="0.0e+00"/>
                <Node Cut="0.0e+00" IVar="-1" NCoef="0" cType="1" depth="5" nType="-99" pos="r" purity="0.0e+00" res="0.00588591537" rms="0.0e+00"/>
              </Node>
              <Node Cut="-0.570784211" IVar="0" NCoef="0" cType="1" depth="4" nType="0" pos="r" purity="0.0e+00" res="0.0e+00" rms="0.0e+00">
                <Node Cut="0.0e+00" IVar="-1" NCoef="0" cType="1" depth="5" nType="-99" pos="l" purity="0.0e+00" res="-0.00312166172" rms="0.0e+00"/>
                <Node Cut="-0.513664246" IVar="7" NCoef="0" cType="1" depth="5" nType="0" pos="r" purity="0.0e+00" res="0.0e+00" rms="0.0e+00">
                  <Node Cut="0.0e+00" IVar="-1" NCoef="0" cType="1" depth="6" nType="-99" pos="l" purity="0.0e+00" res="0.000351857336" rms="0.0e+00"/>
                  <Node Cut="0.910724938" IVar="7" NCoef="0" cType="1" depth="6" nType="0" pos="r" purity="0.0e+00" res="0.0e+00" rms="0.0e+00">
                    <Node Cut="0.0e+00" IVar="-1" NCoef="0" cType="1" depth="7" nType="-99" pos="l" purity="0.0e+00" res="0.0426387712" rms="0.0e+00"/>
                    <Node Cut="0.0e+00" IVar="-1" NCoef="0" cType="1" depth="7" nType="-99" pos="r" purity="0.0e+00" res="-0.00249890285" rms="0.0e+00"/>
                  </Node>
                </Node>
              </Node>
            </Node>
          </Node>
          <Node Cut="-1.59682322" IVar="4" NCoef="0" cType="1" depth="2" nType="0" pos="r" purity="0.0e+00" res="0.0e+00" rms="0.0e+00">
            <Node Cut="-0.119559079" IVar="2" NCoef="0" cType="1" depth="3" nType="0" pos="l" purity="0.0e+00" res="0.0e+00" rms="0.0e+00">
              <Node Cut="-0.53546226" IVar="0" NCoef="0" cType="1" depth="4" nType="0" pos="l" purity="0.0e+00" res="0.0e+00" rms="0.0e+00">
                <Node Cut="0.0e+00" IVar="-1" NCoef="0" cType="1" depth="5" nType="-99" pos="l" purity="0.0e+00" res="-0.0153445993" rms="0.0e+00"/>
                <Node Cut="0.408272326" IVar="7" NCoef="0" cType="1" depth="5" nType="0" pos="r" purity="0.0e+00" res="0.0e+00" rms="0.0e+00">
                  <Node Cut="-0.471501946" IVar="7" NCoef="0" cType="1" depth="6" nType="0" pos="l" purity="0.0e+00" res="0.0e+00" rms="0.0e+00">
                    <Node Cut="0.0e+00" IVar="-1" NCoef="0" cType="1" depth="7" nType="-99" pos="l" purity="0.0e+00" res="-0.0100095803" rms="0.0e+00"/>
                    <Node Cut="0.0e+00" IVar="-1" NCoef="0" cType="1" depth="7" nType="-99" pos="r" purity="0.0e+00" res="0.0338656083" rms="0.0e+00"/>
                  </Node>
                  <Node Cut="0.0e+00" IVar="-1" NCoef="0" cType="1" depth="6" nType="-99" pos="r" purity="0.0e+00" res="-0.0122888647" rms="0.0e+00"/>
                </Node>
              </Node>
              <Node Cut="0.0e+00" IVar="-1" NCoef="0" cType="1" depth="4" nType="-99" pos="r" purity="0.0e+00" res="-0.0441759005" rms="0.0e+00"/>
            </Node>
            <Node Cut="1.65304673" IVar="4" NCoef="0" cType="1" depth="3" nType="0" pos="r" purity="0.0e+00" res="0.0e+00" rms="0.0e+00">
              <Node Cut="0.0e+00" IVar="-1" NCoef="0" cType="1" depth="4" nType="-99" pos="l" purity="0.0e+00" res="-0.0482682325" rms="0.0e+00"/>
              <Node Cut="-0.140117168" IVar="2" NCoef="0" cType="1" depth="4" nType="0" pos="r" purity="0.0e+00" res="0.0e+00" rms="0.0e+00">
                <Node Cut="-0.550970554" IVar="0" NCoef="0" cType="1" depth="5" nType="0" pos="l" purity="0.0e+00" res="0.0e+00" rms="0.0e+00">
                  <Node Cut="0.0e+00" IVar="-1" NCoef="0" cType="1" depth="6" nType="-99" pos="l" purity="0.0e+00" res="-0.0184225067" rms="0.0e+00"/>
                  <Node Cut="0.430950344" IVar="7" NCoef="0" cType="1" depth="6" nType="0" pos="r" purity="0.0e+00" res="0.0e+00" rms="0.0e+00">
                    <Node Cut="-0.604130089" IVar="7" NCoef="0" cType="1" depth="7" nType="0" pos="l" purity="0.0e+00" res="0.0e+00" rms="0.0e+00">
                      <Node Cut="0.0e+00" IVar="-1" NCoef="0" cType="1" depth="8" nType="-99" pos="l" purity="0.0e+00" res="-0.0109109264" rms="0.0e+00"/>
                      <Node Cut="-0.337494612" IVar="5" NCoef="0" cType="1" depth="8" nType="0" pos="r" purity="0.0e+00" res="0.0e+00" rms="0.0e+00">
                        <Node Cut="0.0e+00" IVar="-1" NCoef="0" cType="1" depth="9" nType="-99" pos="l" purity="0.0e+00" res="-0.00194715941" rms="0.0e+00"/>
                        <Node Cut="0.0e+00" IVar="-1" NCoef="0" cType="1" depth="9" nType="-99" pos="r" purity="0.0e+00" res="0.0332030281" rms="0.0e+00"/>
                      </Node>
                    </Node>
                    <Node Cut="0.0e+00" IVar="-1" NCoef="0" cType="1" depth="7" nType="-99" pos="r" purity="0.0e+00" res="-0.00973306503" rms="0.0e+00"/>
                  </Node>
                </Node>
                <Node Cut="0.0e+00" IVar="-1" NCoef="0" cType="1" depth="5" nType="-99" pos="r" purity="0.0e+00" res="-0.0445678681" rms="0.0e+00"/>
              </Node>
            </Node>
          </Node>
        </Node>
