<?xml version="1.0"?>
<MethodSetup Method="BDT::BDT">
  <Variables NVar="11">
    <Variable Expression="f0" Internal="f0" Label="f0" Max="0.0e+00" Min="0.0e+00" Title="f0" Type="F" Unit="" VarIndex="0"/>
    <Variable Expression="f1" Internal="f1" Label="f1" Max="0.0e+00" Min="0.0e+00" Title="f1" Type="F" Unit="" VarIndex="1"/>
    <Variable Expression="f2" Internal="f2" Label="f2" Max="0.0e+00" Min="0.0e+00" Title="f2" Type="F" Unit="" VarIndex="2"/>
    <Variable Expression="f3" Internal="f3" Label="f3" Max="0.0e+00" Min="0.0e+00" Title="f3" Type="F" Unit="" VarIndex="3"/>
    <Variable Expression="f4" Internal="f4" Label="f4" Max="0.0e+00" Min="0.0e+00" Title="f4" Type="F" Unit="" VarIndex="4"/>
    <Variable Expression="f5" Internal="f5" Label="f5" Max="0.0e+00" Min="0.0e+00" Title="f5" Type="F" Unit="" VarIndex="5"/>
    <Variable Expression="f6" Internal="f6" Label="f6" Max="0.0e+00" Min="0.0e+00" Title="f6" Type="F" Unit="" VarIndex="6"/>
    <Variable Expression="f7" Internal="f7" Label="f7" Max="0.0e+00" Min="0.0e+00" Title="f7" Type="F" Unit="" VarIndex="7"/>
    <Variable Expression="f8" Internal="f8" Label="f8" Max="0.0e+00" Min="0.0e+00" Title="f8" Type="F" Unit="" VarIndex="8"/>
    <Variable Expression="f9" Internal="f9" Label="f9" Max="0.0e+00" Min="0.0e+00" Title="f9" Type="F" Unit="" VarIndex="9"/>
    <Variable Expression="f10" Internal="f10" Label="f10" Max="0.0e+00" Min="0.0e+00" Title="f10" Type="F" Unit="" VarIndex="10"/>
  </Variables>
  <GeneralInfo>
    <Info name="Creator" value="xgboost2TMVA"/>
    <Info name="AnalysisType" value="Classification"/>
  </GeneralInfo>
  <Options>
    <Option modified="No" name="NodePurityLimit">5.00e-01</Option>
    <Option modified="Yes" name="BoostType">Grad</Option>
  </Options>
  <Weights AnalysisType="1" NTrees="300">
    <BinaryTree boostWeight="1.0e+00" itree="0" type="DecisionTree">
      <Node Cut="0.0130631896" IVar="10" NCoef="0" cType="1" depth="0" nType="0" pos="s" purity="0.0e+00" res="0.0e+00" rms="0.0e+00">
        <Node Cut="1.74521339" IVar="9" NCoef="0" cType="1" depth="1" nType="0" pos="l" purity="0.0e+00" res="0.0e+00" rms="0.0e+00">
          <Node Cut="-1.1656009" IVar="6" NCoef="0" cType="1" depth="2" nType="0" pos="l" purity="0.0e+00" res="0.0e+00" rms="0.0e+00">
            <Node Cut="-0.603576958" IVar="8" NCoef="0" cType="1" depth="3" nType="0" pos="l" purity="0.0e+00" res="0.0e+00" rms="0.0e+00">
              <Node Cut="0.0e+00" IVar="-1" NCoef="0" cType="1" depth="4" nType="-99" pos="l" purity="0.0e+00" res="-0.369501054" rms="0.0e+00"/>
              <Node Cut="0.0e+00" IVar="-1" NCoef="0" cType="1" depth="4" nType="-99" pos="r" purity="0.0e+00" res="0.369501054" rms="0.0e+00"/>
            </Node>
            <Node Cut="2.0762198" IVar="8" NCoef="0" cType="1" depth="3" nType="0" pos="r" purity="0.0e+00" res="0.0e+00" rms="0.0e+00">
              <Node Cut="-1.14233041" IVar="6" NCoef="0" cType="1" depth="4" nType="0" pos="l" purity="0.0e+00" res="0.0e+00" rms="0.0e+00">
                <Node Cut="0.0e+00" IVar="-1" NCoef="0" cType="1" depth="5" nType="-99" pos="l" purity="0.0e+00" res="-0.188622832" rms="0.0e+00"/>
                <Node Cut="1.79303932" IVar="8" NCoef="0" cType="1" depth="5" nType="0" pos="r" purity="0.0e+00" res="0.0e+00" rms="0.0e+00">
                  <Node Cut="0.0e+00" IVar="-1" NCoef="0" cType="1" depth="6" nType="-99" pos="l" purity="0.0e+00" res="-0.369501054" rms="0.0e+00"/>
                  <Node Cut="0.0e+00" IVar="-1" NCoef="0" cType="1" depth="6" nType="-99" pos="r" purity="0.0e+00" res="-0.294413358" rms="0.0e+00"/>
                </Node>
              </Node>
              <Node Cut="-0.0251511857" IVar="2" NCoef="0" cType="1" depth="4" nType="0" pos="r" purity="0.0e+00" res="0.0e+00" rms="0.0e+00">
                <Node Cut="0.0e+00" IVar="-1" NCoef="0" cType="1" depth="5" nType="-99" pos="l" purity="0.0e+00" res="0.0408050939" rms="0.0e+00"/>
                <Node Cut="0.0e+00" IVar="-1" NCoef="0" cType="1" depth="5" nType="-99" pos="r" purity="0.0e+00" res="0.369501054" rms="0.0e+00"/>
              </Node>
            </Node>
          </Node>
          <Node Cut="0.0e+00" IVar="-1" NCoef="0" cType="1" depth="2" nType="-99" pos="r" purity="0.0e+00" res="0.369501054" rms="0.0e+00"/>
        </Node>
        <Node Cut="-0.0560455546" IVar="6" NCoef="0" cType="1" depth="1" nType="0" pos="r" purity="0.0e+00" res="0.0e+00" rms="0.0e+00">
          <Node Cut="0.683164358" IVar="5" NCoef="0" cType="1" depth="2" nType="0" pos="l" purity="0.0e+00" res="0.0e+00" rms="0.0e+00">
            <Node Cut="-0.64735657" IVar="5" NCoef="0" cType="1" depth="3" nType="0" pos="l" purity="0.0e+00" res="0.0e+00" rms="0.0e+00">
              <Node Cut="-0.707446456" IVar="5" NCoef="0" cType="1" depth="4" nType="0" pos="l" purity="0.0e+00" res="0.0e+00" rms="0.0e+00">
                <Node Cut="0.0e+00" IVar="-1" NCoef="0" cType="1" depth="5" nType="-99" pos="l" purity="0.0e+00" res="-0.369501054" rms="0.0e+00"/>
                <Node Cut="-0.199611157" IVar="1" NCoef="0" cType="1" depth="5" nType="0" pos="r" purity="0.0e+00" res="0.0e+00" rms="0.0e+00">
                  <Node Cut="0.0e+00" IVar="-1" NCoef="0" cType="1" depth="6" nType="-99" pos="l" purity="0.0e+00" res="-0.369501054" rms="0.0e+00"/>
                  <Node Cut="0.0e+00" IVar="-1" NCoef="0" cType="1" depth="6" nType="-99" pos="r" purity="0.0e+00" res="0.369501054" rms="0.0e+00"/>
                </Node>
              </Node>
              <Node Cut="-0.630948007" IVar="8" NCoef="0" cType="1" depth="4" nType="0" pos="r" purity="0.0e+00" res="0.0e+00" rms="0.0e+00">
                <Node Cut="-0.63095957" IVar="8" NCoef="0" cType="1" depth="5" nType="0" pos="l" purity="0.0e+00" res="0.0e+00" rms="0.0e+00">
                  <Node Cut="0.0e+00" IVar="-1" NCoef="0" cType="1" depth="6" nType="-99" pos="l" purity="0.0e+00" res="-0.369501054" rms="0.0e+00"/>
                  <Node Cut="0.0e+00" IVar="-1" NCoef="0" cType="1" depth="6" nType="-99" pos="r" purity="0.0e+00" res="-0.196332738" rms="0.0e+00"/>
                </Node>
                <Node Cut="-0.630882323" IVar="8" NCoef="0" cType="1" depth="5" nType="0" pos="r" purity="0.0e+00" res="0.0e+00" rms="0.0e+00">
                  <Node Cut="0.0e+00" IVar="-1" NCoef="0" cType="1" depth="6" nType="-99" pos="l" purity="0.0e+00" res="0.138583615" rms="0.0e+00"/>
                  <Node Cut="0.62853539" IVar="5" NCoef="0" cType="1" depth="6" nType="0" pos="r" purity="0.0e+00" res="0.0e+00" rms="0.0e+00">
                    <Node Cut="0.0e+00" IVar="-1" NCoef="0" cType="1" depth="7" nType="-99" pos="l" purity="0.0e+00" res="0.369501054" rms="0.0e+00"/>
                    <Node Cut="0.0e+00" IVar="-1" NCoef="0" cType="1" depth="7" nType="-99" pos="r" purity="0.0e+00" res="0.242039919" rms="0.0e+00"/>
                  </Node>
                </Node>
              </Node>
            </Node>
            <Node Cut="0.746360242" IVar="5" NCoef="0" cType="1" depth="3" nType="0" pos="r" purity="0.0e+00" res="0.0e+00" rms="0.0e+00">
              <Node Cut="0.0e+00" IVar="-1" NCoef="0" cType="1" depth="4" nType="-99" pos="l" purity="0.0e+00" res="-0.122157991" rms="0.0e+00"/>
              <Node Cut="0.0e+00" IVar="-1" NCoef="0" cType="1" depth="4" nType="-99" pos="r" purity="0.0e+00" res="-0.369501054" rms="0.0e+00"/>
            </Node>
          </Node>
          <Node Cut="0.717421353" IVar="4" NCoef="0" cType="1" depth="2" nType="0" pos="r" purity="0.0e+00" res="0.0e+00" rms="0.0e+00">
            <Node Cut="-0.678326607" IVar="4" NCoef="0" cType="1" depth="3" nType="0" pos="l" purity="0.0e+00" res="0.0e+00" rms="0.0e+00">
              <Node Cut="-0.103632689" IVar="2" NCoef="0" cType="1" depth="4" nType="0" pos="l" purity="0.0e+00" res="0.0e+00" rms="0.0e+00">
                <Node Cut="0.0e+00" IVar="-1" NCoef="0" cType="1" depth="5" nType="-99" pos="l" purity="0.0e+00" res="0.369501054" rms="0.0e+00"/>
                <Node Cut="0.0e+00" IVar="-1" NCoef="0" cType="1" depth="5" nType="-99" pos="r" purity="0.0e+00" res="-0.369501054" rms="0.0e+00"/>
              </Node>
              <Node Cut="0.645734727" IVar="4" NCoef="0" cType="1" depth="4" nType="0" pos="r" purity="0.0e+00" res="0.0e+00" rms="0.0e+00">
                <Node Cut="0.0e+00" IVar="-1" NCoef="0" cType="1" depth="5" nType="-99" pos="l" purity="0.0e+00" res="-0.369501054" rms="0.0e+00"/>
                <Node Cut="0.0e+00" IVar="-1" NCoef="0" cType="1" depth="5" nType="-99" pos="r" purity="0.0e+00" res="-0.207898721" rms="0.0e+00"/>
              </Node>
            </Node>
            <Node Cut="0.0e+00" IVar="-1" NCoef="0" cType="1" depth="3" nType="-99" pos="r" purity="0.0e+00" res="0.34992978" rms="0.0e+00"/>
          </Node>
        </Node>
      </Node>
    </BinaryTree>
    <BinaryTree boostWeight="1.0e+00" itree="1" type="DecisionTree">
      <Node Cut="-0.00906010158" IVar="10" NCoef="0" cType="1" depth="0" nType="0" pos="s" purity="0.0e+00" res="0.0e+00" rms="0.0e+00">
        <Node Cut="1.70237863" IVar="9" NCoef="0" cType="1" depth="1" nType="0" pos="l" purity="0.0e+00" res="0.0e+00" rms="0.0e+00">
          <Node Cut="-1.1656009" IVar="6" NCoef="0" cType="1" depth="2" nType="0" pos="l" purity="0.0e+00" res="0.0e+00" rms="0.0e+00">
            <Node Cut="-0.540532231" IVar="8" NCoef="0" cType="1" depth="3" nType="0" pos="l" purity="0.0e+00" res="0.0e+00" rms="0.0e+00">
              <Node Cut="0.0e+00" IVar="-1" NCoef="0" cType="1" depth="4" nType="-99" pos="l" purity="0.0e+00" res="-0.369501054" rms="0.0e+00"/>
              <Node Cut="0.0e+00" IVar="-1" NCoef="0" cType="1" depth="4" nType="-99" pos="r" purity="0.0e+00" res="0.369501054" rms="0.0e+00"/>
            </Node>
            <Node Cut="2.1507504" IVar="8" NCoef="0" cType="1" depth="3" nType="0" pos="r" purity="0.0e+00" res="0.0e+00" rms="0.0e+00">
              <Node Cut="-1.12483644" IVar="6" NCoef="0" cType="1" depth="4" nType="0" pos="l" purity="0.0e+00" res="0.0e+00" rms="0.0e+00">
                <Node Cut="0.0e+00" IVar="-1" NCoef="0" cType="1" depth="5" nType="-99" pos="l" purity="0.0e+00" res="-0.226302326" rms="0.0e+00"/>
                <Node Cut="1.79303932" IVar="8" NCoef="0" cType="1" depth="5" nType="0" pos="r" purity="0.0e+00" res="0.0e+00" rms="0.0e+00">
                  <Node Cut="0.0e+00" IVar="-1" NCoef="0" cType="1" depth="6" nType="-99" pos="l" purity="0.0e+00" res="-0.369501054" rms="0.0e+00"/>
                  <Node Cut="0.0e+00" IVar="-1" NCoef="0" cType="1" depth="6" nType="-99" pos="r" purity="0.0e+00" res="-0.278998613" rms="0.0e+00"/>
                </Node>
              </Node>
              <Node Cut="-0.0550500005" IVar="2" NCoef="0" cType="1" depth="4" nType="0" pos="r" purity="0.0e+00" res="0.0e+00" rms="0.0e+00">
                <Node Cut="0.0e+00" IVar="-1" NCoef="0" cType="1" depth="5" nType="-99" pos="l" purity="0.0e+00" res="0.0943915397" rms="0.0e+00"/>
                <Node Cut="0.0e+00" IVar="-1" NCoef="0" cType="1" depth="5" nType="-99" pos="r" purity="0.0e+00" res="0.345743179" rms="0.0e+00"/>
              </Node>
            </Node>
          </Node>
          <Node Cut="0.0e+00" IVar="-1" NCoef="0" cType="1" depth="2" nType="-99" pos="r" purity="0.0e+00" res="0.369501054" rms="0.0e+00"/>
        </Node>
        <Node Cut="-0.0396416821" IVar="6" NCoef="0" cType="1" depth="1" nType="0" pos="r" purity="0.0e+00" res="0.0e+00" rms="0.0e+00">
          <Node Cut="0.683164358" IVar="5" NCoef="0" cType="1" depth="2" nType="0" pos="l" purity="0.0e+00" res="0.0e+00" rms="0.0e+00">
            <Node Cut="-0.628764629" IVar="5" NCoef="0" cType="1" depth="3" nType="0" pos="l" purity="0.0e+00" res="0.0e+00" rms="0.0e+00">
              <Node Cut="0.697900891" IVar="4" NCoef="0" cType="1" depth="4" nType="0" pos="l" purity="0.0e+00" res="0.0e+00" rms="0.0e+00">
                <Node Cut="-0.687560439" IVar="4" NCoef="0" cType="1" depth="5" nType="0" pos="l" purity="0.0e+00" res="0.0e+00" rms="0.0e+00">
                  <Node Cut="0.0e+00" IVar="-1" NCoef="0" cType="1" depth="6" nType="-99" pos="l" purity="0.0e+00" res="0.24180004" rms="0.0e+00"/>
                  <Node Cut="0.0e+00" IVar="-1" NCoef="0" cType="1" depth="6" nType="-99" pos="r" purity="0.0e+00" res="-0.369501054" rms="0.0e+00"/>
                </Node>
                <Node Cut="0.0e+00" IVar="-1" NCoef="0" cType="1" depth="5" nType="-99" pos="r" purity="0.0e+00" res="0.31631124" rms="0.0e+00"/>
              </Node>
              <Node Cut="-0.630926132" IVar="8" NCoef="0" cType="1" depth="4" nType="0" pos="r" purity="0.0e+00" res="0.0e+00" rms="0.0e+00">
                <Node Cut="-0.630960226" IVar="8" NCoef="0" cType="1" depth="5" nType="0" pos="l" purity="0.0e+00" res="0.0e+00" rms="0.0e+00">
                  <Node Cut="0.0e+00" IVar="-1" NCoef="0" cType="1" depth="6" nType="-99" pos="l" purity="0.0e+00" res="-0.369501054" rms="0.0e+00"/>
                  <Node Cut="-0.139196187" IVar="2" NCoef="0" cType="1" depth="6" nType="0" pos="r" purity="0.0e+00" res="0.0e+00" rms="0.0e+00">
                    <Node Cut="0.0e+00" IVar="-1" NCoef="0" cType="1" depth="7" nType="-99" pos="l" purity="0.0e+00" res="0.0603429787" rms="0.0e+00"/>
                    <Node Cut="0.0e+00" IVar="-1" NCoef="0" cType="1" depth="7" nType="-99" pos="r" purity="0.0e+00" res="-0.369501054" rms="0.0e+00"/>
                  </Node>
                </Node>
                <Node Cut="-0.294396728" IVar="6" NCoef="0" cType="1" depth="5" nType="0" pos="r" purity="0.0e+00" res="0.0e+00" rms="0.0e+00">
                  <Node Cut="0.566277325" IVar="5" NCoef="0" cType="1" depth="6" nType="0" pos="l" purity="0.0e+00" res="0.0e+00" rms="0.0e+00">
                    <Node Cut="0.0e+00" IVar="-1" NCoef="0" cType="1" depth="7" nType="-99" pos="l" purity="0.0e+00" res="0.369501054" rms="0.0e+00"/>
                    <Node Cut="0.0e+00" IVar="-1" NCoef="0" cType="1" depth="7" nType="-99" pos="r" purity="0.0e+00" res="0.0976346135" rms="0.0e+00"/>
                  </Node>
                  <Node Cut="-0.136754617" IVar="2" NCoef="0" cType="1" depth="6" nType="0" pos="r" purity="0.0e+00" res="0.0e+00" rms="0.0e+00">
                    <Node Cut="0.0e+00" IVar="-1" NCoef="0" cType="1" depth="7" nType="-99" pos="l" purity="0.0e+00" res="-0.261265457" rms="0.0e+00"/>
                    <Node Cut="0.0e+00" IVar="-1" NCoef="0" cType="1" depth="7" nType="-99" pos="r" purity="0.0e+00" res="0.369501054" rms="0.0e+00"/>
                  </Node>
                </Node>
              </Node>
            </Node>
            <Node Cut="0.769158304" IVar="5" NCoef="0" cType="1" depth="3" nType="0" pos="r" purity="0.0e+00" res="0.0e+00" rms="0.0e+00">
              <Node Cut="-0.18460834" IVar="1" NCoef="0" cType="1" depth="4" nType="0" pos="l" purity="0.0e+00" res="0.0e+00" rms="0.0e+00">
                <Node Cut="0.0e+00" IVar="-1" NCoef="0" cType="1" depth="5" nType="-99" pos="l" purity="0.0e+00" res="-0.369501054" rms="0.0e+00"/>
                <Node Cut="0.0e+00" IVar="-1" NCoef="0" cType="1" depth="5" nType="-99" pos="r" purity="0.0e+00" res="0.369501054" rms="0.0e+00"/>
              </Node>
              <Node Cut="0.0e+00" IVar="-1" NCoef="0" cType="1" depth="4" nType="-99" pos="r" purity="0.0e+00" res="-0.369501054" rms="0.0e+00"/>
            </Node>
          </Node>
          <Node Cut="0.738571286" IVar="4" NCoef="0" cType="1" depth="2" nType="0" pos="r" purity="0.0e+00" res="0.0e+00" rms="0.0e+00">
            <Node Cut="-0.668890774" IVar="4" NCoef="0" cType="1" depth="3" nType="0" pos="l" purity="0.0e+00" res="0.0e+00" rms="0.0e+00">
              <Node Cut="-0.109706402" IVar="2" NCoef="0" cType="1" depth="4" nType="0" pos="l" purity="0.0e+00" res="0.0e+00" rms="0.0e+00">
                <Node Cut="0.0e+00" IVar="-1" NCoef="0" cType="1" depth="5" nType="-99" pos="l" purity="0.0e+00" res="0.369501054" rms="0.0e+00"/>
                <Node Cut="0.0e+00" IVar="-1" NCoef="0" cType="1" depth="5" nType="-99" pos="r" purity="0.0e+00" res="-0.369501054" rms="0.0e+00"/>
              </Node>
              <Node Cut="-0.128304765" IVar="2" NCoef="0" cType="1" depth="4" nType="0" pos="r" purity="0.0e+00" res="0.0e+00" rms="0.0e+00">
                <Node Cut="-0.547490358" IVar="4" NCoef="0" cType="1" depth="5" nType="0" pos="l" purity="0.0e+00" res="0.0e+00" rms="0.0e+00">
                  <Node Cut="0.0e+00" IVar="-1" NCoef="0" cType="1" depth="6" nType="-99" pos="l" purity="0.0e+00" res="0.293348014" rms="0.0e+00"/>
                  <Node Cut="0.489912719" IVar="4" NCoef="0" cType="1" depth="6" nType="0" pos="r" purity="0.0e+00" res="0.0e+00" rms="0.0e+00">
                    <Node Cut="0.0e+00" IVar="-1" NCoef="0" cType="1" depth="7" nType="-99" pos="l" purity="0.0e+00" res="-0.369501054" rms="0.0e+00"/>
                    <Node Cut="0.0e+00" IVar="-1" NCoef="0" cType="1" depth="7" nType="-99" pos="r" purity="0.0e+00" res="0.191873476" rms="0.0e+00"/>
                  </Node>
                </Node>
                <Node Cut="0.0e+00" IVar="-1" NCoef="0" cType="1" depth="5" nType="-99" pos="r" purity="0.0e+00" res="-0.369501054" rms="0.0e+00"/>
              </Node>
            </Node>
            <Node Cut="0.0e+00" IVar="-1" NCoef="0" cType="1" depth="3" nType="-99" pos="r" purity="0.0e+00" res="0.225222185" rms="0.0e+00"/>
          </Node>
        </Node>
      </Node>
    </BinaryTree>
    <BinaryTree boostWeight="1.0e+00" itree="2" type="DecisionTree">
      <Node Cut="-0.0308889728" IVar="10" NCoef="0" cType="1" depth="0" nType="0" pos="s" purity="0.0e+00" res="0.0e+00" rms="0.0e+00">
        <Node Cut="1.77024508" IVar="9" NCoef="0" cType="1" depth="1" nType="0" pos="l" purity="0.0e+00" res="0.0e+00" rms="0.0e+00">
          <Node Cut="-1.13704002" IVar="6" NCoef="0" cType="1" depth="2" nType="0" pos="l" purity="0.0e+00" res="0.0e+00" rms="0.0e+00">
            <Node Cut="-0.431952536" IVar="8" NCoef="0" cType="1" depth="3" nType="0" pos="l" purity="0.0e+00" res="0.0e+00" rms="0.0e+00">
              <Node Cut="-0.905630827" IVar="10" NCoef="0" cType="1" depth="4" nType="0" pos="l" purity="0.0e+00" res="0.0e+00" rms="0.0e+00">
                <Node Cut="0.0e+00" IVar="-1" NCoef="0" cType="1" depth="5" nType="-99" pos="l" purity="0.0e+00" res="-0.187273204" rms="0.0e+00"/>
                <Node Cut="0.0e+00" IVar="-1" NCoef="0" cType="1" depth="5" nType="-99" pos="r" purity="0.0e+00" res="-0.369501054" rms="0.0e+00"/>
              </Node>
              <Node Cut="0.0e+00" IVar="-1" NCoef="0" cType="1" depth="4" nType="-99" pos="r" purity="0.0e+00" res="0.369501054" rms="0.0e+00"/>
            </Node>
            <Node Cut="1.79303932" IVar="8" NCoef="0" cType="1" depth="3" nType="0" pos="r" purity="0.0e+00" res="0.0e+00" rms="0.0e+00">
              <Node Cut="-0.164308012" IVar="8" NCoef="0" cType="1" depth="4" nType="0" pos="l" purity="0.0e+00" res="0.0e+00" rms="0.0e+00">
                <Node Cut="-0.352894753" IVar="8" NCoef="0" cType="1" depth="5" nType="0" pos="l" purity="0.0e+00" res="0.0e+00" rms="0.0e+00">
                  <Node Cut="0.0e+00" IVar="-1" NCoef="0" cType="1" depth="6" nType="-99" pos="l" purity="0.0e+00" res="-0.369501054" rms="0.0e+00"/>
                  <Node Cut="-0.316879272" IVar="6" NCoef="0" cType="1" depth="6" nType="0" pos="r" purity="0.0e+00" res="0.0e+00" rms="0.0e+00">
                    <Node Cut="0.0e+00" IVar="-1" NCoef="0" cType="1" depth="7" nType="-99" pos="l" purity="0.0e+00" res="-0.069318004" rms="0.0e+00"/>
                    <Node Cut="0.0e+00" IVar="-1" NCoef="0" cType="1" depth="7" nType="-99" pos="r" purity="0.0e+00" res="-0.369501054" rms="0.0e+00"/>
                  </Node>
                </Node>
                <Node Cut="0.938138902" IVar="4" NCoef="0" cType="1" depth="5" nType="0" pos="r" purity="0.0e+00" res="0.0e+00" rms="0.0e+00">
                  <Node Cut="-0.916061163" IVar="4" NCoef="0" cType="1" depth="6" nType="0" pos="l" purity="0.0e+00" res="0.0e+00" rms="0.0e+00">
                    <Node Cut="0.0e+00" IVar="-1" NCoef="0" cType="1" depth="7" nType="-99" pos="l" purity="0.0e+00" res="0.369501054" rms="0.0e+00"/>
                    <Node Cut="0.0e+00" IVar="-1" NCoef="0" cType="1" depth="7" nType="-99" pos="r" purity="0.0e+00" res="-0.369501054" rms="0.0e+00"/>
                  </Node>
                  <Node Cut="0.0e+00" IVar="-1" NCoef="0" cType="1" depth="6" nType="-99" pos="r" purity="0.0e+00" res="0.369501054" rms="0.0e+00"/>
                </Node>
              </Node>
              <Node Cut="-0.131119251" IVar="6" NCoef="0" cType="1" depth="4" nType="0" pos="r" purity="0.0e+00" res="0.0e+00" rms="0.0e+00">
                <Node Cut="0.0e+00" IVar="-1" NCoef="0" cType="1" depth="5" nType="-99" pos="l" purity="0.0e+00" res="0.369501054" rms="0.0e+00"/>
                <Node Cut="0.0e+00" IVar="-1" NCoef="0" cType="1" depth="5" nType="-99" pos="r" purity="0.0e+00" res="-0.369501054" rms="0.0e+00"/>
              </Node>
            </Node>
          </Node>
          <Node Cut="0.0e+00" IVar="-1" NCoef="0" cType="1" depth="2" nType="-99" pos="r" purity="0.0e+00" res="0.369501054" rms="0.0e+00"/>
        </Node>
        <Node Cut="-0.022557985" IVar="6" NCoef="0" cType="1" depth="1" nType="0" pos="r" purity="0.0e+00" res="0.0e+00" rms="0.0e+00">
          <Node Cut="-0.62995857" IVar="8" NCoef="0" cType="1" depth="2" nType="0" pos="l" purity="0.0e+00" res="0.0e+00" rms="0.0e+00">
            <Node Cut="-0.138324842" IVar="2" NCoef="0" cType="1" depth="3" nType="0" pos="l" purity="0.0e+00" res="0.0e+00" rms="0.0e+00">
              <Node Cut="-0.505291164" IVar="0" NCoef="0" cType="1" depth="4" nType="0" pos="l" purity="0.0e+00" res="0.0e+00" rms="0.0e+00">
                <Node Cut="-0.142797709" IVar="2" NCoef="0" cType="1" depth="5" nType="0" pos="l" purity="0.0e+00" res="0.0e+00" rms="0.0e+00">
                  <Node Cut="0.0e+00" IVar="-1" NCoef="0" cType="1" depth="6" nType="-99" pos="l" purity="0.0e+00" res="-0.195979789" rms="0.0e+00"/>
                  <Node Cut="0.0e+00" IVar="-1" NCoef="0" cType="1" depth="6" nType="-99" pos="r" purity="0.0e+00" res="-0.369501054" rms="0.0e+00"/>
                </Node>
                <Node Cut="-0.312894642" IVar="1" NCoef="0" cType="1" depth="5" nType="0" pos="r" purity="0.0e+00" res="0.0e+00" rms="0.0e+00">
                  <Node Cut="-0.140939623" IVar="2" NCoef="0" cType="1" depth="6" nType="0" pos="l" purity="0.0e+00" res="0.0e+00" rms="0.0e+00">
                    <Node Cut="0.0e+00" IVar="-1" NCoef="0" cType="1" depth="7" nType="-99" pos="l" purity="0.0e+00" res="0.369501054" rms="0.0e+00"/>
                    <Node Cut="0.0e+00" IVar="-1" NCoef="0" cType="1" depth="7" nType="-99" pos="r" purity="0.0e+00" res="0.27654019" rms="0.0e+00"/>
                  </Node>
                  <Node Cut="0.0e+00" IVar="-1" NCoef="0" cType="1" depth="6" nType="-99" pos="r" purity="0.0e+00" res="0.097824946" rms="0.0e+00"/>
                </Node>
              </Node>
              <Node Cut="0.0e+00" IVar="-1" NCoef="0" cType="1" depth="4" nType="-99" pos="r" purity="0.0e+00" res="-0.369501054" rms="0.0e+00"/>
            </Node>
            <Node Cut="0.724449873" IVar="5" NCoef="0" cType="1" depth="3" nType="0" pos="r" purity="0.0e+00" res="0.0e+00" rms="0.0e+00">
              <Node Cut="-0.686935544" IVar="5" NCoef="0" cType="1" depth="4" nType="0" pos="l" purity="0.0e+00" res="0.0e+00" rms="0.0e+00">
                <Node Cut="-0.774688542" IVar="5" NCoef="0" cType="1" depth="5" nType="0" pos="l" purity="0.0e+00" res="0.0e+00" rms="0.0e+00">
                  <Node Cut="0.0e+00" IVar="-1" NCoef="0" cType="1" depth="6" nType="-99" pos="l" purity="0.0e+00" res="-0.369501054" rms="0.0e+00"/>
                  <Node Cut="0.0e+00" IVar="-1" NCoef="0" cType="1" depth="6" nType="-99" pos="r" purity="0.0e+00" res="-0.0663995892" rms="0.0e+00"/>
                </Node>
                <Node Cut="-0.538800061" IVar="6" NCoef="0" cType="1" depth="5" nType="0" pos="r" purity="0.0e+00" res="0.0e+00" rms="0.0e+00">
                  <Node Cut="-0.494167835" IVar="5" NCoef="0" cType="1" depth="6" nType="0" pos="l" purity="0.0e+00" res="0.0e+00" rms="0.0e+00">
                    <Node Cut="0.0e+00" IVar="-1" NCoef="0" cType="1" depth="7" nType="-99" pos="l" purity="0.0e+00" res="-0.369501054" rms="0.0e+00"/>
                    <Node Cut="0.0e+00" IVar="-1" NCoef="0" cType="1" depth="7" nType="-99" pos="r" purity="0.0e+00" res="0.369501054" rms="0.0e+00"/>
                  </Node>
                  <Node Cut="-0.331461132" IVar="1" NCoef="0" cType="1" depth="6" nType="0" pos="r" purity="0.0e+00" res="0.0e+00" rms="0.0e+00">
                    <Node Cut="0.0e+00" IVar="-1" NCoef="0" cType="1" depth="7" nType="-99" pos="l" purity="0.0e+00" res="-0.349770159" rms="0.0e+00"/>
                    <Node Cut="0.0e+00" IVar="-1" NCoef="0" cType="1" depth="7" nType="-99" pos="r" purity="0.0e+00" res="0.308479995" rms="0.0e+00"/>
                  </Node>
                </Node>
              </Node>
              <Node Cut="0.661748588" IVar="7" NCoef="0" cType="1" depth="4" nType="0" pos="r" purity="0.0e+00" res="0.0e+00" rms="0.0e+00">
                <Node Cut="0.841072261" IVar="5" NCoef="0" cType="1" depth="5" nType="0" pos="l" purity="0.0e+00" res="0.0e+00" rms="0.0e+00">
                  <Node Cut="0.0e+00" IVar="-1" NCoef="0" cType="1" depth="6" nType="-99" pos="l" purity="0.0e+00" res="-0.279237002" rms="0.0e+00"/>
                  <Node Cut="0.0e+00" IVar="-1" NCoef="0" cType="1" depth="6" nType="-99" pos="r" purity="0.0e+00" res="-0.369501054" rms="0.0e+00"/>
                </Node>
                <Node Cut="0.0e+00" IVar="-1" NCoef="0" cType="1" depth="5" nType="-99" pos="r" purity="0.0e+00" res="-0.20520243" rms="0.0e+00"/>
              </Node>
            </Node>
          </Node>
          <Node Cut="0.200509951" IVar="6" NCoef="0" cType="1" depth="2" nType="0" pos="r" purity="0.0e+00" res="0.0e+00" rms="0.0e+00">
            <Node Cut="-0.334311813" IVar="8" NCoef="0" cType="1" depth="3" nType="0" pos="l" purity="0.0e+00" res="0.0e+00" rms="0.0e+00">
              <Node Cut="-0.48009181" IVar="0" NCoef="0" cType="1" depth="4" nType="0" pos="l" purity="0.0e+00" res="0.0e+00" rms="0.0e+00">
                <Node Cut="0.0e+00" IVar="-1" NCoef="0" cType="1" depth="5" nType="-99" pos="l" purity="0.0e+00" res="-0.236180037" rms="0.0e+00"/>
                <Node Cut="0.0e+00" IVar="-1" NCoef="0" cType="1" depth="5" nType="-99" pos="r" purity="0.0e+00" res="-0.369501054" rms="0.0e+00"/>
              </Node>
              <Node Cut="-0.175046831" IVar="0" NCoef="0" cType="1" depth="4" nType="0" pos="r" purity="0.0e+00" res="0.0e+00" rms="0.0e+00">
                <Node Cut="0.582829833" IVar="4" NCoef="0" cType="1" depth="5" nType="0" pos="l" purity="0.0e+00" res="0.0e+00" rms="0.0e+00">
                  <Node Cut="-0.47566992" IVar="4" NCoef="0" cType="1" depth="6" nType="0" pos="l" purity="0.0e+00" res="0.0e+00" rms="0.0e+00">
                    <Node Cut="0.0e+00" IVar="-1" NCoef="0" cType="1" depth="7" nType="-99" pos="l" purity="0.0e+00" res="0.317706496" rms="0.0e+00"/>
                    <Node Cut="0.0e+00" IVar="-1" NCoef="0" cType="1" depth="7" nType="-99" pos="r" purity="0.0e+00" res="-0.263161838" rms="0.0e+00"/>
                  </Node>
                  <Node Cut="0.0e+00" IVar="-1" NCoef="0" cType="1" depth="6" nType="-99" pos="r" purity="0.0e+00" res="0.369501054" rms="0.0e+00"/>
                </Node>
                <Node Cut="0.0e+00" IVar="-1" NCoef="0" cType="1" depth="5" nType="-99" pos="r" purity="0.0e+00" res="-0.369501054" rms="0.0e+00"/>
              </Node>
            </Node>
            <Node Cut="-0.706782341" IVar="4" NCoef="0" cType="1" depth="3" nType="0" pos="r" purity="0.0e+00" res="0.0e+00" rms="0.0e+00">
              <Node Cut="0.0e+00" IVar="-1" NCoef="0" cType="1" depth="4" nType="-99" pos="l" purity="0.0e+00" res="-0.255573779" rms="0.0e+00"/>
              <Node Cut="0.0e+00" IVar="-1" NCoef="0" cType="1" depth="4" nType="-99" pos="r" purity="0.0e+00" res="-0.369501054" rms="0.0e+00"/>
            </Node>
          </Node>
        </Node>
      </Node>
    </BinaryTree>
    <BinaryTree boostWeight="1.0e+00" itree="3" type="DecisionTree">
      <Node Cut="-0.603576958" IVar="8" NCoef="0" cType="1" depth="0" nType="0" pos="s" purity="0.0e+00" res="0.0e+00" rms="0.0e+00">
        <Node Cut="-1.15269256" IVar="6" NCoef="0" cType="1" depth="1" nType="0" pos="l" purity="0.0e+00" res="0.0e+00" rms="0.0e+00">
          <Node Cut="-0.138982028" IVar="2" NCoef="0" cType="1" depth="2" nType="0" pos="l" purity="0.0e+00" res="0.0e+00" rms="0.0e+00">
            <Node Cut="0.33302778" IVar="9" NCoef="0" cType="1" depth="3" nType="0" pos="l" purity="0.0e+00" res="0.0e+00" rms="0.0e+00">
              <Node Cut="0.0e+00" IVar="-1" NCoef="0" cType="1" depth="4" nType="-99" pos="l" purity="0.0e+00" res="0.279464811" rms="0.0e+00"/>
              <Node Cut="0.0e+00" IVar="-1" NCoef="0" cType="1" depth="4" nType="-99" pos="r" purity="0.0e+00" res="0.369501054" rms="0.0e+00"/>
            </Node>
            <Node Cut="0.0e+00" IVar="-1" NCoef="0" cType="1" depth="3" nType="-99" pos="r" purity="0.0e+00" res="-0.369501054" rms="0.0e+00"/>
          </Node>
          <Node Cut="1.81411839" IVar="10" NCoef="0" cType="1" depth="2" nType="0" pos="r" purity="0.0e+00" res="0.0e+00" rms="0.0e+00">
            <Node Cut="1.65053749" IVar="9" NCoef="0" cType="1" depth="3" nType="0" pos="l" purity="0.0e+00" res="0.0e+00" rms="0.0e+00">
              <Node Cut="0.400827199" IVar="10" NCoef="0" cType="1" depth="4" nType="0" pos="l" purity="0.0e+00" res="0.0e+00" rms="0.0e+00">
                <Node Cut="0.0e+00" IVar="-1" NCoef="0" cType="1" depth="5" nType="-99" pos="l" purity="0.0e+00" res="-0.369501054" rms="0.0e+00"/>
                <Node Cut="-0.136304319" IVar="2" NCoef="0" cType="1" depth="5" nType="0" pos="r" purity="0.0e+00" res="0.0e+00" rms="0.0e+00">
                  <Node Cut="-0.494842738" IVar="0" NCoef="0" cType="1" depth="6" nType="0" pos="l" purity="0.0e+00" res="0.0e+00" rms="0.0e+00">
                    <Node Cut="0.0e+00" IVar="-1" NCoef="0" cType="1" depth="7" nType="-99" pos="l" purity="0.0e+00" res="-0.353584677" rms="0.0e+00"/>
                    <Node Cut="0.0e+00" IVar="-1" NCoef="0" cType="1" depth="7" nType="-99" pos="r" purity="0.0e+00" res="0.198924854" rms="0.0e+00"/>
                  </Node>
                  <Node Cut="-0.132944882" IVar="2" NCoef="0" cType="1" depth="6" nType="0" pos="r" purity="0.0e+00" res="0.0e+00" rms="0.0e+00">
                    <Node Cut="0.0e+00" IVar="-1" NCoef="0" cType="1" depth="7" nType="-99" pos="l" purity="0.0e+00" res="-0.306788713" rms="0.0e+00"/>
                    <Node Cut="0.0e+00" IVar="-1" NCoef="0" cType="1" depth="7" nType="-99" pos="r" purity="0.0e+00" res="-0.369501054" rms="0.0e+00"/>
                  </Node>
                </Node>
              </Node>
              <Node Cut="-0.54623419" IVar="6" NCoef="0" cType="1" depth="4" nType="0" pos="r" purity="0.0e+00" res="0.0e+00" rms="0.0e+00">
                <Node Cut="-0.762064397" IVar="6" NCoef="0" cType="1" depth="5" nType="0" pos="l" purity="0.0e+00" res="0.0e+00" rms="0.0e+00">
                  <Node Cut="0.0e+00" IVar="-1" NCoef="0" cType="1" depth="6" nType="-99" pos="l" purity="0.0e+00" res="0.262357891" rms="0.0e+00"/>
                  <Node Cut="0.0e+00" IVar="-1" NCoef="0" cType="1" depth="6" nType="-99" pos="r" purity="0.0e+00" res="0.0547827631" rms="0.0e+00"/>
                </Node>
                <Node Cut="0.0e+00" IVar="-1" NCoef="0" cType="1" depth="5" nType="-99" pos="r" purity="0.0e+00" res="-0.369501054" rms="0.0e+00"/>
              </Node>
            </Node>
            <Node Cut="-0.134980872" IVar="2" NCoef="0" cType="1" depth="3" nType="0" pos="r" purity="0.0e+00" res="0.0e+00" rms="0.0e+00">
              <Node Cut="-0.624572873" IVar="6" NCoef="0" cType="1" depth="4" nType="0" pos="l" purity="0.0e+00" res="0.0e+00" rms="0.0e+00">
                <Node Cut="1.85953248" IVar="10" NCoef="0" cType="1" depth="5" nType="0" pos="l" purity="0.0e+00" res="0.0e+00" rms="0.0e+00">
                  <Node Cut="0.0e+00" IVar="-1" NCoef="0" cType="1" depth="6" nType="-99" pos="l" purity="0.0e+00" res="0.244876429" rms="0.0e+00"/>
                  <Node Cut="0.0e+00" IVar="-1" NCoef="0" cType="1" depth="6" nType="-99" pos="r" purity="0.0e+00" res="0.369501054" rms="0.0e+00"/>
                </Node>
                <Node Cut="0.0e+00" IVar="-1" NCoef="0" cType="1" depth="5" nType="-99" pos="r" purity="0.0e+00" res="0.0234855209" rms="0.0e+00"/>
              </Node>
              <Node Cut="0.0e+00" IVar="-1" NCoef="0" cType="1" depth="4" nType="-99" pos="r" purity="0.0e+00" res="-0.343171716" rms="0.0e+00"/>
            </Node>
          </Node>
        </Node>
        <Node Cut="-0.158955887" IVar="6" NCoef="0" cType="1" depth="1" nType="0" pos="r" purity="0.0e+00" res="0.0e+00" rms="0.0e+00">
          <Node Cut="-0.87799871" IVar="6" NCoef="0" cType="1" depth="2" nType="0" pos="l" purity="0.0e+00" res="0.0e+00" rms="0.0e+00">
            <Node Cut="0.313679963" IVar="5" NCoef="0" cType="1" depth="3" nType="0" pos="l" purity="0.0e+00" res="0.0e+00" rms="0.0e+00">
              <Node Cut="-0.299747854" IVar="5" NCoef="0" cType="1" depth="4" nType="0" pos="l" purity="0.0e+00" res="0.0e+00" rms="0.0e+00">
                <Node Cut="0.0e+00" IVar="-1" NCoef="0" cType="1" depth="5" nType="-99" pos="l" purity="0.0e+00" res="-0.369501054" rms="0.0e+00"/>
                <Node Cut="0.251339495" IVar="5" NCoef="0" cType="1" depth="5" nType="0" pos="r" purity="0.0e+00" res="0.0e+00" rms="0.0e+00">
                  <Node Cut="0.0e+00" IVar="-1" NCoef="0" cType="1" depth="6" nType="-99" pos="l" purity="0.0e+00" res="0.369501054" rms="0.0e+00"/>
                  <Node Cut="0.0e+00" IVar="-1" NCoef="0" cType="1" depth="6" nType="-99" pos="r" purity="0.0e+00" res="0.277823985" rms="0.0e+00"/>
                </Node>
              </Node>
              <Node Cut="0.0e+00" IVar="-1" NCoef="0" cType="1" depth="4" nType="-99" pos="r" purity="0.0e+00" res="-0.369501054" rms="0.0e+00"/>
            </Node>
            <Node Cut="-0.729716301" IVar="5" NCoef="0" cType="1" depth="3" nType="0" pos="r" purity="0.0e+00" res="0.0e+00" rms="0.0e+00">
              <Node Cut="-0.846319079" IVar="5" NCoef="0" cType="1" depth="4" nType="0" pos="l" purity="0.0e+00" res="0.0e+00" rms="0.0e+00">
                <Node Cut="0.0e+00" IVar="-1" NCoef="0" cType="1" depth="5" nType="-99" pos="l" purity="0.0e+00" res="-0.369501054" rms="0.0e+00"/>
                <Node Cut="0.0e+00" IVar="-1" NCoef="0" cType="1" depth="5" nType="-99" pos="r" purity="0.0e+00" res="-0.214712828" rms="0.0e+00"/>
              </Node>
              <Node Cut="0.769158304" IVar="5" NCoef="0" cType="1" depth="4" nType="0" pos="r" purity="0.0e+00" res="0.0e+00" rms="0.0e+00">
                <Node Cut="-0.340301424" IVar="1" NCoef="0" cType="1" depth="5" nType="0" pos="l" purity="0.0e+00" res="0.0e+00" rms="0.0e+00">
                  <Node Cut="-0.738943338" IVar="6" NCoef="0" cType="1" depth="6" nType="0" pos="l" purity="0.0e+00" res="0.0e+00" rms="0.0e+00">
                    <Node Cut="0.0e+00" IVar="-1" NCoef="0" cType="1" depth="7" nType="-99" pos="l" purity="0.0e+00" res="0.060410969" rms="0.0e+00"/>
                    <Node Cut="0.0e+00" IVar="-1" NCoef="0" cType="1" depth="7" nType="-99" pos="r" purity="0.0e+00" res="-0.369501054" rms="0.0e+00"/>
                  </Node>
                  <Node Cut="0.556797445" IVar="4" NCoef="0" cType="1" depth="6" nType="0" pos="r" purity="0.0e+00" res="0.0e+00" rms="0.0e+00">
                    <Node Cut="0.0e+00" IVar="-1" NCoef="0" cType="1" depth="7" nType="-99" pos="l" purity="0.0e+00" res="0.217654437" rms="0.0e+00"/>
                    <Node Cut="0.0e+00" IVar="-1" NCoef="0" cType="1" depth="7" nType="-99" pos="r" purity="0.0e+00" res="0.369501054" rms="0.0e+00"/>
                  </Node>
                </Node>
                <Node Cut="0.889933765" IVar="5" NCoef="0" cType="1" depth="5" nType="0" pos="r" purity="0.0e+00" res="0.0e+00" rms="0.0e+00">
                  <Node Cut="0.0e+00" IVar="-1" NCoef="0" cType="1" depth="6" nType="-99" pos="l" purity="0.0e+00" res="-0.245958894" rms="0.0e+00"/>
                  <Node Cut="0.0e+00" IVar="-1" NCoef="0" cType="1" depth="6" nType="-99" pos="r" purity="0.0e+00" res="-0.369501054" rms="0.0e+00"/>
                </Node>
              </Node>
            </Node>
          </Node>
          <Node Cut="0.262308419" IVar="6" NCoef="0" cType="1" depth="2" nType="0" pos="r" purity="0.0e+00" res="0.0e+00" rms="0.0e+00">
            <Node Cut="-0.108918451" IVar="2" NCoef="0" cType="1" depth="3" nType="0" pos="l" purity="0.0e+00" res="0.0e+00" rms="0.0e+00">
              <Node Cut="0.603130221" IVar="4" NCoef="0" cType="1" depth="4" nType="0" pos="l" purity="0.0e+00" res="0.0e+00" rms="0.0e+00">
                <Node Cut="-0.558869362" IVar="4" NCoef="0" cType="1" depth="5" nType="0" pos="l" purity="0.0e+00" res="0.0e+00" rms="0.0e+00">
                  <Node Cut="-0.643527329" IVar="4" NCoef="0" cType="1" depth="6" nType="0" pos="l" purity="0.0e+00" res="0.0e+00" rms="0.0e+00">
                    <Node Cut="0.0e+00" IVar="-1" NCoef="0" cType="1" depth="7" nType="-99" pos="l" purity="0.0e+00" res="0.360278785" rms="0.0e+00"/>
                    <Node Cut="0.0e+00" IVar="-1" NCoef="0" cType="1" depth="7" nType="-99" pos="r" purity="0.0e+00" res="0.0484797731" rms="0.0e+00"/>
                  </Node>
                  <Node Cut="-0.131160438" IVar="2" NCoef="0" cType="1" depth="6" nType="0" pos="r" purity="0.0e+00" res="0.0e+00" rms="0.0e+00">
                    <Node Cut="0.0e+00" IVar="-1" NCoef="0" cType="1" depth="7" nType="-99" pos="l" purity="0.0e+00" res="-0.149100229" rms="0.0e+00"/>
                    <Node Cut="0.0e+00" IVar="-1" NCoef="0" cType="1" depth="7" nType="-99" pos="r" purity="0.0e+00" res="-0.369501054" rms="0.0e+00"/>
                  </Node>
                </Node>
                <Node Cut="0.671403408" IVar="4" NCoef="0" cType="1" depth="5" nType="0" pos="r" purity="0.0e+00" res="0.0e+00" rms="0.0e+00">
                  <Node Cut="0.0e+00" IVar="-1" NCoef="0" cType="1" depth="6" nType="-99" pos="l" purity="0.0e+00" res="0.162057772" rms="0.0e+00"/>
                  <Node Cut="0.634677112" IVar="3" NCoef="0" cType="1" depth="6" nType="0" pos="r" purity="0.0e+00" res="0.0e+00" rms="0.0e+00">
                    <Node Cut="0.0e+00" IVar="-1" NCoef="0" cType="1" depth="7" nType="-99" pos="l" purity="0.0e+00" res="0.369501054" rms="0.0e+00"/>
                    <Node Cut="0.0e+00" IVar="-1" NCoef="0" cType="1" depth="7" nType="-99" pos="r" purity="0.0e+00" res="0.280520529" rms="0.0e+00"/>
                  </Node>
                </Node>
              </Node>
              <Node Cut="0.323393643" IVar="1" NCoef="0" cType="1" depth="4" nType="0" pos="r" purity="0.0e+00" res="0.0e+00" rms="0.0e+00">
                <Node Cut="-0.0560455546" IVar="6" NCoef="0" cType="1" depth="5" nType="0" pos="l" purity="0.0e+00" res="0.0e+00" rms="0.0e+00">
                  <Node Cut="0.0e+00" IVar="-1" NCoef="0" cType="1" depth="6" nType="-99" pos="l" purity="0.0e+00" res="-0.299487829" rms="0.0e+00"/>
                  <Node Cut="0.0e+00" IVar="-1" NCoef="0" cType="1" depth="6" nType="-99" pos="r" purity="0.0e+00" res="-0.369501054" rms="0.0e+00"/>
                </Node>
                <Node Cut="0.0e+00" IVar="-1" NCoef="0" cType="1" depth="5" nType="-99" pos="r" purity="0.0e+00" res="-0.21314694" rms="0.0e+00"/>
              </Node>
            </Node>
            <Node Cut="-0.280911386" IVar="1" NCoef="0" cType="1" depth="3" nType="0" pos="r" purity="0.0e+00" res="0.0e+00" rms="0.0e+00">
              <Node Cut="-0.308285683" IVar="1" NCoef="0" cType="1" depth="4" nType="0" pos="l" purity="0.0e+00" res="0.0e+00" rms="0.0e+00">
                <Node Cut="0.0e+00" IVar="-1" NCoef="0" cType="1" depth="5" nType="-99" pos="l" purity="0.0e+00" res="-0.369501054" rms="0.0e+00"/>
                <Node Cut="0.0e+00" IVar="-1" NCoef="0" cType="1" depth="5" nType="-99" pos="r" purity="0.0e+00" res="-0.213304698" rms="0.0e+00"/>
              </Node>
              <Node Cut="0.305980146" IVar="6" NCoef="0" cType="1" depth="4" nType="0" pos="r" purity="0.0e+00" res="0.0e+00" rms="0.0e+00">
                <Node Cut="0.0e+00" IVar="-1" NCoef="0" cType="1" depth="5" nType="-99" pos="l" purity="0.0e+00" res="-0.297161341" rms="0.0e+00"/>
                <Node Cut="0.0e+00" IVar="-1" NCoef="0" cType="1" depth="5" nType="-99" pos="r" purity="0.0e+00" res="-0.369501054" rms="0.0e+00"/>
              </Node>
            </Node>
          </Node>
        </Node>
      </Node>
    </BinaryTree>
    <BinaryTree boostWeight="1.0e+00" itree="4" type="DecisionTree">
      <Node Cut="-0.105685703" IVar="10" NCoef="0" cType="1" depth="0" nType="0" pos="s" purity="0.0e+00" res="0.0e+00" rms="0.0e+00">
        <Node Cut="-0.368316799" IVar="8" NCoef="0" cType="1" depth="1" nType="0" pos="l" purity="0.0e+00" res="0.0e+00" rms="0.0e+00">
          <Node Cut="-1.17546833" IVar="6" NCoef="0" cType="1" depth="2" nType="0" pos="l" purity="0.0e+00" res="0.0e+00" rms="0.0e+00">
            <Node Cut="0.0e+00" IVar="-1" NCoef="0" cType="1" depth="3" nType="-99" pos="l" purity="0.0e+00" res="-0.147206619" rms="0.0e+00"/>
            <Node Cut="-0.431952536" IVar="8" NCoef="0" cType="1" depth="3" nType="0" pos="r" purity="0.0e+00" res="0.0e+00" rms="0.0e+00">
              <Node Cut="-0.50902158" IVar="8" NCoef="0" cType="1" depth="4" nType="0" pos="l" purity="0.0e+00" res="0.0e+00" rms="0.0e+00">
                <Node Cut="0.0e+00" IVar="-1" NCoef="0" cType="1" depth="5" nType="-99" pos="l" purity="0.0e+00" res="-0.369501054" rms="0.0e+00"/>
                <Node Cut="-0.119584493" IVar="0" NCoef="0" cType="1" depth="5" nType="0" pos="r" purity="0.0e+00" res="0.0e+00" rms="0.0e+00">
                  <Node Cut="0.0e+00" IVar="-1" NCoef="0" cType="1" depth="6" nType="-99" pos="l" purity="0.0e+00" res="-0.283295602" rms="0.0e+00"/>
                  <Node Cut="0.0e+00" IVar="-1" NCoef="0" cType="1" depth="6" nType="-99" pos="r" purity="0.0e+00" res="-0.369501054" rms="0.0e+00"/>
                </Node>
              </Node>
              <Node Cut="0.0e+00" IVar="-1" NCoef="0" cType="1" depth="4" nType="-99" pos="r" purity="0.0e+00" res="-0.282048225" rms="0.0e+00"/>
            </Node>
          </Node>
          <Node Cut="-0.198646456" IVar="6" NCoef="0" cType="1" depth="2" nType="0" pos="r" purity="0.0e+00" res="0.0e+00" rms="0.0e+00">
            <Node Cut="-0.667157412" IVar="10" NCoef="0" cType="1" depth="3" nType="0" pos="l" purity="0.0e+00" res="0.0e+00" rms="0.0e+00">
              <Node Cut="-0.293633997" IVar="1" NCoef="0" cType="1" depth="4" nType="0" pos="l" purity="0.0e+00" res="0.0e+00" rms="0.0e+00">
                <Node Cut="0.0e+00" IVar="-1" NCoef="0" cType="1" depth="5" nType="-99" pos="l" purity="0.0e+00" res="0.00233614352" rms="0.0e+00"/>
                <Node Cut="0.0e+00" IVar="-1" NCoef="0" cType="1" depth="5" nType="-99" pos="r" purity="0.0e+00" res="-0.330188543" rms="0.0e+00"/>
              </Node>
              <Node Cut="0.973931968" IVar="4" NCoef="0" cType="1" depth="4" nType="0" pos="r" purity="0.0e+00" res="0.0e+00" rms="0.0e+00">
                <Node Cut="-1.07164049" IVar="4" NCoef="0" cType="1" depth="5" nType="0" pos="l" purity="0.0e+00" res="0.0e+00" rms="0.0e+00">
                  <Node Cut="0.0e+00" IVar="-1" NCoef="0" cType="1" depth="6" nType="-99" pos="l" purity="0.0e+00" res="0.369501054" rms="0.0e+00"/>
                  <Node Cut="-0.134980872" IVar="2" NCoef="0" cType="1" depth="6" nType="0" pos="r" purity="0.0e+00" res="0.0e+00" rms="0.0e+00">
                    <Node Cut="0.0e+00" IVar="-1" NCoef="0" cType="1" depth="7" nType="-99" pos="l" purity="0.0e+00" res="0.264649659" rms="0.0e+00"/>
                    <Node Cut="0.0e+00" IVar="-1" NCoef="0" cType="1" depth="7" nType="-99" pos="r" purity="0.0e+00" res="-0.323400408" rms="0.0e+00"/>
                  </Node>
                </Node>
                <Node Cut="0.0e+00" IVar="-1" NCoef="0" cType="1" depth="5" nType="-99" pos="r" purity="0.0e+00" res="0.369501054" rms="0.0e+00"/>
              </Node>
            </Node>
            <Node Cut="0.140841573" IVar="6" NCoef="0" cType="1" depth="3" nType="0" pos="r" purity="0.0e+00" res="0.0e+00" rms="0.0e+00">
              <Node Cut="-0.598379016" IVar="10" NCoef="0" cType="1" depth="4" nType="0" pos="l" purity="0.0e+00" res="0.0e+00" rms="0.0e+00">
                <Node Cut="0.0e+00" IVar="-1" NCoef="0" cType="1" depth="5" nType="-99" pos="l" purity="0.0e+00" res="-0.369501054" rms="0.0e+00"/>
                <Node Cut="0.0e+00" IVar="-1" NCoef="0" cType="1" depth="5" nType="-99" pos="r" purity="0.0e+00" res="-0.0455816537" rms="0.0e+00"/>
              </Node>
              <Node Cut="-0.2638385" IVar="1" NCoef="0" cType="1" depth="4" nType="0" pos="r" purity="0.0e+00" res="0.0e+00" rms="0.0e+00">
                <Node Cut="0.0e+00" IVar="-1" NCoef="0" cType="1" depth="5" nType="-99" pos="l" purity="0.0e+00" res="-0.253181636" rms="0.0e+00"/>
                <Node Cut="0.0e+00" IVar="-1" NCoef="0" cType="1" depth="5" nType="-99" pos="r" purity="0.0e+00" res="-0.369501054" rms="0.0e+00"/>
              </Node>
            </Node>
          </Node>
        </Node>
        <Node Cut="-0.337712795" IVar="6" NCoef="0" cType="1" depth="1" nType="0" pos="r" purity="0.0e+00" res="0.0e+00" rms="0.0e+00">
          <Node Cut="-0.976035595" IVar="6" NCoef="0" cType="1" depth="2" nType="0" pos="l" purity="0.0e+00" res="0.0e+00" rms="0.0e+00">
            <Node Cut="0.260227621" IVar="5" NCoef="0" cType="1" depth="3" nType="0" pos="l" purity="0.0e+00" res="0.0e+00" rms="0.0e+00">
              <Node Cut="-0.218642965" IVar="5" NCoef="0" cType="1" depth="4" nType="0" pos="l" purity="0.0e+00" res="0.0e+00" rms="0.0e+00">
                <Node Cut="0.0e+00" IVar="-1" NCoef="0" cType="1" depth="5" nType="-99" pos="l" purity="0.0e+00" res="-0.348595679" rms="0.0e+00"/>
                <Node Cut="0.0e+00" IVar="-1" NCoef="0" cType="1" depth="5" nType="-99" pos="r" purity="0.0e+00" res="0.369501054" rms="0.0e+00"/>
              </Node>
              <Node Cut="0.0e+00" IVar="-1" NCoef="0" cType="1" depth="4" nType="-99" pos="r" purity="0.0e+00" res="-0.369501054" rms="0.0e+00"/>
            </Node>
            <Node Cut="-0.599512756" IVar="8" NCoef="0" cType="1" depth="3" nType="0" pos="r" purity="0.0e+00" res="0.0e+00" rms="0.0e+00">
              <Node Cut="-0.134238049" IVar="2" NCoef="0" cType="1" depth="4" nType="0" pos="l" purity="0.0e+00" res="0.0e+00" rms="0.0e+00">
                <Node Cut="-0.52689141" IVar="0" NCoef="0" cType="1" depth="5" nType="0" pos="l" purity="0.0e+00" res="0.0e+00" rms="0.0e+00">
                  <Node Cut="-0.552371979" IVar="0" NCoef="0" cType="1" depth="6" nType="0" pos="l" purity="0.0e+00" res="0.0e+00" rms="0.0e+00">
                    <Node Cut="0.0e+00" IVar="-1" NCoef="0" cType="1" depth="7" nType="-99" pos="l" purity="0.0e+00" res="-0.369501054" rms="0.0e+00"/>
                    <Node Cut="0.0e+00" IVar="-1" NCoef="0" cType="1" depth="7" nType="-99" pos="r" purity="0.0e+00" res="-0.315993607" rms="0.0e+00"/>
                  </Node>
                  <Node Cut="-0.449058205" IVar="0" NCoef="0" cType="1" depth="6" nType="0" pos="r" purity="0.0e+00" res="0.0e+00" rms="0.0e+00">
                    <Node Cut="0.0e+00" IVar="-1" NCoef="0" cType="1" depth="7" nType="-99" pos="l" purity="0.0e+00" res="-0.0235845018" rms="0.0e+00"/>
                    <Node Cut="0.0e+00" IVar="-1" NCoef="0" cType="1" depth="7" nType="-99" pos="r" purity="0.0e+00" res="0.252423257" rms="0.0e+00"/>
                  </Node>
                </Node>
                <Node Cut="0.485929459" IVar="5" NCoef="0" cType="1" depth="5" nType="0" pos="r" purity="0.0e+00" res="0.0e+00" rms="0.0e+00">
                  <Node Cut="-0.162336171" IVar="0" NCoef="0" cType="1" depth="6" nType="0" pos="l" purity="0.0e+00" res="0.0e+00" rms="0.0e+00">
                    <Node Cut="0.0e+00" IVar="-1" NCoef="0" cType="1" depth="7" nType="-99" pos="l" purity="0.0e+00" res="-0.369501054" rms="0.0e+00"/>
                    <Node Cut="0.0e+00" IVar="-1" NCoef="0" cType="1" depth="7" nType="-99" pos="r" purity="0.0e+00" res="-0.085469164" rms="0.0e+00"/>
                  </Node>
                  <Node Cut="0.0e+00" IVar="-1" NCoef="0" cType="1" depth="6" nType="-99" pos="r" purity="0.0e+00" res="-0.369501054" rms="0.0e+00"/>
                </Node>
              </Node>
              <Node Cut="-0.502321541" IVar="4" NCoef="0" cType="1" depth="4" nType="0" pos="r" purity="0.0e+00" res="0.0e+00" rms="0.0e+00">
                <Node Cut="-0.659943521" IVar="4" NCoef="0" cType="1" depth="5" nType="0" pos="l" purity="0.0e+00" res="0.0e+00" rms="0.0e+00">
                  <Node Cut="0.0e+00" IVar="-1" NCoef="0" cType="1" depth="6" nType="-99" pos="l" purity="0.0e+00" res="0.369501054" rms="0.0e+00"/>
                  <Node Cut="-0.542790949" IVar="0" NCoef="0" cType="1" depth="6" nType="0" pos="r" purity="0.0e+00" res="0.0e+00" rms="0.0e+00">
                    <Node Cut="0.0e+00" IVar="-1" NCoef="0" cType="1" depth="7" nType="-99" pos="l" purity="0.0e+00" res="-0.0664205775" rms="0.0e+00"/>
                    <Node Cut="0.0e+00" IVar="-1" NCoef="0" cType="1" depth="7" nType="-99" pos="r" purity="0.0e+00" res="0.313875288" rms="0.0e+00"/>
                  </Node>
                </Node>
                <Node Cut="0.480127871" IVar="4" NCoef="0" cType="1" depth="5" nType="0" pos="r" purity="0.0e+00" res="0.0e+00" rms="0.0e+00">
                  <Node Cut="-0.13361685" IVar="2" NCoef="0" cType="1" depth="6" nType="0" pos="l" purity="0.0e+00" res="0.0e+00" rms="0.0e+00">
                    <Node Cut="0.0e+00" IVar="-1" NCoef="0" cType="1" depth="7" nType="-99" pos="l" purity="0.0e+00" res="0.0637087747" rms="0.0e+00"/>
                    <Node Cut="0.0e+00" IVar="-1" NCoef="0" cType="1" depth="7" nType="-99" pos="r" purity="0.0e+00" res="-0.351285189" rms="0.0e+00"/>
                  </Node>
                  <Node Cut="0.645734727" IVar="4" NCoef="0" cType="1" depth="6" nType="0" pos="r" purity="0.0e+00" res="0.0e+00" rms="0.0e+00">
                    <Node Cut="0.0e+00" IVar="-1" NCoef="0" cType="1" depth="7" nType="-99" pos="l" purity="0.0e+00" res="0.265657604" rms="0.0e+00"/>
                    <Node Cut="0.0e+00" IVar="-1" NCoef="0" cType="1" depth="7" nType="-99" pos="r" purity="0.0e+00" res="0.369501054" rms="0.0e+00"/>
                  </Node>
                </Node>
              </Node>
            </Node>
          </Node>
          <Node Cut="0.262308419" IVar="6" NCoef="0" cType="1" depth="2" nType="0" pos="r" purity="0.0e+00" res="0.0e+00" rms="0.0e+00">
            <Node Cut="-0.498035759" IVar="8" NCoef="0" cType="1" depth="3" nType="0" pos="l" purity="0.0e+00" res="0.0e+00" rms="0.0e+00">
              <Node Cut="-0.487614751" IVar="4" NCoef="0" cType="1" depth="4" nType="0" pos="l" purity="0.0e+00" res="0.0e+00" rms="0.0e+00">
                <Node Cut="0.0e+00" IVar="-1" NCoef="0" cType="1" depth="5" nType="-99" pos="l" purity="0.0e+00" res="-0.141267747" rms="0.0e+00"/>
                <Node Cut="0.489912719" IVar="4" NCoef="0" cType="1" depth="5" nType="0" pos="r" purity="0.0e+00" res="0.0e+00" rms="0.0e+00">
                  <Node Cut="0.0e+00" IVar="-1" NCoef="0" cType="1" depth="6" nType="-99" pos="l" purity="0.0e+00" res="-0.369501054" rms="0.0e+00"/>
                  <Node Cut="0.0e+00" IVar="-1" NCoef="0" cType="1" depth="6" nType="-99" pos="r" purity="0.0e+00" res="-0.146694064" rms="0.0e+00"/>
                </Node>
              </Node>
              <Node Cut="-0.627715349" IVar="4" NCoef="0" cType="1" depth="4" nType="0" pos="r" purity="0.0e+00" res="0.0e+00" rms="0.0e+00">
                <Node Cut="-0.717071235" IVar="4" NCoef="0" cType="1" depth="5" nType="0" pos="l" purity="0.0e+00" res="0.0e+00" rms="0.0e+00">
                  <Node Cut="-0.0560455546" IVar="6" NCoef="0" cType="1" depth="6" nType="0" pos="l" purity="0.0e+00" res="0.0e+00" rms="0.0e+00">
                    <Node Cut="0.0e+00" IVar="-1" NCoef="0" cType="1" depth="7" nType="-99" pos="l" purity="0.0e+00" res="0.369501054" rms="0.0e+00"/>
                    <Node Cut="0.0e+00" IVar="-1" NCoef="0" cType="1" depth="7" nType="-99" pos="r" purity="0.0e+00" res="0.296452105" rms="0.0e+00"/>
                  </Node>
                  <Node Cut="1.54435909" IVar="9" NCoef="0" cType="1" depth="6" nType="0" pos="r" purity="0.0e+00" res="0.0e+00" rms="0.0e+00">
                    <Node Cut="0.0e+00" IVar="-1" NCoef="0" cType="1" depth="7" nType="-99" pos="l" purity="0.0e+00" res="0.11591848" rms="0.0e+00"/>
                    <Node Cut="0.0e+00" IVar="-1" NCoef="0" cType="1" depth="7" nType="-99" pos="r" purity="0.0e+00" res="0.31091249" rms="0.0e+00"/>
                  </Node>
                </Node>
                <Node Cut="0.556797445" IVar="4" NCoef="0" cType="1" depth="5" nType="0" pos="r" purity="0.0e+00" res="0.0e+00" rms="0.0e+00">
                  <Node Cut="-0.497145414" IVar="4" NCoef="0" cType="1" depth="6" nType="0" pos="l" purity="0.0e+00" res="0.0e+00" rms="0.0e+00">
                    <Node Cut="0.0e+00" IVar="-1" NCoef="0" cType="1" depth="7" nType="-99" pos="l" purity="0.0e+00" res="0.074600853" rms="0.0e+00"/>
                    <Node Cut="0.0e+00" IVar="-1" NCoef="0" cType="1" depth="7" nType="-99" pos="r" purity="0.0e+00" res="-0.367278725" rms="0.0e+00"/>
                  </Node>
                  <Node Cut="0.782845438" IVar="4" NCoef="0" cType="1" depth="6" nType="0" pos="r" purity="0.0e+00" res="0.0e+00" rms="0.0e+00">
                    <Node Cut="0.0e+00" IVar="-1" NCoef="0" cType="1" depth="7" nType="-99" pos="l" purity="0.0e+00" res="0.207514077" rms="0.0e+00"/>
                    <Node Cut="0.0e+00" IVar="-1" NCoef="0" cType="1" depth="7" nType="-99" pos="r" purity="0.0e+00" res="0.369501054" rms="0.0e+00"/>
                  </Node>
                </Node>
              </Node>
            </Node>
            <Node Cut="-0.123458169" IVar="2" NCoef="0" cType="1" depth="3" nType="0" pos="r" purity="0.0e+00" res="0.0e+00" rms="0.0e+00">
              <Node Cut="-0.0836002454" IVar="8" NCoef="0" cType="1" depth="4" nType="0" pos="l" purity="0.0e+00" res="0.0e+00" rms="0.0e+00">
                <Node Cut="0.0e+00" IVar="-1" NCoef="0" cType="1" depth="5" nType="-99" pos="l" purity="0.0e+00" res="-0.359527677" rms="0.0e+00"/>
                <Node Cut="0.0e+00" IVar="-1" NCoef="0" cType="1" depth="5" nType="-99" pos="r" purity="0.0e+00" res="-0.11671032" rms="0.0e+00"/>
              </Node>
              <Node Cut="0.0e+00" IVar="-1" NCoef="0" cType="1" depth="4" nType="-99" pos="r" purity="0.0e+00" res="-0.369501054" rms="0.0e+00"/>
            </Node>
          </Node>
        </Node>
      </Node>
    </BinaryTree>
    <BinaryTree boostWeight="1.0e+00" itree="5" type="DecisionTree">
      <Node Cut="-0.622215986" IVar="8" NCoef="0" cType="1" depth="0" nType="0" pos="s" purity="0.0e+00" res="0.0e+00" rms="0.0e+00">
        <Node Cut="0.358829528" IVar="10" NCoef="0" cType="1" depth="1" nType="0" pos="l" purity="0.0e+00" res="0.0e+00" rms="0.0e+00">
          <Node Cut="-1.1656009" IVar="6" NCoef="0" cType="1" depth="2" nType="0" pos="l" purity="0.0e+00" res="0.0e+00" rms="0.0e+00">
            <Node Cut="0.0e+00" IVar="-1" NCoef="0" cType="1" depth="3" nType="-99" pos="l" purity="0.0e+00" res="-0.105714098" rms="0.0e+00"/>
            <Node Cut="-0.296409309" IVar="1" NCoef="0" cType="1" depth="3" nType="0" pos="r" purity="0.0e+00" res="0.0e+00" rms="0.0e+00">
              <Node Cut="-0.383857429" IVar="0" NCoef="0" cType="1" depth="4" nType="0" pos="l" purity="0.0e+00" res="0.0e+00" rms="0.0e+00">
                <Node Cut="-0.630960226" IVar="8" NCoef="0" cType="1" depth="5" nType="0" pos="l" purity="0.0e+00" res="0.0e+00" rms="0.0e+00">
                  <Node Cut="-0.466048956" IVar="0" NCoef="0" cType="1" depth="6" nType="0" pos="l" purity="0.0e+00" res="0.0e+00" rms="0.0e+00">
                    <Node Cut="0.0e+00" IVar="-1" NCoef="0" cType="1" depth="7" nType="-99" pos="l" purity="0.0e+00" res="-0.369501054" rms="0.0e+00"/>
                    <Node Cut="0.0e+00" IVar="-1" NCoef="0" cType="1" depth="7" nType="-99" pos="r" purity="0.0e+00" res="-0.297967464" rms="0.0e+00"/>
                  </Node>
                  <Node Cut="0.0829226226" IVar="6" NCoef="0" cType="1" depth="6" nType="0" pos="r" purity="0.0e+00" res="0.0e+00" rms="0.0e+00">
                    <Node Cut="0.0e+00" IVar="-1" NCoef="0" cType="1" depth="7" nType="-99" pos="l" purity="0.0e+00" res="-0.283776402" rms="0.0e+00"/>
                    <Node Cut="0.0e+00" IVar="-1" NCoef="0" cType="1" depth="7" nType="-99" pos="r" purity="0.0e+00" res="-0.369501054" rms="0.0e+00"/>
                  </Node>
                </Node>
                <Node Cut="0.0e+00" IVar="-1" NCoef="0" cType="1" depth="5" nType="-99" pos="r" purity="0.0e+00" res="0.0819823369" rms="0.0e+00"/>
              </Node>
              <Node Cut="0.0e+00" IVar="-1" NCoef="0" cType="1" depth="4" nType="-99" pos="r" purity="0.0e+00" res="-0.369501054" rms="0.0e+00"/>
            </Node>
          </Node>
          <Node Cut="-0.603618562" IVar="6" NCoef="0" cType="1" depth="2" nType="0" pos="r" purity="0.0e+00" res="0.0e+00" rms="0.0e+00">
            <Node Cut="-0.137725756" IVar="2" NCoef="0" cType="1" depth="3" nType="0" pos="l" purity="0.0e+00" res="0.0e+00" rms="0.0e+00">
              <Node Cut="-0.537291169" IVar="0" NCoef="0" cType="1" depth="4" nType="0" pos="l" purity="0.0e+00" res="0.0e+00" rms="0.0e+00">
                <Node Cut="0.0e+00" IVar="-1" NCoef="0" cType="1" depth="5" nType="-99" pos="l" purity="0.0e+00" res="-0.137338072" rms="0.0e+00"/>
                <Node Cut="-0.769682765" IVar="6" NCoef="0" cType="1" depth="5" nType="0" pos="r" purity="0.0e+00" res="0.0e+00" rms="0.0e+00">
                  <Node Cut="-0.140939623" IVar="2" NCoef="0" cType="1" depth="6" nType="0" pos="l" purity="0.0e+00" res="0.0e+00" rms="0.0e+00">
                    <Node Cut="0.0e+00" IVar="-1" NCoef="0" cType="1" depth="7" nType="-99" pos="l" purity="0.0e+00" res="0.369501054" rms="0.0e+00"/>
                    <Node Cut="0.0e+00" IVar="-1" NCoef="0" cType="1" depth="7" nType="-99" pos="r" purity="0.0e+00" res="0.199672788" rms="0.0e+00"/>
                  </Node>
                  <Node Cut="0.0e+00" IVar="-1" NCoef="0" cType="1" depth="6" nType="-99" pos="r" purity="0.0e+00" res="0.166063681" rms="0.0e+00"/>
                </Node>
              </Node>
              <Node Cut="-0.236274078" IVar="0" NCoef="0" cType="1" depth="4" nType="0" pos="r" purity="0.0e+00" res="0.0e+00" rms="0.0e+00">
                <Node Cut="0.0e+00" IVar="-1" NCoef="0" cType="1" depth="5" nType="-99" pos="l" purity="0.0e+00" res="-0.369501054" rms="0.0e+00"/>
                <Node Cut="0.0e+00" IVar="-1" NCoef="0" cType="1" depth="5" nType="-99" pos="r" purity="0.0e+00" res="-0.00743005425" rms="0.0e+00"/>
              </Node>
            </Node>
            <Node Cut="-0.491060764" IVar="6" NCoef="0" cType="1" depth="3" nType="0" pos="r" purity="0.0e+00" res="0.0e+00" rms="0.0e+00">
              <Node Cut="0.0e+00" IVar="-1" NCoef="0" cType="1" depth="4" nType="-99" pos="l" purity="0.0e+00" res="-0.14484176" rms="0.0e+00"/>
              <Node Cut="-0.513669789" IVar="0" NCoef="0" cType="1" depth="4" nType="0" pos="r" purity="0.0e+00" res="0.0e+00" rms="0.0e+00">
                <Node Cut="0.0e+00" IVar="-1" NCoef="0" cType="1" depth="5" nType="-99" pos="l" purity="0.0e+00" res="-0.268116891" rms="0.0e+00"/>
                <Node Cut="0.0e+00" IVar="-1" NCoef="0" cType="1" depth="5" nType="-99" pos="r" purity="0.0e+00" res="-0.369501054" rms="0.0e+00"/>
              </Node>
            </Node>
          </Node>
        </Node>
        <Node Cut="-0.212053031" IVar="6" NCoef="0" cType="1" depth="1" nType="0" pos="r" purity="0.0e+00" res="0.0e+00" rms="0.0e+00">
          <Node Cut="-0.965697885" IVar="6" NCoef="0" cType="1" depth="2" nType="0" pos="l" purity="0.0e+00" res="0.0e+00" rms="0.0e+00">
            <Node Cut="0.296952277" IVar="5" NCoef="0" cType="1" depth="3" nType="0" pos="l" purity="0.0e+00" res="0.0e+00" rms="0.0e+00">
              <Node Cut="-0.237188369" IVar="5" NCoef="0" cType="1" depth="4" nType="0" pos="l" purity="0.0e+00" res="0.0e+00" rms="0.0e+00">
                <Node Cut="0.0e+00" IVar="-1" NCoef="0" cType="1" depth="5" nType="-99" pos="l" purity="0.0e+00" res="-0.237339497" rms="0.0e+00"/>
                <Node Cut="0.192117155" IVar="5" NCoef="0" cType="1" depth="5" nType="0" pos="r" purity="0.0e+00" res="0.0e+00" rms="0.0e+00">
                  <Node Cut="0.0e+00" IVar="-1" NCoef="0" cType="1" depth="6" nType="-99" pos="l" purity="0.0e+00" res="0.369501054" rms="0.0e+00"/>
                  <Node Cut="0.0e+00" IVar="-1" NCoef="0" cType="1" depth="6" nType="-99" pos="r" purity="0.0e+00" res="0.226551041" rms="0.0e+00"/>
                </Node>
              </Node>
              <Node Cut="0.0e+00" IVar="-1" NCoef="0" cType="1" depth="4" nType="-99" pos="r" purity="0.0e+00" res="-0.330767244" rms="0.0e+00"/>
            </Node>
            <Node Cut="1.78540778" IVar="9" NCoef="0" cType="1" depth="3" nType="0" pos="r" purity="0.0e+00" res="0.0e+00" rms="0.0e+00">
              <Node Cut="-0.59440428" IVar="5" NCoef="0" cType="1" depth="4" nType="0" pos="l" purity="0.0e+00" res="0.0e+00" rms="0.0e+00">
                <Node Cut="-0.470557094" IVar="7" NCoef="0" cType="1" depth="5" nType="0" pos="l" purity="0.0e+00" res="0.0e+00" rms="0.0e+00">
                  <Node Cut="-0.774688542" IVar="5" NCoef="0" cType="1" depth="6" nType="0" pos="l" purity="0.0e+00" res="0.0e+00" rms="0.0e+00">
                    <Node Cut="0.0e+00" IVar="-1" NCoef="0" cType="1" depth="7" nType="-99" pos="l" purity="0.0e+00" res="-0.308626294" rms="0.0e+00"/>
                    <Node Cut="0.0e+00" IVar="-1" NCoef="0" cType="1" depth="7" nType="-99" pos="r" purity="0.0e+00" res="0.0815014839" rms="0.0e+00"/>
                  </Node>
                  <Node Cut="0.0e+00" IVar="-1" NCoef="0" cType="1" depth="6" nType="-99" pos="r" purity="0.0e+00" res="-0.369501054" rms="0.0e+00"/>
                </Node>
                <Node Cut="0.581212044" IVar="5" NCoef="0" cType="1" depth="5" nType="0" pos="r" purity="0.0e+00" res="0.0e+00" rms="0.0e+00">
                  <Node Cut="-0.346488267" IVar="1" NCoef="0" cType="1" depth="6" nType="0" pos="l" purity="0.0e+00" res="0.0e+00" rms="0.0e+00">
                    <Node Cut="0.0e+00" IVar="-1" NCoef="0" cType="1" depth="7" nType="-99" pos="l" purity="0.0e+00" res="-0.369501054" rms="0.0e+00"/>
                    <Node Cut="0.0e+00" IVar="-1" NCoef="0" cType="1" depth="7" nType="-99" pos="r" purity="0.0e+00" res="0.163239866" rms="0.0e+00"/>
                  </Node>
                  <Node Cut="0.08719448" IVar="2" NCoef="0" cType="1" depth="6" nType="0" pos="r" purity="0.0e+00" res="0.0e+00" rms="0.0e+00">
                    <Node Cut="0.0e+00" IVar="-1" NCoef="0" cType="1" depth="7" nType="-99" pos="l" purity="0.0e+00" res="-0.355432928" rms="0.0e+00"/>
                    <Node Cut="0.0e+00" IVar="-1" NCoef="0" cType="1" depth="7" nType="-99" pos="r" purity="0.0e+00" res="0.369501054" rms="0.0e+00"/>
                  </Node>
                </Node>
              </Node>
              <Node Cut="0.0e+00" IVar="-1" NCoef="0" cType="1" depth="4" nType="-99" pos="r" purity="0.0e+00" res="0.369501054" rms="0.0e+00"/>
            </Node>
          </Node>
          <Node Cut="0.283763915" IVar="6" NCoef="0" cType="1" depth="2" nType="0" pos="r" purity="0.0e+00" res="0.0e+00" rms="0.0e+00">
            <Node Cut="-0.752048552" IVar="5" NCoef="0" cType="1" depth="3" nType="0" pos="l" purity="0.0e+00" res="0.0e+00" rms="0.0e+00">
              <Node Cut="-0.993021786" IVar="5" NCoef="0" cType="1" depth="4" nType="0" pos="l" purity="0.0e+00" res="0.0e+00" rms="0.0e+00">
                <Node Cut="0.0e+00" IVar="-1" NCoef="0" cType="1" depth="5" nType="-99" pos="l" purity="0.0e+00" res="-0.369501054" rms="0.0e+00"/>
                <Node Cut="0.0e+00" IVar="-1" NCoef="0" cType="1" depth="5" nType="-99" pos="r" purity="0.0e+00" res="-0.299869984" rms="0.0e+00"/>
              </Node>
              <Node Cut="0.769158304" IVar="5" NCoef="0" cType="1" depth="4" nType="0" pos="r" purity="0.0e+00" res="0.0e+00" rms="0.0e+00">
                <Node Cut="0.556797445" IVar="4" NCoef="0" cType="1" depth="5" nType="0" pos="l" purity="0.0e+00" res="0.0e+00" rms="0.0e+00">
                  <Node Cut="-0.472088456" IVar="4" NCoef="0" cType="1" depth="6" nType="0" pos="l" purity="0.0e+00" res="0.0e+00" rms="0.0e+00">
                    <Node Cut="0.0e+00" IVar="-1" NCoef="0" cType="1" depth="7" nType="-99" pos="l" purity="0.0e+00" res="0.184361458" rms="0.0e+00"/>
                    <Node Cut="0.0e+00" IVar="-1" NCoef="0" cType="1" depth="7" nType="-99" pos="r" purity="0.0e+00" res="-0.225577191" rms="0.0e+00"/>
                  </Node>
                  <Node Cut="0.806195378" IVar="4" NCoef="0" cType="1" depth="6" nType="0" pos="r" purity="0.0e+00" res="0.0e+00" rms="0.0e+00">
                    <Node Cut="0.0e+00" IVar="-1" NCoef="0" cType="1" depth="7" nType="-99" pos="l" purity="0.0e+00" res="0.181053236" rms="0.0e+00"/>
                    <Node Cut="0.0e+00" IVar="-1" NCoef="0" cType="1" depth="7" nType="-99" pos="r" purity="0.0e+00" res="0.353557855" rms="0.0e+00"/>
                  </Node>
                </Node>
                <Node Cut="0.967135847" IVar="5" NCoef="0" cType="1" depth="5" nType="0" pos="r" purity="0.0e+00" res="0.0e+00" rms="0.0e+00">
                  <Node Cut="0.0e+00" IVar="-1" NCoef="0" cType="1" depth="6" nType="-99" pos="l" purity="0.0e+00" res="-0.2445236" rms="0.0e+00"/>
                  <Node Cut="0.0e+00" IVar="-1" NCoef="0" cType="1" depth="6" nType="-99" pos="r" purity="0.0e+00" res="-0.369501054" rms="0.0e+00"/>
                </Node>
              </Node>
            </Node>
            <Node Cut="-0.267880887" IVar="1" NCoef="0" cType="1" depth="3" nType="0" pos="r" purity="0.0e+00" res="0.0e+00" rms="0.0e+00">
              <Node Cut="-1.00277579" IVar="7" NCoef="0" cType="1" depth="4" nType="0" pos="l" purity="0.0e+00" res="0.0e+00" rms="0.0e+00">
                <Node Cut="0.0e+00" IVar="-1" NCoef="0" cType="1" depth="5" nType="-99" pos="l" purity="0.0e+00" res="-0.269392908" rms="0.0e+00"/>
                <Node Cut="0.0e+00" IVar="-1" NCoef="0" cType="1" depth="5" nType="-99" pos="r" purity="0.0e+00" res="-0.107728176" rms="0.0e+00"/>
              </Node>
              <Node Cut="-0.122506827" IVar="2" NCoef="0" cType="1" depth="4" nType="0" pos="r" purity="0.0e+00" res="0.0e+00" rms="0.0e+00">
                <Node Cut="0.0e+00" IVar="-1" NCoef="0" cType="1" depth="5" nType="-99" pos="l" purity="0.0e+00" res="-0.309501112" rms="0.0e+00"/>
                <Node Cut="0.0e+00" IVar="-1" NCoef="0" cType="1" depth="5" nType="-99" pos="r" purity="0.0e+00" res="-0.369501054" rms="0.0e+00"/>
              </Node>
            </Node>
          </Node>
        </Node>
      </Node>
    </BinaryTree>
    <BinaryTree boostWeight="1.0e+00" itree="6" type="DecisionTree">
      <Node Cut="-0.627227962" IVar="8" NCoef="0" cType="1" depth="0" nType="0" pos="s" purity="0.0e+00" res="0.0e+00" rms="0.0e+00">
        <Node Cut="0.325243413" IVar="10" NCoef="0" cType="1" depth="1" nType="0" pos="l" purity="0.0e+00" res="0.0e+00" rms="0.0e+00">
          <Node Cut="-0.2638385" IVar="1" NCoef="0" cType="1" depth="2" nType="0" pos="l" purity="0.0e+00" res="0.0e+00" rms="0.0e+00">
            <Node Cut="-0.351925433" IVar="0" NCoef="0" cType="1" depth="3" nType="0" pos="l" purity="0.0e+00" res="0.0e+00" rms="0.0e+00">
              <Node Cut="-0.63095516" IVar="8" NCoef="0" cType="1" depth="4" nType="0" pos="l" purity="0.0e+00" res="0.0e+00" rms="0.0e+00">
                <Node Cut="-0.305663526" IVar="10" NCoef="0" cType="1" depth="5" nType="0" pos="l" purity="0.0e+00" res="0.0e+00" rms="0.0e+00">
                  <Node Cut="-0.347612619" IVar="6" NCoef="0" cType="1" depth="6" nType="0" pos="l" purity="0.0e+00" res="0.0e+00" rms="0.0e+00">
                    <Node Cut="0.0e+00" IVar="-1" NCoef="0" cType="1" depth="7" nType="-99" pos="l" purity="0.0e+00" res="-0.337013453" rms="0.0e+00"/>
                    <Node Cut="0.0e+00" IVar="-1" NCoef="0" cType="1" depth="7" nType="-99" pos="r" purity="0.0e+00" res="-0.369501054" rms="0.0e+00"/>
                  </Node>
                  <Node Cut="0.0e+00" IVar="-1" NCoef="0" cType="1" depth="6" nType="-99" pos="r" purity="0.0e+00" res="-0.252240181" rms="0.0e+00"/>
                </Node>
                <Node Cut="0.0647333413" IVar="6" NCoef="0" cType="1" depth="5" nType="0" pos="r" purity="0.0e+00" res="0.0e+00" rms="0.0e+00">
                  <Node Cut="0.138775662" IVar="5" NCoef="0" cType="1" depth="6" nType="0" pos="l" purity="0.0e+00" res="0.0e+00" rms="0.0e+00">
                    <Node Cut="0.0e+00" IVar="-1" NCoef="0" cType="1" depth="7" nType="-99" pos="l" purity="0.0e+00" res="-0.157262817" rms="0.0e+00"/>
                    <Node Cut="0.0e+00" IVar="-1" NCoef="0" cType="1" depth="7" nType="-99" pos="r" purity="0.0e+00" res="-0.267260611" rms="0.0e+00"/>
                  </Node>
                  <Node Cut="0.0e+00" IVar="-1" NCoef="0" cType="1" depth="6" nType="-99" pos="r" purity="0.0e+00" res="-0.369501054" rms="0.0e+00"/>
                </Node>
              </Node>
              <Node Cut="-0.282620132" IVar="1" NCoef="0" cType="1" depth="4" nType="0" pos="r" purity="0.0e+00" res="0.0e+00" rms="0.0e+00">
                <Node Cut="-0.231286466" IVar="0" NCoef="0" cType="1" depth="5" nType="0" pos="l" purity="0.0e+00" res="0.0e+00" rms="0.0e+00">
                  <Node Cut="0.0e+00" IVar="-1" NCoef="0" cType="1" depth="6" nType="-99" pos="l" purity="0.0e+00" res="-0.0662417188" rms="0.0e+00"/>
                  <Node Cut="0.0e+00" IVar="-1" NCoef="0" cType="1" depth="6" nType="-99" pos="r" purity="0.0e+00" res="0.187864035" rms="0.0e+00"/>
                </Node>
                <Node Cut="0.0e+00" IVar="-1" NCoef="0" cType="1" depth="5" nType="-99" pos="r" purity="0.0e+00" res="-0.224347368" rms="0.0e+00"/>
              </Node>
            </Node>
            <Node Cut="-0.136304319" IVar="2" NCoef="0" cType="1" depth="3" nType="0" pos="r" purity="0.0e+00" res="0.0e+00" rms="0.0e+00">
              <Node Cut="0.0e+00" IVar="-1" NCoef="0" cType="1" depth="4" nType="-99" pos="l" purity="0.0e+00" res="-0.29455927" rms="0.0e+00"/>
              <Node Cut="0.0e+00" IVar="-1" NCoef="0" cType="1" depth="4" nType="-99" pos="r" purity="0.0e+00" res="-0.369501054" rms="0.0e+00"/>
            </Node>
          </Node>
          <Node Cut="-0.13599813" IVar="2" NCoef="0" cType="1" depth="2" nType="0" pos="r" purity="0.0e+00" res="0.0e+00" rms="0.0e+00">
            <Node Cut="-0.466048956" IVar="0" NCoef="0" cType="1" depth="3" nType="0" pos="l" purity="0.0e+00" res="0.0e+00" rms="0.0e+00">
              <Node Cut="-1.02748096" IVar="6" NCoef="0" cType="1" depth="4" nType="0" pos="l" purity="0.0e+00" res="0.0e+00" rms="0.0e+00">
                <Node Cut="0.0e+00" IVar="-1" NCoef="0" cType="1" depth="5" nType="-99" pos="l" purity="0.0e+00" res="0.283034772" rms="0.0e+00"/>
                <Node Cut="-0.529899776" IVar="0" NCoef="0" cType="1" depth="5" nType="0" pos="r" purity="0.0e+00" res="0.0e+00" rms="0.0e+00">
                  <Node Cut="0.0e+00" IVar="-1" NCoef="0" cType="1" depth="6" nType="-99" pos="l" purity="0.0e+00" res="-0.31126222" rms="0.0e+00"/>
                  <Node Cut="0.0e+00" IVar="-1" NCoef="0" cType="1" depth="6" nType="-99" pos="r" purity="0.0e+00" res="-0.106502168" rms="0.0e+00"/>
                </Node>
              </Node>
              <Node Cut="-0.302762359" IVar="1" NCoef="0" cType="1" depth="4" nType="0" pos="r" purity="0.0e+00" res="0.0e+00" rms="0.0e+00">
                <Node Cut="-0.140307412" IVar="2" NCoef="0" cType="1" depth="5" nType="0" pos="l" purity="0.0e+00" res="0.0e+00" rms="0.0e+00">
                  <Node Cut="0.0e+00" IVar="-1" NCoef="0" cType="1" depth="6" nType="-99" pos="l" purity="0.0e+00" res="0.335021168" rms="0.0e+00"/>
                  <Node Cut="0.0e+00" IVar="-1" NCoef="0" cType="1" depth="6" nType="-99" pos="r" purity="0.0e+00" res="0.204336867" rms="0.0e+00"/>
                </Node>
                <Node Cut="0.0e+00" IVar="-1" NCoef="0" cType="1" depth="5" nType="-99" pos="r" purity="0.0e+00" res="0.0574762747" rms="0.0e+00"/>
              </Node>
            </Node>
            <Node Cut="-0.129011944" IVar="2" NCoef="0" cType="1" depth="3" nType="0" pos="r" purity="0.0e+00" res="0.0e+00" rms="0.0e+00">
              <Node Cut="0.0e+00" IVar="-1" NCoef="0" cType="1" depth="4" nType="-99" pos="l" purity="0.0e+00" res="-0.181374744" rms="0.0e+00"/>
              <Node Cut="-0.145053774" IVar="6" NCoef="0" cType="1" depth="4" nType="0" pos="r" purity="0.0e+00" res="0.0e+00" rms="0.0e+00">
                <Node Cut="0.0e+00" IVar="-1" NCoef="0" cType="1" depth="5" nType="-99" pos="l" purity="0.0e+00" res="-0.286421001" rms="0.0e+00"/>
                <Node Cut="0.0e+00" IVar="-1" NCoef="0" cType="1" depth="5" nType="-99" pos="r" purity="0.0e+00" res="-0.369501054" rms="0.0e+00"/>
              </Node>
            </Node>
          </Node>
        </Node>
        <Node Cut="-0.87799871" IVar="6" NCoef="0" cType="1" depth="1" nType="0" pos="r" purity="0.0e+00" res="0.0e+00" rms="0.0e+00">
          <Node Cut="0.332092017" IVar="5" NCoef="0" cType="1" depth="2" nType="0" pos="l" purity="0.0e+00" res="0.0e+00" rms="0.0e+00">
            <Node Cut="-0.3350178" IVar="5" NCoef="0" cType="1" depth="3" nType="0" pos="l" purity="0.0e+00" res="0.0e+00" rms="0.0e+00">
              <Node Cut="0.0e+00" IVar="-1" NCoef="0" cType="1" depth="4" nType="-99" pos="l" purity="0.0e+00" res="-0.286832005" rms="0.0e+00"/>
              <Node Cut="-0.209220558" IVar="5" NCoef="0" cType="1" depth="4" nType="0" pos="r" purity="0.0e+00" res="0.0e+00" rms="0.0e+00">
                <Node Cut="0.0e+00" IVar="-1" NCoef="0" cType="1" depth="5" nType="-99" pos="l" purity="0.0e+00" res="0.16393894" rms="0.0e+00"/>
                <Node Cut="0.222857475" IVar="5" NCoef="0" cType="1" depth="5" nType="0" pos="r" purity="0.0e+00" res="0.0e+00" rms="0.0e+00">
                  <Node Cut="-1.00654268" IVar="6" NCoef="0" cType="1" depth="6" nType="0" pos="l" purity="0.0e+00" res="0.0e+00" rms="0.0e+00">
                    <Node Cut="0.0e+00" IVar="-1" NCoef="0" cType="1" depth="7" nType="-99" pos="l" purity="0.0e+00" res="0.369501054" rms="0.0e+00"/>
                    <Node Cut="0.0e+00" IVar="-1" NCoef="0" cType="1" depth="7" nType="-99" pos="r" purity="0.0e+00" res="0.311914593" rms="0.0e+00"/>
                  </Node>
                  <Node Cut="0.0e+00" IVar="-1" NCoef="0" cType="1" depth="6" nType="-99" pos="r" purity="0.0e+00" res="0.173534647" rms="0.0e+00"/>
                </Node>
              </Node>
            </Node>
            <Node Cut="0.0750214085" IVar="7" NCoef="0" cType="1" depth="3" nType="0" pos="r" purity="0.0e+00" res="0.0e+00" rms="0.0e+00">
              <Node Cut="0.0e+00" IVar="-1" NCoef="0" cType="1" depth="4" nType="-99" pos="l" purity="0.0e+00" res="-0.369501054" rms="0.0e+00"/>
              <Node Cut="0.0e+00" IVar="-1" NCoef="0" cType="1" depth="4" nType="-99" pos="r" purity="0.0e+00" res="-0.233739495" rms="0.0e+00"/>
            </Node>
          </Node>
          <Node Cut="0.283763915" IVar="6" NCoef="0" cType="1" depth="2" nType="0" pos="r" purity="0.0e+00" res="0.0e+00" rms="0.0e+00">
            <Node Cut="-0.643527329" IVar="4" NCoef="0" cType="1" depth="3" nType="0" pos="l" purity="0.0e+00" res="0.0e+00" rms="0.0e+00">
              <Node Cut="-0.417297333" IVar="8" NCoef="0" cType="1" depth="4" nType="0" pos="l" purity="0.0e+00" res="0.0e+00" rms="0.0e+00">
                <Node Cut="0.0e+00" IVar="-1" NCoef="0" cType="1" depth="5" nType="-99" pos="l" purity="0.0e+00" res="-0.109838977" rms="0.0e+00"/>
                <Node Cut="-0.814422548" IVar="4" NCoef="0" cType="1" depth="5" nType="0" pos="r" purity="0.0e+00" res="0.0e+00" rms="0.0e+00">
                  <Node Cut="-0.989187837" IVar="4" NCoef="0" cType="1" depth="6" nType="0" pos="l" purity="0.0e+00" res="0.0e+00" rms="0.0e+00">
                    <Node Cut="0.0e+00" IVar="-1" NCoef="0" cType="1" depth="7" nType="-99" pos="l" purity="0.0e+00" res="0.369501054" rms="0.0e+00"/>
                    <Node Cut="0.0e+00" IVar="-1" NCoef="0" cType="1" depth="7" nType="-99" pos="r" purity="0.0e+00" res="0.317512065" rms="0.0e+00"/>
                  </Node>
                  <Node Cut="-0.131119251" IVar="6" NCoef="0" cType="1" depth="6" nType="0" pos="r" purity="0.0e+00" res="0.0e+00" rms="0.0e+00">
                    <Node Cut="0.0e+00" IVar="-1" NCoef="0" cType="1" depth="7" nType="-99" pos="l" purity="0.0e+00" res="0.263916522" rms="0.0e+00"/>
                    <Node Cut="0.0e+00" IVar="-1" NCoef="0" cType="1" depth="7" nType="-99" pos="r" purity="0.0e+00" res="0.0679498836" rms="0.0e+00"/>
                  </Node>
                </Node>
              </Node>
              <Node Cut="0.489912719" IVar="4" NCoef="0" cType="1" depth="4" nType="0" pos="r" purity="0.0e+00" res="0.0e+00" rms="0.0e+00">
                <Node Cut="-0.513669789" IVar="0" NCoef="0" cType="1" depth="5" nType="0" pos="l" purity="0.0e+00" res="0.0e+00" rms="0.0e+00">
                  <Node Cut="-0.472088456" IVar="4" NCoef="0" cType="1" depth="6" nType="0" pos="l" purity="0.0e+00" res="0.0e+00" rms="0.0e+00">
                    <Node Cut="0.0e+00" IVar="-1" NCoef="0" cType="1" depth="7" nType="-99" pos="l" purity="0.0e+00" res="-0.125258908" rms="0.0e+00"/>
                    <Node Cut="0.0e+00" IVar="-1" NCoef="0" cType="1" depth="7" nType="-99" pos="r" purity="0.0e+00" res="-0.369501054" rms="0.0e+00"/>
                  </Node>
                  <Node Cut="-0.132222041" IVar="2" NCoef="0" cType="1" depth="6" nType="0" pos="r" purity="0.0e+00" res="0.0e+00" rms="0.0e+00">
                    <Node Cut="0.0e+00" IVar="-1" NCoef="0" cType="1" depth="7" nType="-99" pos="l" purity="0.0e+00" res="0.0679802522" rms="0.0e+00"/>
                    <Node Cut="0.0e+00" IVar="-1" NCoef="0" cType="1" depth="7" nType="-99" pos="r" purity="0.0e+00" res="-0.281647176" rms="0.0e+00"/>
                  </Node>
                </Node>
                <Node Cut="0.818712354" IVar="4" NCoef="0" cType="1" depth="5" nType="0" pos="r" purity="0.0e+00" res="0.0e+00" rms="0.0e+00">
                  <Node Cut="0.193362936" IVar="10" NCoef="0" cType="1" depth="6" nType="0" pos="l" purity="0.0e+00" res="0.0e+00" rms="0.0e+00">
                    <Node Cut="0.0e+00" IVar="-1" NCoef="0" cType="1" depth="7" nType="-99" pos="l" purity="0.0e+00" res="-0.191781729" rms="0.0e+00"/>
                    <Node Cut="0.0e+00" IVar="-1" NCoef="0" cType="1" depth="7" nType="-99" pos="r" purity="0.0e+00" res="0.183042571" rms="0.0e+00"/>
                  </Node>
                  <Node Cut="-0.0560455546" IVar="6" NCoef="0" cType="1" depth="6" nType="0" pos="r" purity="0.0e+00" res="0.0e+00" rms="0.0e+00">
                    <Node Cut="0.0e+00" IVar="-1" NCoef="0" cType="1" depth="7" nType="-99" pos="l" purity="0.0e+00" res="0.368910313" rms="0.0e+00"/>
                    <Node Cut="0.0e+00" IVar="-1" NCoef="0" cType="1" depth="7" nType="-99" pos="r" purity="0.0e+00" res="0.106182404" rms="0.0e+00"/>
                  </Node>
                </Node>
              </Node>
            </Node>
            <Node Cut="-0.124799736" IVar="2" NCoef="0" cType="1" depth="3" nType="0" pos="r" purity="0.0e+00" res="0.0e+00" rms="0.0e+00">
              <Node Cut="-0.365334302" IVar="0" NCoef="0" cType="1" depth="4" nType="0" pos="l" purity="0.0e+00" res="0.0e+00" rms="0.0e+00">
                <Node Cut="0.0e+00" IVar="-1" NCoef="0" cType="1" depth="5" nType="-99" pos="l" purity="0.0e+00" res="-0.310775936" rms="0.0e+00"/>
                <Node Cut="0.0e+00" IVar="-1" NCoef="0" cType="1" depth="5" nType="-99" pos="r" purity="0.0e+00" res="0.0998194143" rms="0.0e+00"/>
              </Node>
              <Node Cut="-0.406995922" IVar="0" NCoef="0" cType="1" depth="4" nType="0" pos="r" purity="0.0e+00" res="0.0e+00" rms="0.0e+00">
                <Node Cut="0.0e+00" IVar="-1" NCoef="0" cType="1" depth="5" nType="-99" pos="l" purity="0.0e+00" res="-0.299518108" rms="0.0e+00"/>
                <Node Cut="0.0e+00" IVar="-1" NCoef="0" cType="1" depth="5" nType="-99" pos="r" purity="0.0e+00" res="-0.369501054" rms="0.0e+00"/>
              </Node>
            </Node>
          </Node>
        </Node>
      </Node>
    </BinaryTree>
    <BinaryTree boostWeight="1.0e+00" itree="7" type="DecisionTree">
      <Node Cut="-0.630238235" IVar="8" NCoef="0" cType="1" depth="0" nType="0" pos="s" purity="0.0e+00" res="0.0e+00" rms="0.0e+00">
        <Node Cut="-0.129653603" IVar="2" NCoef="0" cType="1" depth="1" nType="0" pos="l" purity="0.0e+00" res="0.0e+00" rms="0.0e+00">
          <Node Cut="-0.630960047" IVar="8" NCoef="0" cType="1" depth="2" nType="0" pos="l" purity="0.0e+00" res="0.0e+00" rms="0.0e+00">
            <Node Cut="-0.16854772" IVar="0" NCoef="0" cType="1" depth="3" nType="0" pos="l" purity="0.0e+00" res="0.0e+00" rms="0.0e+00">
              <Node Cut="-0.598379016" IVar="10" NCoef="0" cType="1" depth="4" nType="0" pos="l" purity="0.0e+00" res="0.0e+00" rms="0.0e+00">
                <Node Cut="-0.466048956" IVar="0" NCoef="0" cType="1" depth="5" nType="0" pos="l" purity="0.0e+00" res="0.0e+00" rms="0.0e+00">
                  <Node Cut="-0.137725756" IVar="2" NCoef="0" cType="1" depth="6" nType="0" pos="l" purity="0.0e+00" res="0.0e+00" rms="0.0e+00">
                    <Node Cut="0.0e+00" IVar="-1" NCoef="0" cType="1" depth="7" nType="-99" pos="l" purity="0.0e+00" res="-0.369501054" rms="0.0e+00"/>
                    <Node Cut="0.0e+00" IVar="-1" NCoef="0" cType="1" depth="7" nType="-99" pos="r" purity="0.0e+00" res="-0.326174021" rms="0.0e+00"/>
                  </Node>
                  <Node Cut="-0.296409309" IVar="1" NCoef="0" cType="1" depth="6" nType="0" pos="r" purity="0.0e+00" res="0.0e+00" rms="0.0e+00">
                    <Node Cut="0.0e+00" IVar="-1" NCoef="0" cType="1" depth="7" nType="-99" pos="l" purity="0.0e+00" res="-0.158731416" rms="0.0e+00"/>
                    <Node Cut="0.0e+00" IVar="-1" NCoef="0" cType="1" depth="7" nType="-99" pos="r" purity="0.0e+00" res="-0.361522526" rms="0.0e+00"/>
                  </Node>
                </Node>
                <Node Cut="-0.302762359" IVar="1" NCoef="0" cType="1" depth="5" nType="0" pos="r" purity="0.0e+00" res="0.0e+00" rms="0.0e+00">
                  <Node Cut="-0.138434857" IVar="2" NCoef="0" cType="1" depth="6" nType="0" pos="l" purity="0.0e+00" res="0.0e+00" rms="0.0e+00">
                    <Node Cut="0.0e+00" IVar="-1" NCoef="0" cType="1" depth="7" nType="-99" pos="l" purity="0.0e+00" res="-0.260948926" rms="0.0e+00"/>
                    <Node Cut="0.0e+00" IVar="-1" NCoef="0" cType="1" depth="7" nType="-99" pos="r" purity="0.0e+00" res="-0.0914418176" rms="0.0e+00"/>
                  </Node>
                  <Node Cut="0.0e+00" IVar="-1" NCoef="0" cType="1" depth="6" nType="-99" pos="r" purity="0.0e+00" res="-0.289830178" rms="0.0e+00"/>
                </Node>
              </Node>
              <Node Cut="0.0e+00" IVar="-1" NCoef="0" cType="1" depth="4" nType="-99" pos="r" purity="0.0e+00" res="-0.106072955" rms="0.0e+00"/>
            </Node>
            <Node Cut="-0.236274078" IVar="0" NCoef="0" cType="1" depth="3" nType="0" pos="r" purity="0.0e+00" res="0.0e+00" rms="0.0e+00">
              <Node Cut="1.57533455" IVar="9" NCoef="0" cType="1" depth="4" nType="0" pos="l" purity="0.0e+00" res="0.0e+00" rms="0.0e+00">
                <Node Cut="-0.301603317" IVar="1" NCoef="0" cType="1" depth="5" nType="0" pos="l" purity="0.0e+00" res="0.0e+00" rms="0.0e+00">
                  <Node Cut="-0.489516079" IVar="0" NCoef="0" cType="1" depth="6" nType="0" pos="l" purity="0.0e+00" res="0.0e+00" rms="0.0e+00">
                    <Node Cut="0.0e+00" IVar="-1" NCoef="0" cType="1" depth="7" nType="-99" pos="l" purity="0.0e+00" res="-0.196801469" rms="0.0e+00"/>
                    <Node Cut="0.0e+00" IVar="-1" NCoef="0" cType="1" depth="7" nType="-99" pos="r" purity="0.0e+00" res="0.0396220796" rms="0.0e+00"/>
                  </Node>
                  <Node Cut="0.0e+00" IVar="-1" NCoef="0" cType="1" depth="6" nType="-99" pos="r" purity="0.0e+00" res="-0.330312163" rms="0.0e+00"/>
                </Node>
                <Node Cut="0.0e+00" IVar="-1" NCoef="0" cType="1" depth="5" nType="-99" pos="r" purity="0.0e+00" res="0.180888414" rms="0.0e+00"/>
              </Node>
              <Node Cut="0.0e+00" IVar="-1" NCoef="0" cType="1" depth="4" nType="-99" pos="r" purity="0.0e+00" res="0.273410141" rms="0.0e+00"/>
            </Node>
          </Node>
          <Node Cut="-0.248573557" IVar="1" NCoef="0" cType="1" depth="2" nType="0" pos="r" purity="0.0e+00" res="0.0e+00" rms="0.0e+00">
            <Node Cut="-0.491060764" IVar="6" NCoef="0" cType="1" depth="3" nType="0" pos="l" purity="0.0e+00" res="0.0e+00" rms="0.0e+00">
              <Node Cut="0.0e+00" IVar="-1" NCoef="0" cType="1" depth="4" nType="-99" pos="l" purity="0.0e+00" res="-0.212624386" rms="0.0e+00"/>
              <Node Cut="0.66415298" IVar="5" NCoef="0" cType="1" depth="4" nType="0" pos="r" purity="0.0e+00" res="0.0e+00" rms="0.0e+00">
                <Node Cut="-0.59440428" IVar="5" NCoef="0" cType="1" depth="5" nType="0" pos="l" purity="0.0e+00" res="0.0e+00" rms="0.0e+00">
                  <Node Cut="0.0e+00" IVar="-1" NCoef="0" cType="1" depth="6" nType="-99" pos="l" purity="0.0e+00" res="-0.364456058" rms="0.0e+00"/>
                  <Node Cut="0.0e+00" IVar="-1" NCoef="0" cType="1" depth="6" nType="-99" pos="r" purity="0.0e+00" res="-0.195895955" rms="0.0e+00"/>
                </Node>
                <Node Cut="0.0e+00" IVar="-1" NCoef="0" cType="1" depth="5" nType="-99" pos="r" purity="0.0e+00" res="-0.369501054" rms="0.0e+00"/>
              </Node>
            </Node>
            <Node Cut="-0.827472508" IVar="4" NCoef="0" cType="1" depth="3" nType="0" pos="r" purity="0.0e+00" res="0.0e+00" rms="0.0e+00">
              <Node Cut="0.55218178" IVar="5" NCoef="0" cType="1" depth="4" nType="0" pos="l" purity="0.0e+00" res="0.0e+00" rms="0.0e+00">
                <Node Cut="0.0e+00" IVar="-1" NCoef="0" cType="1" depth="5" nType="-99" pos="l" purity="0.0e+00" res="-0.281523287" rms="0.0e+00"/>
                <Node Cut="0.0e+00" IVar="-1" NCoef="0" cType="1" depth="5" nType="-99" pos="r" purity="0.0e+00" res="-0.357673138" rms="0.0e+00"/>
              </Node>
              <Node Cut="2.60215163" IVar="4" NCoef="0" cType="1" depth="4" nType="0" pos="r" purity="0.0e+00" res="0.0e+00" rms="0.0e+00">
                <Node Cut="-0.126428768" IVar="2" NCoef="0" cType="1" depth="5" nType="0" pos="l" purity="0.0e+00" res="0.0e+00" rms="0.0e+00">
                  <Node Cut="0.0e+00" IVar="-1" NCoef="0" cType="1" depth="6" nType="-99" pos="l" purity="0.0e+00" res="-0.306426466" rms="0.0e+00"/>
                  <Node Cut="-0.645096779" IVar="6" NCoef="0" cType="1" depth="6" nType="0" pos="r" purity="0.0e+00" res="0.0e+00" rms="0.0e+00">
                    <Node Cut="0.0e+00" IVar="-1" NCoef="0" cType="1" depth="7" nType="-99" pos="l" purity="0.0e+00" res="-0.339249641" rms="0.0e+00"/>
                    <Node Cut="0.0e+00" IVar="-1" NCoef="0" cType="1" depth="7" nType="-99" pos="r" purity="0.0e+00" res="-0.369501054" rms="0.0e+00"/>
                  </Node>
                </Node>
                <Node Cut="0.0e+00" IVar="-1" NCoef="0" cType="1" depth="5" nType="-99" pos="r" purity="0.0e+00" res="-0.29830572" rms="0.0e+00"/>
              </Node>
            </Node>
          </Node>
        </Node>
        <Node Cut="-0.976035595" IVar="6" NCoef="0" cType="1" depth="1" nType="0" pos="r" purity="0.0e+00" res="0.0e+00" rms="0.0e+00">
          <Node Cut="-0.209220558" IVar="5" NCoef="0" cType="1" depth="2" nType="0" pos="l" purity="0.0e+00" res="0.0e+00" rms="0.0e+00">
            <Node Cut="0.0e+00" IVar="-1" NCoef="0" cType="1" depth="3" nType="-99" pos="l" purity="0.0e+00" res="-0.143108234" rms="0.0e+00"/>
            <Node Cut="0.222857475" IVar="5" NCoef="0" cType="1" depth="3" nType="0" pos="r" purity="0.0e+00" res="0.0e+00" rms="0.0e+00">
              <Node Cut="-1.06789219" IVar="6" NCoef="0" cType="1" depth="4" nType="0" pos="l" purity="0.0e+00" res="0.0e+00" rms="0.0e+00">
                <Node Cut="-0.345453501" IVar="1" NCoef="0" cType="1" depth="5" nType="0" pos="l" purity="0.0e+00" res="0.0e+00" rms="0.0e+00">
                  <Node Cut="-0.552773476" IVar="4" NCoef="0" cType="1" depth="6" nType="0" pos="l" purity="0.0e+00" res="0.0e+00" rms="0.0e+00">
                    <Node Cut="0.0e+00" IVar="-1" NCoef="0" cType="1" depth="7" nType="-99" pos="l" purity="0.0e+00" res="0.369501054" rms="0.0e+00"/>
                    <Node Cut="0.0e+00" IVar="-1" NCoef="0" cType="1" depth="7" nType="-99" pos="r" purity="0.0e+00" res="0.322143883" rms="0.0e+00"/>
                  </Node>
                  <Node Cut="0.0e+00" IVar="-1" NCoef="0" cType="1" depth="6" nType="-99" pos="r" purity="0.0e+00" res="0.369501054" rms="0.0e+00"/>
                </Node>
                <Node Cut="-0.668890774" IVar="4" NCoef="0" cType="1" depth="5" nType="0" pos="r" purity="0.0e+00" res="0.0e+00" rms="0.0e+00">
                  <Node Cut="0.0e+00" IVar="-1" NCoef="0" cType="1" depth="6" nType="-99" pos="l" purity="0.0e+00" res="0.369501054" rms="0.0e+00"/>
                  <Node Cut="0.467486918" IVar="4" NCoef="0" cType="1" depth="6" nType="0" pos="r" purity="0.0e+00" res="0.0e+00" rms="0.0e+00">
                    <Node Cut="0.0e+00" IVar="-1" NCoef="0" cType="1" depth="7" nType="-99" pos="l" purity="0.0e+00" res="0.210628137" rms="0.0e+00"/>
                    <Node Cut="0.0e+00" IVar="-1" NCoef="0" cType="1" depth="7" nType="-99" pos="r" purity="0.0e+00" res="0.355754584" rms="0.0e+00"/>
                  </Node>
                </Node>
              </Node>
              <Node Cut="0.0e+00" IVar="-1" NCoef="0" cType="1" depth="4" nType="-99" pos="r" purity="0.0e+00" res="-0.0957412347" rms="0.0e+00"/>
            </Node>
          </Node>
          <Node Cut="0.283763915" IVar="6" NCoef="0" cType="1" depth="2" nType="0" pos="r" purity="0.0e+00" res="0.0e+00" rms="0.0e+00">
            <Node Cut="1.82359159" IVar="9" NCoef="0" cType="1" depth="3" nType="0" pos="l" purity="0.0e+00" res="0.0e+00" rms="0.0e+00">
              <Node Cut="1.69868183" IVar="10" NCoef="0" cType="1" depth="4" nType="0" pos="l" purity="0.0e+00" res="0.0e+00" rms="0.0e+00">
                <Node Cut="0.492449999" IVar="10" NCoef="0" cType="1" depth="5" nType="0" pos="l" purity="0.0e+00" res="0.0e+00" rms="0.0e+00">
                  <Node Cut="-0.61097914" IVar="5" NCoef="0" cType="1" depth="6" nType="0" pos="l" purity="0.0e+00" res="0.0e+00" rms="0.0e+00">
                    <Node Cut="0.0e+00" IVar="-1" NCoef="0" cType="1" depth="7" nType="-99" pos="l" purity="0.0e+00" res="-0.284557134" rms="0.0e+00"/>
                    <Node Cut="0.0e+00" IVar="-1" NCoef="0" cType="1" depth="7" nType="-99" pos="r" purity="0.0e+00" res="0.0398947187" rms="0.0e+00"/>
                  </Node>
                  <Node Cut="-0.88426435" IVar="4" NCoef="0" cType="1" depth="6" nType="0" pos="r" purity="0.0e+00" res="0.0e+00" rms="0.0e+00">
                    <Node Cut="0.0e+00" IVar="-1" NCoef="0" cType="1" depth="7" nType="-99" pos="l" purity="0.0e+00" res="0.232983544" rms="0.0e+00"/>
                    <Node Cut="0.0e+00" IVar="-1" NCoef="0" cType="1" depth="7" nType="-99" pos="r" purity="0.0e+00" res="-0.369501054" rms="0.0e+00"/>
                  </Node>
                </Node>
                <Node Cut="0.198921815" IVar="9" NCoef="0" cType="1" depth="5" nType="0" pos="r" purity="0.0e+00" res="0.0e+00" rms="0.0e+00">
                  <Node Cut="0.0931006297" IVar="9" NCoef="0" cType="1" depth="6" nType="0" pos="l" purity="0.0e+00" res="0.0e+00" rms="0.0e+00">
                    <Node Cut="0.0e+00" IVar="-1" NCoef="0" cType="1" depth="7" nType="-99" pos="l" purity="0.0e+00" res="0.369501054" rms="0.0e+00"/>
                    <Node Cut="0.0e+00" IVar="-1" NCoef="0" cType="1" depth="7" nType="-99" pos="r" purity="0.0e+00" res="0.262611538" rms="0.0e+00"/>
                  </Node>
                  <Node Cut="-0.330920726" IVar="4" NCoef="0" cType="1" depth="6" nType="0" pos="r" purity="0.0e+00" res="0.0e+00" rms="0.0e+00">
                    <Node Cut="0.0e+00" IVar="-1" NCoef="0" cType="1" depth="7" nType="-99" pos="l" purity="0.0e+00" res="0.17518726" rms="0.0e+00"/>
                    <Node Cut="0.0e+00" IVar="-1" NCoef="0" cType="1" depth="7" nType="-99" pos="r" purity="0.0e+00" res="-0.0195510611" rms="0.0e+00"/>
                  </Node>
                </Node>
              </Node>
              <Node Cut="2.03218222" IVar="9" NCoef="0" cType="1" depth="4" nType="0" pos="r" purity="0.0e+00" res="0.0e+00" rms="0.0e+00">
                <Node Cut="-0.459048241" IVar="4" NCoef="0" cType="1" depth="5" nType="0" pos="l" purity="0.0e+00" res="0.0e+00" rms="0.0e+00">
                  <Node Cut="0.0e+00" IVar="-1" NCoef="0" cType="1" depth="6" nType="-99" pos="l" purity="0.0e+00" res="0.321518809" rms="0.0e+00"/>
                  <Node Cut="0.0e+00" IVar="-1" NCoef="0" cType="1" depth="6" nType="-99" pos="r" purity="0.0e+00" res="0.233623013" rms="0.0e+00"/>
                </Node>
                <Node Cut="0.0e+00" IVar="-1" NCoef="0" cType="1" depth="5" nType="-99" pos="r" purity="0.0e+00" res="0.359735668" rms="0.0e+00"/>
              </Node>
            </Node>
            <Node Cut="-0.261693686" IVar="1" NCoef="0" cType="1" depth="3" nType="0" pos="r" purity="0.0e+00" res="0.0e+00" rms="0.0e+00">
              <Node Cut="-0.974592209" IVar="7" NCoef="0" cType="1" depth="4" nType="0" pos="l" purity="0.0e+00" res="0.0e+00" rms="0.0e+00">
                <Node Cut="0.0e+00" IVar="-1" NCoef="0" cType="1" depth="5" nType="-99" pos="l" purity="0.0e+00" res="-0.156558737" rms="0.0e+00"/>
                <Node Cut="0.0e+00" IVar="-1" NCoef="0" cType="1" depth="5" nType="-99" pos="r" purity="0.0e+00" res="-0.0651266575" rms="0.0e+00"/>
              </Node>
              <Node Cut="0.418859094" IVar="6" NCoef="0" cType="1" depth="4" nType="0" pos="r" purity="0.0e+00" res="0.0e+00" rms="0.0e+00">
                <Node Cut="0.0e+00" IVar="-1" NCoef="0" cType="1" depth="5" nType="-99" pos="l" purity="0.0e+00" res="-0.313062727" rms="0.0e+00"/>
                <Node Cut="0.0e+00" IVar="-1" NCoef="0" cType="1" depth="5" nType="-99" pos="r" purity="0.0e+00" res="-0.369501054" rms="0.0e+00"/>
              </Node>
            </Node>
          </Node>
        </Node>
      </Node>
    </BinaryTree>
    <BinaryTree boostWeight="1.0e+00" itree="8" type="DecisionTree">
      <Node Cut="-0.218386859" IVar="10" NCoef="0" cType="1" depth="0" nType="0" pos="s" purity="0.0e+00" res="0.0e+00" rms="0.0e+00">
        <Node Cut="-0.337712795" IVar="6" NCoef="0" cType="1" depth="1" nType="0" pos="l" purity="0.0e+00" res="0.0e+00" rms="0.0e+00">
          <Node Cut="-0.50902158" IVar="8" NCoef="0" cType="1" depth="2" nType="0" pos="l" purity="0.0e+00" res="0.0e+00" rms="0.0e+00">
            <Node Cut="-0.2638385" IVar="1" NCoef="0" cType="1" depth="3" nType="0" pos="l" purity="0.0e+00" res="0.0e+00" rms="0.0e+00">
              <Node Cut="-0.406995922" IVar="0" NCoef="0" cType="1" depth="4" nType="0" pos="l" purity="0.0e+00" res="0.0e+00" rms="0.0e+00">
                <Node Cut="-0.630960286" IVar="8" NCoef="0" cType="1" depth="5" nType="0" pos="l" purity="0.0e+00" res="0.0e+00" rms="0.0e+00">
                  <Node Cut="-0.331086427" IVar="1" NCoef="0" cType="1" depth="6" nType="0" pos="l" purity="0.0e+00" res="0.0e+00" rms="0.0e+00">
                    <Node Cut="0.0e+00" IVar="-1" NCoef="0" cType="1" depth="7" nType="-99" pos="l" purity="0.0e+00" res="-0.321529627" rms="0.0e+00"/>
                    <Node Cut="0.0e+00" IVar="-1" NCoef="0" cType="1" depth="7" nType="-99" pos="r" purity="0.0e+00" res="-0.231544062" rms="0.0e+00"/>
                  </Node>
                  <Node Cut="-0.0661436394" IVar="5" NCoef="0" cType="1" depth="6" nType="0" pos="r" purity="0.0e+00" res="0.0e+00" rms="0.0e+00">
                    <Node Cut="0.0e+00" IVar="-1" NCoef="0" cType="1" depth="7" nType="-99" pos="l" purity="0.0e+00" res="-0.254942894" rms="0.0e+00"/>
                    <Node Cut="0.0e+00" IVar="-1" NCoef="0" cType="1" depth="7" nType="-99" pos="r" purity="0.0e+00" res="-0.0625510812" rms="0.0e+00"/>
                  </Node>
                </Node>
                <Node Cut="-0.301603317" IVar="1" NCoef="0" cType="1" depth="5" nType="0" pos="r" purity="0.0e+00" res="0.0e+00" rms="0.0e+00">
                  <Node Cut="0.0e+00" IVar="-1" NCoef="0" cType="1" depth="6" nType="-99" pos="l" purity="0.0e+00" res="0.243260711" rms="0.0e+00"/>
                  <Node Cut="0.0e+00" IVar="-1" NCoef="0" cType="1" depth="6" nType="-99" pos="r" purity="0.0e+00" res="-0.0291296858" rms="0.0e+00"/>
                </Node>
              </Node>
              <Node Cut="-0.846319079" IVar="5" NCoef="0" cType="1" depth="4" nType="0" pos="r" purity="0.0e+00" res="0.0e+00" rms="0.0e+00">
                <Node Cut="0.0e+00" IVar="-1" NCoef="0" cType="1" depth="5" nType="-99" pos="l" purity="0.0e+00" res="-0.36542514" rms="0.0e+00"/>
                <Node Cut="0.511437356" IVar="5" NCoef="0" cType="1" depth="5" nType="0" pos="r" purity="0.0e+00" res="0.0e+00" rms="0.0e+00">
                  <Node Cut="-0.424462289" IVar="5" NCoef="0" cType="1" depth="6" nType="0" pos="l" purity="0.0e+00" res="0.0e+00" rms="0.0e+00">
                    <Node Cut="0.0e+00" IVar="-1" NCoef="0" cType="1" depth="7" nType="-99" pos="l" purity="0.0e+00" res="-0.260920525" rms="0.0e+00"/>
                    <Node Cut="0.0e+00" IVar="-1" NCoef="0" cType="1" depth="7" nType="-99" pos="r" purity="0.0e+00" res="-0.0924395621" rms="0.0e+00"/>
                  </Node>
                  <Node Cut="0.769158304" IVar="5" NCoef="0" cType="1" depth="6" nType="0" pos="r" purity="0.0e+00" res="0.0e+00" rms="0.0e+00">
                    <Node Cut="0.0e+00" IVar="-1" NCoef="0" cType="1" depth="7" nType="-99" pos="l" purity="0.0e+00" res="-0.287681609" rms="0.0e+00"/>
                    <Node Cut="0.0e+00" IVar="-1" NCoef="0" cType="1" depth="7" nType="-99" pos="r" purity="0.0e+00" res="-0.347803712" rms="0.0e+00"/>
                  </Node>
                </Node>
              </Node>
            </Node>
            <Node Cut="-0.762197971" IVar="10" NCoef="0" cType="1" depth="3" nType="0" pos="r" purity="0.0e+00" res="0.0e+00" rms="0.0e+00">
